%YAML:1.0
---
opencv_ml_svm:
   format: 3
   svmType: C_SVC
   kernel:
      type: LINEAR
   C: 1.0000000000000001e-01
   term_criteria: { epsilon:1.1920928955078125e-07, iterations:1000 }
   var_count: 16
   class_count: 3
   class_labels: !!opencv-matrix
      rows: 3
      cols: 1
      dt: i
      data: [ 0, 1, 2 ]
   sv_total: 3
   support_vectors:
      - [ 1.51894078e-01, -6.20734058e-02, 1.40795829e-02,
          1.37512535e-01, 1.59045190e-01, 2.37098038e-02, 1.09782651e-01,
          1.35290653e-01, -1.40051201e-01, 6.36830106e-02,
          4.51097824e-02, -6.98130056e-02, 7.57954940e-02,
          1.68089103e-02, 9.18226391e-02, -2.46304832e-02 ]
      - [ -3.56824622e-02, -2.19531536e-01, -1.60555214e-01,
          -1.19822383e-01, -3.81211229e-02, -7.26642087e-03,
          -1.48169324e-01, 7.46826734e-03, -2.13856220e-01,
          -1.06634878e-01, -2.36739397e-01, -2.30554610e-01,
          -1.48335412e-01, -2.41785258e-01, -1.88413002e-02,
          -1.78492427e-01 ]
      - [ -9.26389098e-02, -2.31183261e-01, -1.87956378e-01,
          -1.07895635e-01, -1.81773573e-01, -1.00249112e-01,
          -2.18932629e-01, -1.19304635e-01, -5.85669689e-02,
          -1.97709352e-01, -2.67629206e-01, -2.13970676e-01,
          -2.70262271e-01, -2.74220318e-01, -1.56279340e-01,
          -1.97703734e-01 ]
   uncompressed_sv_total: 197
   uncompressed_support_vectors:
      - [ 11., 1., 3., 6., 0., 3., 1., 0., 10., 5., 4., 8., 16., 1., 4.,
          5. ]
      - [ 2., 2., 4., 8., 5., 9., 4., 4., 4., 6., 1., 1., 5., 7., 7.,
          11. ]
      - [ 3., 6., 5., 3., 7., 4., 1., 4., 8., 7., 3., 9., 4., 4., 0., 7. ]
      - [ 3., 3., 0., 0., 5., 12., 1., 4., 1., 16., 6., 9., 12., 4., 4.,
          3. ]
      - [ 1., 11., 5., 2., 13., 7., 1., 9., 4., 4., 2., 7., 2., 3., 6.,
          1. ]
      - [ 6., 2., 0., 2., 3., 23., 4., 2., 3., 2., 3., 9., 7., 9., 2.,
          4. ]
      - [ 5., 2., 2., 0., 1., 21., 1., 3., 4., 6., 2., 14., 7., 3., 2.,
          10. ]
      - [ 4., 7., 5., 3., 5., 7., 3., 5., 4., 5., 4., 4., 7., 5., 4., 6. ]
      - [ 4., 2., 4., 2., 8., 24., 3., 5., 4., 5., 3., 6., 7., 10., 1.,
          4. ]
      - [ 6., 8., 3., 4., 14., 1., 1., 0., 2., 2., 0., 10., 6., 9., 2.,
          5. ]
      - [ 3., 1., 7., 5., 3., 2., 5., 6., 9., 6., 4., 5., 1., 6., 9., 4. ]
      - [ 5., 8., 6., 6., 6., 2., 1., 3., 5., 6., 5., 4., 7., 2., 3., 4. ]
      - [ 8., 3., 6., 3., 8., 2., 3., 11., 3., 2., 1., 11., 6., 2., 2.,
          5. ]
      - [ 0., 8., 1., 2., 10., 10., 0., 2., 4., 3., 1., 15., 7., 4., 6.,
          3. ]
      - [ 6., 3., 5., 5., 5., 5., 3., 4., 10., 7., 3., 10., 2., 2., 7.,
          4. ]
      - [ 6., 1., 2., 1., 12., 7., 1., 1., 3., 5., 10., 9., 6., 6., 6.,
          4. ]
      - [ 6., 5., 7., 2., 5., 3., 9., 5., 3., 9., 4., 12., 1., 0., 11.,
          6. ]
      - [ 1., 10., 4., 1., 8., 0., 3., 4., 7., 3., 6., 4., 1., 2., 3.,
          4. ]
      - [ 6., 5., 1., 4., 6., 16., 0., 10., 1., 12., 1., 16., 8., 5., 3.,
          1. ]
      - [ 9., 1., 7., 7., 7., 9., 2., 0., 2., 9., 0., 17., 1., 1., 11.,
          6. ]
      - [ 5., 1., 1., 4., 1., 8., 6., 0., 7., 8., 3., 9., 3., 4., 1., 5. ]
      - [ 7., 3., 1., 6., 1., 7., 2., 10., 2., 5., 5., 9., 6., 6., 2.,
          7. ]
      - [ 15., 1., 2., 6., 8., 7., 1., 0., 4., 0., 5., 7., 7., 3., 2.,
          3. ]
      - [ 2., 2., 3., 0., 9., 11., 1., 1., 2., 8., 6., 13., 11., 7., 2.,
          4. ]
      - [ 1., 3., 0., 8., 6., 7., 0., 3., 0., 24., 4., 13., 10., 3., 1.,
          2. ]
      - [ 10., 2., 3., 1., 3., 22., 0., 4., 0., 17., 0., 17., 10., 2.,
          2., 4. ]
      - [ 3., 8., 7., 4., 8., 2., 2., 1., 5., 3., 4., 6., 7., 7., 3., 5. ]
      - [ 3., 1., 6., 8., 3., 6., 7., 4., 7., 4., 8., 3., 8., 14., 2.,
          10. ]
      - [ 7., 4., 4., 5., 3., 4., 5., 6., 7., 5., 5., 8., 4., 11., 2.,
          3. ]
      - [ 7., 5., 2., 10., 3., 6., 10., 5., 6., 1., 3., 1., 2., 5., 6.,
          9. ]
      - [ 2., 5., 5., 6., 9., 1., 5., 3., 15., 1., 3., 5., 7., 6., 7.,
          3. ]
      - [ 0., 1., 4., 7., 6., 4., 3., 4., 4., 10., 7., 10., 9., 8., 6.,
          3. ]
      - [ 10., 3., 4., 4., 1., 5., 8., 1., 11., 2., 0., 3., 5., 3., 6.,
          9. ]
      - [ 8., 2., 2., 5., 0., 2., 10., 4., 3., 3., 2., 5., 7., 9., 3.,
          8. ]
      - [ 2., 3., 3., 7., 6., 3., 6., 5., 2., 5., 9., 3., 4., 8., 0., 2. ]
      - [ 11., 2., 2., 2., 6., 11., 0., 2., 1., 4., 14., 9., 6., 4., 1.,
          2. ]
      - [ 1., 2., 1., 5., 9., 7., 2., 1., 2., 2., 1., 6., 10., 4., 2.,
          10. ]
      - [ 2., 10., 2., 2., 6., 7., 4., 7., 0., 5., 5., 4., 3., 11., 8.,
          3. ]
      - [ 7., 2., 5., 4., 2., 5., 2., 7., 4., 3., 0., 6., 1., 1., 7., 6. ]
      - [ 6., 3., 6., 3., 3., 9., 5., 6., 2., 3., 1., 1., 6., 7., 3., 3. ]
      - [ 2., 5., 1., 0., 2., 1., 2., 12., 7., 5., 4., 4., 6., 11., 3.,
          5. ]
      - [ 8., 11., 3., 6., 5., 1., 2., 6., 4., 5., 5., 5., 0., 6., 4.,
          5. ]
      - [ 0., 15., 8., 5., 5., 4., 4., 6., 3., 1., 3., 2., 2., 6., 6.,
          2. ]
      - [ 4., 8., 3., 0., 6., 4., 4., 3., 1., 6., 5., 11., 7., 1., 6.,
          9. ]
      - [ 5., 5., 1., 5., 1., 7., 2., 4., 2., 5., 4., 9., 5., 10., 7.,
          2. ]
      - [ 5., 3., 1., 2., 6., 4., 1., 6., 3., 4., 5., 1., 3., 9., 2., 3. ]
      - [ 14., 2., 1., 5., 3., 1., 2., 3., 1., 7., 3., 4., 1., 4., 7.,
          6. ]
      - [ 13., 10., 2., 6., 0., 3., 3., 13., 2., 2., 0., 3., 0., 8., 6.,
          8. ]
      - [ 3., 1., 0., 9., 4., 7., 5., 2., 8., 6., 6., 2., 13., 4., 2.,
          4. ]
      - [ 2., 6., 5., 2., 7., 0., 8., 17., 4., 1., 7., 4., 2., 8., 3.,
          6. ]
      - [ 4., 7., 8., 6., 5., 1., 13., 8., 1., 2., 4., 1., 2., 3., 1.,
          4. ]
      - [ 5., 4., 1., 7., 0., 5., 11., 3., 6., 5., 9., 4., 1., 7., 5.,
          1. ]
      - [ 2., 2., 0., 2., 7., 4., 5., 5., 8., 8., 4., 4., 2., 15., 2.,
          4. ]
      - [ 2., 2., 2., 5., 4., 3., 4., 0., 0., 10., 5., 3., 12., 6., 3.,
          1. ]
      - [ 3., 4., 3., 2., 8., 1., 10., 2., 5., 7., 3., 6., 4., 3., 1.,
          4. ]
      - [ 1., 6., 4., 7., 2., 2., 7., 3., 3., 9., 3., 12., 1., 4., 2.,
          6. ]
      - [ 5., 7., 5., 8., 5., 7., 4., 5., 2., 4., 7., 4., 3., 2., 1., 2. ]
      - [ 6., 10., 6., 2., 0., 7., 10., 4., 1., 1., 3., 2., 1., 3., 4.,
          14. ]
      - [ 2., 4., 6., 4., 3., 4., 13., 7., 2., 1., 4., 6., 4., 0., 4.,
          6. ]
      - [ 2., 9., 3., 6., 10., 2., 4., 5., 5., 13., 4., 0., 1., 1., 2.,
          2. ]
      - [ 10., 4., 7., 5., 6., 2., 3., 7., 5., 3., 2., 7., 2., 5., 1.,
          8. ]
      - [ 3., 12., 0., 2., 0., 2., 8., 11., 5., 2., 3., 3., 2., 4., 12.,
          9. ]
      - [ 5., 4., 5., 3., 1., 4., 12., 7., 8., 8., 4., 5., 0., 1., 1.,
          4. ]
      - [ 2., 6., 10., 1., 1., 1., 16., 11., 0., 5., 6., 4., 0., 1., 9.,
          1. ]
      - [ 2., 6., 4., 4., 1., 4., 22., 3., 1., 0., 11., 4., 0., 0., 10.,
          8. ]
      - [ 3., 11., 1., 1., 5., 3., 6., 9., 1., 4., 7., 2., 2., 1., 13.,
          4. ]
      - [ 7., 12., 1., 3., 4., 3., 13., 9., 2., 2., 2., 0., 0., 8., 2.,
          5. ]
      - [ 11., 7., 4., 6., 1., 3., 5., 4., 8., 2., 4., 7., 0., 3., 8.,
          1. ]
      - [ 22., 3., 4., 2., 0., 1., 2., 3., 5., 2., 7., 2., 0., 3., 9.,
          5. ]
      - [ 2., 2., 2., 9., 4., 10., 2., 2., 3., 10., 3., 15., 3., 7., 0.,
          5. ]
      - [ 5., 5., 4., 7., 4., 7., 2., 2., 6., 3., 2., 11., 7., 5., 4.,
          7. ]
      - [ 0., 6., 1., 2., 8., 10., 1., 1., 3., 7., 3., 11., 4., 8., 4.,
          4. ]
      - [ 3., 4., 2., 1., 4., 15., 2., 3., 2., 5., 9., 2., 3., 7., 2.,
          10. ]
      - [ 3., 2., 1., 4., 12., 11., 1., 0., 4., 4., 3., 13., 4., 7., 2.,
          4. ]
      - [ 0., 1., 1., 0., 3., 17., 1., 0., 2., 4., 9., 12., 5., 4., 7.,
          4. ]
      - [ 2., 1., 3., 4., 3., 13., 1., 0., 1., 4., 6., 11., 10., 8., 1.,
          3. ]
      - [ 8., 1., 2., 5., 1., 11., 1., 0., 3., 8., 7., 16., 6., 4., 1.,
          3. ]
      - [ 1., 1., 6., 5., 0., 14., 0., 3., 3., 10., 9., 12., 4., 3., 3.,
          3. ]
      - [ 4., 0., 4., 6., 4., 7., 0., 0., 1., 9., 8., 12., 8., 4., 3.,
          6. ]
      - [ 3., 1., 0., 1., 1., 11., 3., 2., 3., 10., 10., 5., 2., 12., 3.,
          4. ]
      - [ 2., 1., 3., 9., 5., 13., 1., 0., 8., 11., 2., 10., 5., 10., 1.,
          1. ]
      - [ 3., 8., 6., 2., 1., 11., 5., 5., 5., 2., 2., 4., 5., 8., 6.,
          9. ]
      - [ 4., 1., 6., 4., 5., 2., 1., 1., 3., 7., 11., 7., 6., 5., 6.,
          2. ]
      - [ 4., 11., 7., 2., 5., 6., 8., 5., 4., 4., 5., 0., 1., 7., 2.,
          12. ]
      - [ 7., 4., 2., 2., 4., 10., 6., 2., 2., 5., 4., 4., 3., 8., 5.,
          10. ]
      - [ 6., 5., 4., 2., 5., 6., 4., 3., 7., 6., 8., 8., 5., 9., 3., 1. ]
      - [ 3., 7., 4., 3., 6., 2., 6., 10., 3., 1., 6., 4., 2., 6., 4.,
          5. ]
      - [ 9., 8., 3., 4., 1., 5., 11., 7., 4., 4., 3., 6., 3., 3., 6.,
          1. ]
      - [ 4., 5., 3., 1., 5., 0., 3., 1., 2., 11., 5., 12., 3., 2., 3.,
          4. ]
      - [ 1., 3., 2., 3., 8., 2., 3., 3., 4., 7., 4., 8., 7., 7., 3., 3. ]
      - [ 2., 5., 8., 1., 1., 1., 8., 5., 4., 6., 3., 4., 7., 3., 9., 5. ]
      - [ 5., 7., 5., 2., 4., 4., 3., 6., 8., 4., 1., 1., 8., 3., 6., 5. ]
      - [ 6., 3., 7., 2., 4., 3., 3., 1., 5., 3., 2., 4., 13., 2., 3.,
          11. ]
      - [ 11., 3., 1., 0., 7., 7., 7., 1., 3., 7., 3., 7., 5., 1., 4.,
          5. ]
      - [ 9., 1., 3., 1., 4., 3., 1., 2., 5., 12., 2., 9., 13., 1., 4.,
          1. ]
      - [ 3., 3., 3., 9., 5., 4., 1., 2., 14., 9., 3., 9., 11., 2., 2.,
          6. ]
      - [ 4., 3., 1., 4., 2., 3., 1., 3., 8., 11., 8., 6., 5., 4., 8.,
          8. ]
      - [ 2., 2., 1., 2., 9., 7., 3., 2., 9., 8., 1., 11., 6., 6., 4.,
          11. ]
      - [ 3., 5., 6., 4., 3., 5., 2., 6., 16., 4., 1., 9., 2., 9., 7.,
          2. ]
      - [ 2., 3., 5., 8., 4., 12., 1., 2., 2., 6., 3., 9., 10., 6., 0.,
          2. ]
      - [ 3., 6., 5., 2., 9., 4., 2., 2., 5., 8., 3., 9., 10., 5., 1.,
          7. ]
      - [ 6., 2., 1., 2., 5., 3., 0., 6., 9., 13., 4., 6., 7., 6., 7.,
          6. ]
      - [ 4., 9., 6., 4., 4., 6., 4., 5., 6., 0., 6., 3., 2., 6., 6., 8. ]
      - [ 6., 12., 1., 2., 3., 1., 5., 10., 2., 7., 1., 3., 5., 5., 7.,
          8. ]
      - [ 3., 12., 2., 3., 6., 1., 8., 13., 5., 2., 0., 3., 0., 5., 5.,
          6. ]
      - [ 4., 10., 4., 3., 2., 0., 5., 9., 9., 1., 7., 9., 2., 5., 8.,
          2. ]
      - [ 2., 11., 1., 4., 7., 0., 4., 5., 1., 6., 4., 5., 2., 6., 4.,
          3. ]
      - [ 0., 1., 3., 7., 5., 8., 3., 0., 3., 3., 1., 10., 8., 7., 6.,
          6. ]
      - [ 6., 13., 7., 1., 1., 3., 10., 6., 2., 3., 5., 7., 1., 5., 3.,
          2. ]
      - [ 3., 6., 7., 13., 4., 7., 7., 4., 3., 6., 1., 8., 3., 4., 5.,
          4. ]
      - [ 2., 7., 8., 6., 1., 1., 10., 4., 3., 5., 2., 1., 3., 3., 5.,
          1. ]
      - [ 3., 7., 10., 1., 8., 1., 5., 3., 8., 5., 2., 1., 3., 3., 3.,
          3. ]
      - [ 2., 8., 1., 3., 5., 7., 3., 4., 3., 3., 7., 4., 5., 3., 4.,
          10. ]
      - [ 5., 3., 5., 3., 5., 1., 7., 1., 10., 4., 4., 11., 5., 4., 6.,
          3. ]
      - [ 7., 6., 8., 8., 2., 2., 3., 6., 7., 3., 1., 13., 2., 8., 5.,
          3. ]
      - [ 8., 8., 0., 4., 1., 2., 4., 5., 7., 4., 4., 7., 5., 4., 5., 9. ]
      - [ 5., 6., 0., 6., 9., 3., 9., 4., 2., 5., 4., 2., 4., 5., 2., 5. ]
      - [ 5., 2., 4., 4., 5., 6., 4., 11., 2., 2., 7., 5., 1., 4., 3.,
          2. ]
      - [ 2., 4., 2., 7., 1., 3., 5., 1., 3., 10., 5., 11., 2., 5., 2.,
          9. ]
      - [ 4., 1., 1., 1., 5., 3., 7., 0., 1., 7., 1., 5., 8., 4., 2.,
          10. ]
      - [ 5., 2., 5., 4., 7., 5., 0., 2., 9., 11., 3., 9., 5., 2., 6.,
          1. ]
      - [ 3., 1., 4., 3., 2., 12., 3., 0., 7., 8., 5., 7., 8., 12., 1.,
          1. ]
      - [ 5., 12., 3., 7., 7., 4., 4., 8., 7., 1., 3., 3., 3., 2., 4.,
          3. ]
      - [ 4., 2., 4., 7., 7., 6., 0., 0., 3., 10., 6., 14., 7., 4., 2.,
          3. ]
      - [ 4., 11., 3., 2., 4., 2., 5., 13., 7., 0., 3., 3., 0., 3., 10.,
          8. ]
      - [ 4., 4., 0., 9., 5., 10., 2., 1., 3., 4., 3., 13., 8., 1., 2.,
          11. ]
      - [ 3., 4., 3., 4., 6., 4., 5., 3., 2., 2., 5., 9., 2., 8., 3., 6. ]
      - [ 7., 8., 3., 3., 5., 1., 3., 2., 4., 7., 1., 9., 5., 3., 5., 9. ]
      - [ 6., 3., 2., 4., 3., 4., 4., 3., 6., 6., 4., 8., 3., 6., 2.,
          11. ]
      - [ 6., 6., 2., 7., 0., 2., 11., 4., 5., 2., 2., 3., 6., 6., 7.,
          9. ]
      - [ 3., 1., 3., 4., 8., 2., 5., 4., 6., 6., 11., 8., 5., 1., 6.,
          3. ]
      - [ 13., 4., 2., 1., 5., 8., 1., 0., 7., 1., 0., 15., 10., 7., 2.,
          2. ]
      - [ 6., 7., 2., 0., 5., 6., 1., 3., 2., 5., 0., 11., 8., 3., 7.,
          6. ]
      - [ 2., 7., 1., 5., 8., 5., 0., 5., 9., 7., 3., 4., 14., 4., 0.,
          2. ]
      - [ 2., 3., 10., 4., 8., 5., 2., 9., 5., 6., 2., 9., 4., 3., 5.,
          3. ]
      - [ 10., 5., 1., 4., 3., 3., 4., 6., 4., 6., 3., 10., 3., 14., 5.,
          3. ]
      - [ 4., 9., 6., 3., 1., 2., 14., 8., 5., 2., 1., 8., 0., 3., 8.,
          4. ]
      - [ 3., 8., 3., 3., 3., 2., 12., 9., 12., 2., 4., 7., 0., 4., 6.,
          3. ]
      - [ 3., 6., 4., 3., 4., 1., 6., 2., 3., 5., 3., 7., 1., 8., 10.,
          5. ]
      - [ 3., 7., 6., 5., 6., 2., 7., 10., 9., 1., 3., 4., 1., 8., 2.,
          2. ]
      - [ 5., 4., 2., 2., 2., 4., 3., 6., 4., 8., 3., 7., 6., 8., 4., 6. ]
      - [ 4., 8., 4., 2., 14., 1., 3., 5., 9., 9., 2., 4., 5., 6., 3.,
          5. ]
      - [ 1., 7., 10., 8., 4., 1., 5., 9., 9., 1., 2., 0., 0., 2., 6.,
          4. ]
      - [ 8., 8., 2., 0., 5., 2., 4., 6., 3., 3., 4., 8., 7., 4., 5., 4. ]
      - [ 9., 5., 9., 7., 2., 2., 6., 1., 2., 4., 1., 4., 1., 4., 4., 9. ]
      - [ 2., 5., 5., 2., 5., 0., 4., 12., 7., 7., 3., 4., 1., 5., 2.,
          3. ]
      - [ 7., 1., 5., 2., 2., 3., 3., 11., 8., 9., 3., 5., 2., 3., 9.,
          5. ]
      - [ 3., 3., 3., 7., 8., 2., 7., 7., 12., 4., 1., 2., 4., 5., 8.,
          7. ]
      - [ 8., 7., 1., 6., 4., 4., 13., 9., 0., 0., 5., 4., 2., 1., 4.,
          11. ]
      - [ 4., 1., 3., 12., 4., 10., 3., 3., 4., 10., 2., 17., 1., 3., 0.,
          6. ]
      - [ 5., 4., 0., 4., 3., 10., 1., 2., 5., 4., 6., 14., 12., 7., 2.,
          3. ]
      - [ 4., 1., 1., 3., 11., 10., 1., 0., 5., 5., 4., 12., 3., 9., 1.,
          3. ]
      - [ 1., 1., 1., 4., 2., 11., 4., 2., 9., 9., 8., 7., 6., 10., 2.,
          4. ]
      - [ 0., 1., 2., 0., 4., 20., 2., 0., 2., 6., 9., 16., 7., 7., 9.,
          4. ]
      - [ 5., 1., 2., 7., 3., 15., 1., 0., 2., 8., 8., 12., 10., 7., 1.,
          5. ]
      - [ 3., 0., 5., 7., 2., 10., 0., 0., 3., 10., 13., 10., 9., 4., 4.,
          4. ]
      - [ 1., 0., 2., 1., 2., 9., 1., 0., 1., 8., 8., 9., 1., 9., 1., 4. ]
      - [ 3., 2., 1., 9., 5., 14., 3., 2., 7., 13., 5., 8., 6., 9., 3.,
          3. ]
      - [ 5., 5., 8., 2., 2., 10., 5., 2., 8., 3., 3., 8., 5., 8., 6.,
          8. ]
      - [ 8., 4., 2., 2., 3., 8., 5., 2., 2., 6., 5., 5., 5., 9., 5., 9. ]
      - [ 7., 4., 6., 3., 6., 6., 3., 5., 7., 5., 7., 7., 3., 9., 3., 4. ]
      - [ 3., 9., 2., 5., 5., 5., 10., 8., 4., 3., 5., 6., 4., 7., 5.,
          3. ]
      - [ 4., 3., 2., 3., 8., 2., 5., 2., 5., 10., 6., 9., 7., 6., 4.,
          5. ]
      - [ 2., 4., 8., 2., 4., 1., 7., 6., 3., 7., 3., 5., 6., 4., 9., 5. ]
      - [ 1., 2., 7., 5., 6., 1., 5., 1., 8., 8., 6., 10., 6., 2., 1.,
          5. ]
      - [ 7., 8., 5., 2., 6., 5., 4., 6., 10., 4., 2., 3., 10., 3., 8.,
          7. ]
      - [ 11., 2., 3., 1., 4., 6., 3., 2., 4., 14., 5., 10., 14., 0., 6.,
          4. ]
      - [ 5., 3., 3., 8., 7., 4., 1., 2., 13., 14., 3., 8., 11., 3., 1.,
          6. ]
      - [ 4., 3., 2., 5., 2., 3., 1., 3., 9., 10., 7., 8., 6., 4., 9.,
          8. ]
      - [ 2., 2., 1., 2., 9., 6., 3., 2., 10., 9., 2., 11., 6., 6., 4.,
          11. ]
      - [ 3., 5., 5., 4., 3., 6., 2., 6., 17., 4., 1., 9., 2., 9., 7.,
          2. ]
      - [ 2., 5., 6., 8., 4., 13., 1., 2., 2., 6., 3., 11., 11., 7., 0.,
          2. ]
      - [ 4., 4., 5., 2., 10., 6., 2., 4., 5., 8., 3., 8., 11., 4., 3.,
          9. ]
      - [ 4., 11., 8., 2., 3., 4., 2., 8., 9., 1., 3., 4., 2., 5., 6.,
          12. ]
      - [ 7., 11., 2., 3., 5., 2., 2., 7., 8., 5., 1., 5., 6., 4., 9.,
          7. ]
      - [ 5., 11., 3., 3., 5., 1., 8., 14., 4., 5., 1., 5., 1., 8., 5.,
          4. ]
      - [ 3., 13., 2., 3., 6., 0., 4., 6., 4., 5., 4., 4., 1., 8., 7.,
          3. ]
      - [ 6., 10., 7., 3., 3., 4., 9., 6., 2., 3., 5., 8., 1., 5., 3.,
          2. ]
      - [ 3., 8., 8., 11., 2., 6., 8., 4., 4., 7., 1., 8., 4., 4., 6.,
          4. ]
      - [ 5., 6., 9., 6., 4., 2., 12., 7., 4., 5., 2., 0., 4., 3., 6.,
          1. ]
      - [ 2., 15., 14., 2., 6., 0., 2., 4., 14., 4., 4., 2., 4., 5., 4.,
          5. ]
      - [ 2., 7., 2., 3., 8., 6., 4., 5., 5., 2., 7., 4., 9., 4., 3.,
          10. ]
      - [ 9., 8., 8., 8., 2., 2., 3., 5., 8., 3., 1., 13., 2., 8., 6.,
          3. ]
      - [ 7., 9., 0., 6., 3., 4., 4., 5., 7., 4., 4., 9., 7., 4., 4., 9. ]
      - [ 5., 3., 1., 5., 11., 6., 11., 7., 1., 5., 8., 2., 2., 8., 3.,
          7. ]
      - [ 4., 5., 5., 9., 1., 3., 5., 9., 2., 10., 4., 11., 3., 5., 4.,
          6. ]
      - [ 5., 2., 0., 2., 3., 4., 8., 0., 3., 6., 4., 7., 8., 4., 2.,
          13. ]
      - [ 3., 2., 6., 4., 9., 2., 0., 2., 5., 13., 4., 9., 4., 2., 5.,
          0. ]
      - [ 5., 0., 0., 3., 3., 12., 1., 0., 9., 8., 4., 6., 9., 13., 2.,
          2. ]
      - [ 6., 12., 6., 5., 5., 5., 6., 7., 9., 2., 2., 3., 3., 2., 4.,
          1. ]
      - [ 3., 3., 4., 9., 9., 8., 0., 1., 2., 9., 8., 14., 5., 4., 2.,
          4. ]
      - [ 5., 13., 4., 2., 4., 2., 5., 13., 9., 2., 3., 6., 2., 3., 10.,
          9. ]
      - [ 4., 2., 2., 10., 6., 10., 3., 1., 2., 3., 3., 15., 8., 2., 3.,
          11. ]
      - [ 4., 4., 3., 3., 7., 4., 5., 4., 3., 3., 5., 8., 2., 7., 4., 7. ]
      - [ 7., 4., 1., 5., 2., 4., 3., 3., 4., 5., 3., 6., 4., 8., 7.,
          11. ]
      - [ 5., 6., 2., 6., 4., 4., 13., 3., 8., 4., 7., 6., 5., 3., 4.,
          6. ]
      - [ 6., 2., 4., 2., 4., 5., 3., 2., 8., 3., 5., 13., 12., 5., 6.,
          1. ]
   decision_functions:
      -
         sv_count: 1
         rho: 3.3063316942885215e+00
         alpha: [ 1. ]
         index: [ 0 ]
      -
         sv_count: 1
         rho: -1.1003520832397431e+01
         alpha: [ 1. ]
         index: [ 1 ]
      -
         sv_count: 1
         rho: -1.4786960421373074e+01
         alpha: [ 1. ]
         index: [ 2 ]
