%YAML:1.0
---
opencv_ml_svm:
   format: 3
   svmType: C_SVC
   kernel:
      type: RBF
      gamma: 5.0000000000000001e-04
   C: 5.
   term_criteria: { epsilon:1.1920928955078125e-07, iterations:1000 }
   var_count: 52
   class_count: 3
   class_labels: !!opencv-matrix
      rows: 3
      cols: 1
      dt: i
      data: [ 0, 1, 2 ]
   sv_total: 216
   support_vectors:
      - [ 5., 0., 1., 4., 0., 3., 0., 0., 1., 4., 1., 4., 8., 5., 2., 0.,
          1., 5., 0., 0., 1., 0., 2., 0., 2., 2., 0., 1., 5., 5., 0., 7.,
          0., 1., 4., 1., 6., 3., 1., 0., 1., 3., 0., 2., 1., 0., 0., 0.,
          1., 1., 1., 1. ]
      - [ 0., 0., 2., 2., 0., 5., 2., 1., 2., 0., 0., 0., 2., 1., 6., 2.,
          2., 0., 0., 4., 2., 2., 5., 0., 4., 0., 0., 8., 1., 1., 3., 3.,
          7., 3., 0., 1., 3., 2., 2., 0., 2., 2., 4., 2., 0., 0., 1., 3.,
          0., 1., 2., 5. ]
      - [ 2., 1., 0., 3., 0., 1., 2., 1., 0., 1., 1., 3., 4., 5., 1., 1.,
          1., 0., 0., 1., 4., 1., 1., 9., 1., 1., 0., 3., 1., 3., 0., 0.,
          1., 1., 2., 7., 2., 0., 2., 4., 2., 1., 5., 0., 1., 0., 0., 1.,
          2., 3., 2., 2. ]
      - [ 1., 2., 0., 9., 0., 0., 1., 2., 1., 0., 3., 0., 5., 0., 0., 0.,
          3., 5., 2., 2., 1., 1., 3., 4., 0., 1., 2., 2., 0., 1., 0., 1.,
          0., 0., 3., 12., 2., 0., 2., 2., 2., 3., 2., 0., 0., 5., 0.,
          2., 1., 1., 3., 7. ]
      - [ 6., 7., 4., 3., 4., 0., 0., 1., 2., 0., 1., 0., 1., 0., 0., 0.,
          2., 2., 0., 0., 2., 2., 2., 7., 0., 0., 1., 0., 4., 4., 1., 0.,
          0., 1., 0., 6., 1., 0., 4., 4., 0., 0., 4., 4., 1., 2., 0., 0.,
          4., 0., 0., 1. ]
      - [ 6., 1., 1., 12., 0., 3., 2., 2., 0., 0., 0., 1., 4., 2., 0.,
          1., 4., 2., 1., 2., 0., 1., 1., 0., 0., 2., 0., 1., 2., 1., 1.,
          0., 2., 2., 1., 3., 9., 0., 1., 2., 5., 5., 5., 1., 2., 0., 1.,
          1., 4., 0., 2., 1. ]
      - [ 5., 0., 0., 8., 0., 3., 0., 2., 0., 1., 2., 5., 1., 1., 1., 1.,
          0., 5., 0., 1., 1., 0., 2., 3., 0., 0., 2., 3., 1., 0., 0., 6.,
          0., 6., 3., 4., 10., 0., 0., 0., 1., 4., 1., 1., 2., 2., 3.,
          1., 2., 3., 2., 1. ]
      - [ 0., 2., 1., 2., 1., 2., 1., 3., 0., 3., 1., 0., 2., 1., 1., 0.,
          1., 4., 2., 3., 1., 2., 4., 4., 1., 1., 3., 2., 2., 4., 2., 3.,
          1., 9., 3., 1., 2., 1., 3., 1., 0., 1., 4., 0., 2., 2., 4., 1.,
          1., 2., 1., 2. ]
      - [ 2., 1., 0., 14., 0., 1., 2., 0., 3., 3., 3., 5., 2., 2., 0.,
          1., 0., 0., 3., 1., 2., 1., 0., 1., 4., 2., 2., 2., 3., 2., 0.,
          3., 1., 2., 0., 0., 13., 1., 6., 2., 1., 1., 5., 1., 0., 1.,
          1., 2., 1., 0., 4., 1. ]
      - [ 0., 1., 0., 3., 0., 0., 2., 3., 2., 3., 1., 1., 3., 0., 0., 3.,
          8., 0., 0., 0., 0., 0., 1., 4., 2., 2., 0., 0., 0., 2., 0., 1.,
          3., 0., 1., 4., 2., 0., 1., 5., 5., 14., 6., 1., 1., 1., 0.,
          2., 1., 0., 0., 1. ]
      - [ 3., 3., 0., 0., 1., 0., 2., 1., 0., 1., 0., 1., 1., 2., 0., 3.,
          4., 3., 2., 0., 3., 9., 1., 1., 1., 2., 0., 2., 1., 0., 1., 1.,
          0., 4., 1., 2., 3., 0., 8., 0., 2., 7., 2., 1., 4., 0., 1., 1.,
          3., 2., 0., 0. ]
      - [ 1., 2., 3., 1., 3., 1., 2., 1., 0., 3., 1., 2., 0., 3., 7., 4.,
          1., 0., 3., 3., 1., 0., 2., 1., 2., 0., 3., 1., 6., 6., 5., 1.,
          4., 1., 1., 0., 2., 1., 1., 1., 3., 2., 0., 1., 0., 0., 4., 0.,
          0., 1., 0., 3. ]
      - [ 3., 2., 1., 1., 2., 1., 4., 0., 2., 0., 4., 1., 5., 2., 0., 0.,
          2., 3., 1., 3., 4., 2., 3., 3., 1., 0., 3., 5., 0., 0., 4., 0.,
          0., 1., 2., 3., 2., 6., 1., 1., 0., 6., 4., 0., 2., 0., 2., 0.,
          0., 5., 0., 3. ]
      - [ 5., 2., 2., 2., 1., 1., 0., 5., 2., 0., 4., 2., 4., 2., 3., 1.,
          0., 0., 2., 4., 3., 3., 1., 5., 1., 2., 3., 3., 1., 1., 0., 3.,
          2., 2., 1., 1., 1., 5., 1., 4., 0., 0., 0., 3., 1., 1., 2., 0.,
          4., 3., 0., 1. ]
      - [ 1., 4., 2., 3., 6., 3., 1., 1., 0., 3., 1., 2., 4., 0., 2., 2.,
          0., 4., 0., 1., 1., 3., 2., 6., 0., 1., 1., 0., 1., 2., 0., 0.,
          0., 3., 3., 6., 6., 0., 1., 2., 3., 0., 2., 1., 0., 0., 0., 2.,
          2., 0., 4., 2. ]
      - [ 2., 0., 2., 4., 2., 3., 1., 2., 1., 0., 1., 6., 4., 2., 2., 1.,
          2., 6., 2., 1., 2., 0., 3., 3., 2., 2., 0., 1., 1., 4., 2., 4.,
          2., 1., 3., 3., 1., 0., 3., 1., 2., 1., 1., 4., 0., 0., 1., 1.,
          1., 2., 2., 3. ]
      - [ 0., 1., 1., 6., 2., 4., 0., 0., 1., 0., 6., 4., 3., 0., 2., 0.,
          0., 5., 4., 1., 1., 0., 2., 3., 1., 2., 0., 2., 7., 3., 2., 0.,
          1., 0., 3., 1., 2., 2., 4., 5., 2., 0., 1., 4., 1., 3., 0., 2.,
          3., 1., 3., 4. ]
      - [ 2., 2., 1., 3., 3., 0., 4., 5., 1., 5., 2., 5., 0., 0., 6., 3.,
          2., 1., 1., 0., 1., 1., 4., 1., 1., 6., 0., 4., 5., 2., 2., 4.,
          1., 1., 1., 4., 0., 4., 1., 0., 2., 3., 0., 3., 0., 4., 3., 1.,
          1., 2., 0., 0. ]
      - [ 4., 6., 2., 0., 2., 0., 4., 1., 1., 2., 4., 0., 0., 4., 1., 3.,
          2., 0., 3., 2., 3., 0., 1., 4., 0., 1., 0., 2., 2., 4., 1., 1.,
          0., 1., 2., 0., 1., 2., 6., 2., 0., 0., 1., 2., 0., 2., 2., 0.,
          4., 3., 4., 0. ]
      - [ 0., 3., 0., 16., 2., 3., 0., 6., 1., 0., 0., 9., 4., 0., 0.,
          0., 2., 4., 0., 0., 1., 2., 1., 9., 0., 0., 2., 0., 1., 0., 0.,
          1., 1., 1., 4., 6., 3., 0., 0., 5., 0., 1., 2., 2., 0., 0., 0.,
          1., 6., 1., 0., 8. ]
      - [ 4., 0., 0., 5., 0., 5., 5., 0., 0., 0., 1., 3., 1., 0., 7., 0.,
          2., 4., 0., 1., 0., 3., 0., 3., 4., 0., 0., 2., 8., 1., 2., 1.,
          2., 2., 8., 1., 1., 2., 0., 1., 1., 2., 2., 1., 1., 1., 1., 0.,
          11., 3., 0., 6. ]
      - [ 2., 1., 2., 6., 0., 7., 1., 0., 4., 1., 0., 2., 3., 1., 3., 3.,
          1., 2., 1., 1., 1., 1., 2., 3., 1., 3., 0., 0., 1., 2., 2., 2.,
          4., 2., 7., 5., 0., 0., 1., 0., 3., 1., 1., 0., 1., 0., 1., 1.,
          0., 0., 0., 4. ]
      - [ 3., 3., 2., 4., 0., 3., 1., 2., 2., 2., 0., 0., 0., 0., 4., 2.,
          7., 2., 4., 1., 2., 0., 2., 2., 2., 0., 1., 0., 0., 0., 1., 2.,
          5., 2., 1., 3., 2., 2., 3., 2., 1., 1., 2., 1., 1., 3., 1., 4.,
          9., 2., 1., 0. ]
      - [ 4., 0., 0., 4., 1., 2., 1., 5., 1., 0., 5., 4., 2., 0., 0., 2.,
          3., 7., 0., 1., 2., 0., 1., 1., 5., 4., 1., 1., 0., 2., 1., 4.,
          3., 0., 0., 3., 3., 1., 2., 2., 0., 5., 5., 1., 0., 1., 0., 0.,
          1., 2., 5., 2. ]
      - [ 4., 0., 1., 3., 1., 4., 2., 0., 0., 2., 0., 3., 4., 1., 1., 0.,
          1., 9., 2., 4., 6., 1., 1., 5., 0., 0., 0., 4., 1., 1., 0., 0.,
          1., 1., 2., 3., 4., 2., 0., 2., 3., 0., 1., 0., 0., 2., 0., 3.,
          1., 2., 2., 7. ]
      - [ 10., 0., 0., 2., 1., 6., 0., 1., 0., 0., 3., 3., 2., 1., 1.,
          0., 1., 2., 0., 0., 4., 1., 1., 5., 1., 0., 0., 2., 3., 2., 0.,
          0., 0., 0., 9., 14., 0., 0., 2., 3., 1., 1., 0., 1., 0., 1.,
          0., 1., 1., 0., 5., 13. ]
      - [ 3., 0., 0., 13., 1., 6., 2., 0., 0., 1., 1., 6., 4., 1., 1.,
          4., 0., 8., 0., 0., 0., 1., 1., 2., 1., 1., 2., 0., 4., 0., 0.,
          0., 0., 0., 0., 6., 5., 0., 3., 1., 0., 3., 3., 1., 0., 1., 0.,
          6., 8., 0., 0., 10. ]
      - [ 1., 4., 1., 1., 1., 4., 0., 0., 1., 2., 2., 3., 4., 4., 2., 1.,
          1., 0., 2., 0., 3., 1., 1., 5., 1., 0., 2., 2., 3., 1., 3., 1.,
          3., 1., 5., 1., 2., 2., 3., 0., 2., 1., 3., 0., 2., 1., 2., 4.,
          2., 1., 8., 0. ]
      - [ 5., 1., 0., 1., 0., 1., 3., 1., 1., 1., 5., 1., 3., 2., 0., 3.,
          9., 2., 4., 1., 1., 0., 2., 0., 1., 2., 5., 1., 0., 2., 3., 2.,
          5., 5., 0., 3., 4., 2., 1., 2., 0., 3., 1., 0., 0., 3., 2., 3.,
          0., 5., 2., 4. ]
      - [ 2., 1., 2., 3., 2., 2., 0., 4., 3., 2., 0., 3., 2., 3., 3., 1.,
          3., 1., 0., 1., 2., 2., 2., 3., 1., 2., 4., 1., 2., 2., 0., 1.,
          2., 2., 2., 1., 5., 2., 1., 1., 2., 4., 2., 1., 2., 2., 1., 3.,
          1., 1., 9., 4. ]
      - [ 0., 3., 1., 9., 1., 1., 1., 2., 3., 1., 1., 1., 2., 1., 3., 4.,
          2., 1., 0., 2., 1., 0., 5., 1., 4., 3., 1., 1., 0., 0., 2., 4.,
          6., 4., 0., 2., 3., 7., 0., 1., 4., 5., 2., 2., 1., 1., 2., 3.,
          0., 2., 0., 2. ]
      - [ 4., 4., 2., 1., 0., 1., 0., 2., 1., 1., 3., 3., 4., 3., 1., 0.,
          5., 0., 1., 1., 1., 4., 3., 0., 2., 2., 2., 0., 3., 6., 3., 2.,
          4., 2., 2., 0., 0., 4., 8., 1., 0., 0., 2., 1., 0., 1., 4., 2.,
          0., 0., 0., 4. ]
      - [ 2., 0., 1., 1., 3., 2., 0., 1., 0., 1., 1., 4., 4., 2., 1., 2.,
          3., 0., 1., 0., 0., 2., 2., 2., 1., 2., 2., 2., 1., 3., 0., 2.,
          2., 2., 7., 7., 1., 2., 2., 0., 3., 0., 5., 0., 1., 5., 4., 4.,
          1., 0., 2., 4. ]
      - [ 4., 0., 2., 0., 0., 0., 4., 0., 2., 3., 0., 0., 1., 5., 4., 4.,
          2., 0., 0., 0., 0., 2., 2., 0., 2., 1., 1., 2., 4., 1., 4., 6.,
          4., 1., 1., 0., 3., 1., 2., 0., 1., 2., 3., 6., 1., 1., 1., 0.,
          1., 2., 2., 2. ]
      - [ 1., 2., 3., 1., 0., 4., 0., 1., 0., 2., 1., 3., 1., 1., 2., 6.,
          4., 0., 2., 1., 1., 0., 1., 1., 4., 4., 1., 2., 2., 0., 1., 1.,
          4., 4., 1., 0., 0., 4., 1., 0., 1., 6., 3., 0., 0., 2., 5., 1.,
          1., 1., 2., 1. ]
      - [ 1., 1., 2., 0., 0., 4., 1., 3., 0., 5., 5., 1., 2., 0., 3., 0.,
          4., 1., 0., 5., 3., 0., 0., 2., 4., 2., 0., 0., 2., 2., 1., 0.,
          1., 2., 2., 0., 1., 1., 2., 1., 1., 1., 1., 3., 2., 7., 2., 1.,
          0., 1., 3., 1. ]
      - [ 2., 1., 0., 5., 0., 2., 0., 1., 0., 0., 2., 1., 0., 0., 1., 0.,
          5., 3., 2., 1., 0., 0., 1., 7., 5., 0., 1., 0., 0., 2., 2., 2.,
          4., 1., 2., 2., 1., 4., 2., 1., 0., 7., 7., 2., 0., 1., 2., 0.,
          6., 0., 1., 1. ]
      - [ 0., 0., 0., 2., 0., 0., 3., 1., 1., 0., 0., 3., 3., 0., 2., 5.,
          0., 2., 1., 0., 0., 0., 2., 16., 4., 0., 0., 0., 1., 0., 0.,
          5., 1., 4., 1., 3., 6., 0., 1., 0., 0., 0., 4., 0., 2., 2., 1.,
          1., 0., 1., 2., 0. ]
      - [ 0., 6., 1., 0., 1., 2., 0., 0., 2., 0., 5., 4., 3., 2., 1., 3.,
          1., 3., 7., 0., 0., 2., 7., 5., 0., 0., 2., 0., 0., 2., 1., 1.,
          3., 3., 1., 6., 3., 0., 0., 5., 1., 3., 0., 0., 1., 0., 4., 2.,
          0., 0., 7., 0. ]
      - [ 2., 3., 0., 3., 0., 0., 4., 1., 0., 1., 1., 1., 1., 1., 6., 2.,
          1., 2., 1., 1., 2., 2., 5., 1., 3., 6., 5., 4., 3., 0., 0., 3.,
          4., 2., 2., 2., 3., 0., 2., 1., 2., 1., 1., 1., 3., 0., 2., 0.,
          1., 0., 2., 3. ]
      - [ 0., 3., 2., 5., 3., 0., 2., 3., 0., 0., 1., 0., 7., 0., 2., 0.,
          1., 1., 2., 0., 1., 1., 3., 1., 1., 4., 3., 0., 1., 1., 2., 6.,
          3., 4., 1., 1., 4., 3., 2., 0., 3., 2., 1., 2., 0., 3., 0., 0.,
          0., 3., 0., 2. ]
      - [ 0., 2., 2., 0., 2., 0., 2., 2., 4., 3., 1., 1., 2., 1., 1., 0.,
          6., 0., 5., 3., 0., 0., 2., 2., 2., 1., 0., 0., 2., 1., 0., 1.,
          3., 0., 4., 1., 4., 0., 1., 5., 5., 4., 3., 0., 2., 3., 0., 3.,
          1., 0., 0., 3. ]
      - [ 2., 5., 3., 2., 4., 1., 1., 0., 0., 1., 0., 3., 1., 1., 2., 1.,
          3., 1., 7., 1., 3., 2., 0., 1., 4., 0., 0., 0., 2., 0., 0., 2.,
          2., 2., 3., 0., 2., 4., 0., 2., 3., 6., 2., 5., 6., 2., 0., 0.,
          1., 0., 3., 4. ]
      - [ 2., 11., 6., 1., 0., 1., 3., 2., 2., 0., 2., 0., 1., 3., 2.,
          0., 1., 3., 2., 4., 0., 3., 3., 2., 1., 1., 4., 1., 3., 0., 1.,
          1., 5., 2., 1., 0., 0., 1., 5., 0., 5., 0., 0., 3., 1., 0., 2.,
          0., 1., 4., 4., 0. ]
      - [ 2., 4., 2., 2., 3., 2., 2., 1., 0., 0., 2., 4., 2., 1., 1., 4.,
          0., 0., 0., 5., 3., 1., 1., 0., 2., 4., 1., 0., 4., 2., 0., 1.,
          2., 5., 4., 1., 1., 2., 1., 1., 0., 1., 1., 3., 2., 4., 1., 0.,
          0., 0., 1., 4. ]
      - [ 1., 0., 0., 1., 0., 3., 1., 0., 1., 1., 3., 6., 1., 1., 5., 2.,
          5., 3., 3., 2., 1., 0., 1., 3., 4., 1., 1., 0., 0., 4., 1., 2.,
          2., 4., 0., 5., 3., 1., 1., 1., 5., 1., 6., 1., 0., 1., 0., 1.,
          4., 2., 5., 0. ]
      - [ 0., 0., 1., 0., 0., 1., 0., 3., 1., 2., 1., 0., 0., 0., 1., 0.,
          3., 2., 1., 3., 0., 3., 1., 2., 0., 1., 3., 2., 1., 0., 2., 0.,
          2., 5., 1., 1., 2., 0., 4., 2., 2., 3., 1., 2., 0., 4., 1., 1.,
          2., 1., 7., 4. ]
      - [ 0., 5., 2., 0., 1., 1., 2., 9., 4., 0., 0., 0., 1., 2., 7., 3.,
          3., 0., 5., 1., 3., 1., 1., 0., 0., 4., 9., 2., 0., 1., 0., 4.,
          3., 5., 0., 0., 3., 0., 3., 2., 2., 1., 1., 1., 2., 2., 4., 1.,
          0., 1., 4., 2. ]
      - [ 1., 0., 1., 1., 0., 3., 0., 2., 0., 0., 2., 4., 1., 1., 1., 5.,
          4., 4., 5., 1., 1., 1., 1., 2., 1., 2., 1., 1., 5., 2., 5., 1.,
          2., 2., 0., 1., 0., 2., 1., 0., 2., 12., 0., 3., 2., 0., 1.,
          1., 0., 1., 0., 1. ]
      - [ 1., 2., 0., 3., 1., 2., 3., 6., 0., 6., 0., 0., 6., 1., 4., 0.,
          0., 6., 1., 1., 1., 4., 1., 1., 5., 1., 4., 0., 1., 3., 2., 0.,
          0., 0., 0., 4., 0., 2., 0., 4., 0., 5., 7., 4., 1., 1., 0., 0.,
          0., 1., 2., 3. ]
      - [ 0., 4., 0., 3., 3., 1., 2., 1., 0., 0., 3., 1., 0., 2., 2., 0.,
          3., 1., 1., 2., 2., 4., 2., 0., 2., 9., 5., 2., 0., 0., 3., 1.,
          6., 1., 0., 1., 3., 3., 1., 2., 0., 2., 2., 2., 1., 1., 2., 0.,
          0., 1., 3., 0. ]
      - [ 0., 2., 1., 2., 0., 1., 3., 3., 2., 1., 0., 1., 0., 1., 1., 0.,
          1., 2., 3., 3., 4., 4., 3., 0., 4., 4., 5., 4., 2., 1., 0., 0.,
          3., 0., 1., 4., 7., 2., 0., 0., 1., 2., 2., 0., 0., 1., 4., 3.,
          0., 1., 0., 1. ]
      - [ 0., 2., 0., 2., 1., 0., 1., 3., 1., 2., 2., 3., 0., 0., 2., 0.,
          2., 9., 4., 1., 6., 1., 1., 4., 2., 4., 4., 2., 2., 1., 1., 1.,
          5., 0., 0., 2., 0., 0., 2., 6., 3., 2., 2., 3., 1., 1., 1., 2.,
          0., 0., 1., 5. ]
      - [ 6., 0., 1., 0., 0., 2., 0., 1., 0., 1., 3., 1., 4., 2., 0., 0.,
          1., 1., 0., 1., 1., 0., 0., 2., 2., 3., 0., 1., 0., 3., 2., 3.,
          4., 0., 1., 7., 8., 7., 1., 3., 1., 1., 5., 0., 3., 3., 1., 1.,
          0., 1., 1., 1. ]
      - [ 0., 6., 3., 2., 2., 4., 0., 2., 1., 0., 0., 0., 2., 1., 3., 1.,
          3., 11., 3., 0., 2., 0., 1., 3., 0., 2., 8., 3., 3., 3., 3.,
          2., 1., 0., 0., 1., 3., 2., 0., 3., 1., 0., 0., 2., 3., 0., 2.,
          0., 1., 1., 3., 3. ]
      - [ 1., 7., 4., 1., 0., 1., 4., 4., 2., 0., 4., 0., 0., 1., 3., 4.,
          5., 2., 5., 1., 1., 0., 3., 1., 0., 2., 7., 2., 2., 1., 3., 2.,
          5., 1., 1., 0., 1., 0., 4., 3., 1., 1., 2., 0., 1., 1., 1., 0.,
          0., 1., 0., 0. ]
      - [ 0., 0., 1., 0., 2., 0., 0., 10., 1., 0., 0., 0., 2., 0., 2.,
          3., 0., 1., 1., 1., 2., 29., 2., 1., 0., 4., 2., 7., 0., 0.,
          1., 0., 0., 0., 0., 0., 0., 2., 0., 2., 0., 4., 0., 1., 0., 0.,
          0., 0., 1., 0., 0., 0. ]
      - [ 0., 4., 3., 0., 2., 1., 8., 4., 1., 1., 1., 0., 0., 0., 0., 2.,
          2., 1., 3., 1., 3., 1., 0., 3., 4., 5., 6., 2., 0., 0., 2., 3.,
          0., 0., 1., 0., 1., 2., 2., 1., 1., 1., 1., 4., 0., 1., 2., 0.,
          0., 1., 1., 1. ]
      - [ 2., 0., 0., 1., 1., 2., 1., 0., 2., 0., 2., 2., 3., 1., 0., 2.,
          1., 8., 0., 2., 0., 0., 2., 3., 4., 2., 0., 0., 0., 2., 1., 0.,
          1., 1., 0., 4., 1., 2., 1., 1., 4., 1., 2., 1., 5., 2., 0., 0.,
          0., 6., 3., 3. ]
      - [ 0., 0., 0., 0., 0., 0., 3., 1., 2., 5., 3., 2., 1., 1., 2., 3.,
          1., 5., 0., 1., 6., 4., 1., 0., 5., 3., 1., 0., 3., 1., 1., 0.,
          1., 3., 0., 0., 3., 3., 3., 1., 0., 1., 0., 1., 9., 5., 2., 1.,
          0., 4., 0., 1. ]
      - [ 0., 1., 0., 0., 0., 6., 1., 0., 3., 1., 1., 6., 0., 0., 1., 1.,
          1., 1., 1., 2., 2., 1., 1., 2., 5., 3., 1., 2., 2., 1., 1., 1.,
          4., 3., 3., 1., 1., 1., 2., 0., 1., 0., 0., 0., 4., 0., 0., 6.,
          2., 3., 4., 7. ]
      - [ 2., 7., 4., 4., 0., 2., 6., 0., 0., 1., 2., 1., 0., 0., 1., 4.,
          2., 2., 2., 2., 1., 0., 0., 2., 0., 5., 4., 5., 0., 2., 1., 0.,
          5., 1., 0., 2., 2., 0., 0., 0., 2., 4., 0., 3., 0., 0., 3., 0.,
          2., 4., 0., 0. ]
      - [ 1., 2., 2., 1., 0., 3., 1., 1., 2., 0., 1., 1., 0., 1., 2., 3.,
          1., 3., 0., 0., 3., 1., 2., 1., 3., 7., 4., 4., 3., 0., 3., 1.,
          6., 2., 0., 3., 2., 2., 2., 2., 0., 1., 0., 1., 1., 0., 2., 2.,
          0., 3., 3., 1. ]
      - [ 2., 6., 1., 0., 2., 1., 3., 4., 0., 4., 1., 0., 2., 0., 3., 0.,
          0., 0., 4., 5., 0., 0., 2., 3., 0., 1., 4., 0., 3., 0., 2., 1.,
          2., 0., 0., 5., 0., 5., 5., 4., 1., 2., 0., 1., 1., 0., 1., 1.,
          2., 0., 4., 2. ]
      - [ 1., 4., 1., 0., 0., 0., 3., 1., 0., 3., 1., 0., 0., 0., 0., 2.,
          1., 5., 3., 0., 6., 1., 1., 0., 5., 3., 5., 4., 0., 0., 5., 9.,
          5., 3., 0., 3., 1., 1., 0., 1., 0., 0., 0., 3., 1., 1., 1., 2.,
          1., 0., 2., 1. ]
      - [ 3., 2., 0., 1., 5., 0., 0., 3., 0., 0., 4., 2., 1., 2., 1., 1.,
          1., 3., 0., 2., 1., 6., 2., 1., 2., 4., 1., 2., 6., 1., 2., 1.,
          0., 2., 2., 1., 1., 3., 2., 3., 1., 4., 2., 0., 5., 0., 0., 0.,
          4., 4., 3., 3. ]
      - [ 0., 8., 2., 0., 0., 1., 2., 7., 1., 2., 2., 0., 1., 1., 2., 3.,
          4., 2., 1., 0., 0., 2., 6., 0., 0., 2., 7., 1., 0., 4., 0., 5.,
          1., 4., 0., 1., 0., 0., 0., 1., 0., 5., 1., 3., 0., 0., 7., 0.,
          1., 0., 0., 0. ]
      - [ 2., 2., 4., 0., 0., 1., 3., 5., 1., 2., 3., 2., 0., 1., 0., 0.,
          1., 1., 4., 0., 0., 1., 1., 1., 3., 9., 3., 0., 0., 1., 5., 0.,
          4., 3., 1., 0., 5., 0., 1., 0., 1., 6., 1., 2., 0., 3., 0., 2.,
          0., 1., 0., 4. ]
      - [ 1., 1., 6., 0., 0., 1., 1., 3., 0., 1., 2., 1., 0., 0., 4., 1.,
          3., 0., 0., 0., 1., 2., 0., 0., 0., 7., 9., 0., 0., 0., 4., 0.,
          11., 0., 0., 0., 0., 1., 2., 1., 2., 1., 0., 4., 3., 0., 0.,
          1., 2., 7., 3., 4. ]
      - [ 0., 2., 6., 0., 0., 0., 5., 7., 0., 0., 0., 0., 0., 0., 2., 6.,
          2., 1., 3., 0., 0., 0., 2., 0., 1., 8., 18., 0., 0., 2., 5.,
          2., 6., 0., 0., 0., 0., 1., 0., 7., 0., 2., 1., 5., 1., 0., 0.,
          0., 1., 0., 1., 1. ]
      - [ 1., 7., 0., 1., 2., 0., 8., 8., 0., 1., 6., 0., 0., 0., 0., 3.,
          0., 4., 1., 3., 6., 0., 2., 1., 2., 4., 1., 4., 0., 0., 0., 0.,
          1., 2., 0., 1., 1., 0., 2., 2., 1., 5., 0., 1., 6., 1., 0., 0.,
          0., 1., 1., 0. ]
      - [ 0., 3., 4., 0., 2., 0., 1., 11., 0., 0., 3., 0., 0., 0., 1.,
          0., 1., 1., 0., 1., 1., 1., 1., 1., 0., 12., 18., 0., 2., 0.,
          4., 1., 14., 0., 0., 0., 0., 0., 0., 0., 0., 0., 0., 2., 0.,
          1., 0., 1., 0., 1., 0., 0. ]
      - [ 1., 5., 6., 1., 1., 1., 3., 6., 0., 1., 2., 0., 1., 0., 2., 0.,
          0., 5., 2., 4., 5., 2., 5., 2., 2., 1., 6., 1., 0., 2., 0., 0.,
          8., 0., 2., 1., 0., 0., 1., 1., 0., 2., 0., 3., 1., 0., 0., 2.,
          0., 0., 1., 1. ]
      - [ 2., 5., 4., 0., 0., 2., 0., 2., 0., 0., 0., 0., 0., 1., 2., 1.,
          8., 4., 2., 0., 0., 1., 1., 0., 1., 5., 5., 0., 3., 0., 2., 2.,
          10., 0., 1., 1., 0., 1., 0., 4., 0., 5., 1., 4., 3., 1., 0.,
          1., 0., 7., 4., 0. ]
      - [ 0., 4., 1., 0., 0., 0., 6., 2., 0., 0., 0., 0., 0., 2., 6., 7.,
          4., 0., 3., 0., 0., 0., 0., 0., 1., 8., 9., 0., 0., 0., 0., 0.,
          5., 1., 1., 1., 2., 1., 1., 2., 1., 5., 4., 4., 0., 0., 1., 0.,
          0., 1., 3., 0. ]
      - [ 3., 1., 4., 0., 1., 1., 0., 1., 2., 1., 3., 1., 0., 1., 2., 1.,
          2., 4., 8., 0., 1., 2., 0., 1., 5., 1., 4., 0., 1., 3., 2., 2.,
          6., 1., 1., 0., 0., 0., 0., 1., 0., 3., 1., 6., 2., 0., 2., 2.,
          4., 3., 0., 0. ]
      - [ 5., 1., 0., 0., 3., 0., 3., 0., 3., 1., 6., 0., 0., 6., 0., 4.,
          1., 0., 1., 0., 0., 1., 0., 1., 0., 3., 2., 0., 4., 0., 4., 4.,
          0., 1., 0., 1., 2., 2., 1., 0., 0., 14., 0., 7., 0., 1., 2.,
          1., 2., 2., 1., 0. ]
      - [ 1., 0., 1., 4., 0., 4., 0., 2., 1., 4., 1., 7., 2., 1., 5., 0.,
          0., 1., 2., 3., 3., 0., 0., 2., 3., 0., 0., 2., 4., 1., 0., 2.,
          2., 1., 5., 1., 4., 1., 0., 1., 4., 0., 2., 1., 0., 2., 2., 1.,
          2., 0., 3., 9. ]
      - [ 5., 0., 1., 3., 0., 5., 1., 1., 1., 3., 0., 1., 1., 2., 0., 1.,
          0., 2., 0., 1., 4., 0., 0., 5., 3., 0., 2., 3., 5., 2., 5., 7.,
          1., 4., 4., 1., 1., 1., 0., 3., 1., 1., 2., 0., 1., 2., 0., 0.,
          2., 4., 7., 0. ]
      - [ 2., 2., 0., 3., 1., 3., 0., 1., 0., 1., 2., 2., 2., 3., 1., 3.,
          0., 2., 0., 0., 7., 0., 0., 4., 2., 1., 1., 2., 1., 0., 0., 2.,
          5., 4., 1., 3., 4., 1., 3., 1., 7., 1., 0., 0., 0., 1., 2., 1.,
          3., 1., 2., 2. ]
      - [ 2., 2., 0., 8., 0., 5., 0., 0., 0., 1., 1., 9., 6., 0., 1., 1.,
          2., 1., 0., 0., 3., 0., 0., 0., 4., 0., 0., 2., 3., 5., 1., 0.,
          3., 2., 3., 2., 3., 3., 1., 1., 1., 0., 0., 0., 0., 0., 2., 2.,
          6., 3., 1., 4. ]
      - [ 1., 0., 1., 7., 0., 3., 0., 0., 1., 2., 0., 5., 4., 2., 0., 1.,
          1., 6., 0., 0., 4., 0., 1., 5., 1., 2., 0., 1., 2., 2., 1., 0.,
          3., 2., 5., 5., 2., 2., 3., 2., 2., 0., 0., 1., 1., 2., 1., 3.,
          2., 4., 4., 0. ]
      - [ 0., 0., 1., 9., 0., 2., 0., 1., 0., 1., 3., 0., 5., 2., 0., 0.,
          0., 3., 2., 0., 0., 0., 3., 1., 2., 0., 5., 1., 0., 3., 2., 0.,
          0., 5., 2., 4., 3., 2., 5., 5., 1., 1., 3., 0., 2., 0., 1., 2.,
          0., 1., 2., 5. ]
      - [ 2., 0., 1., 11., 0., 1., 0., 0., 1., 1., 1., 8., 4., 0., 1.,
          0., 1., 2., 1., 1., 4., 0., 2., 2., 0., 0., 2., 1., 0., 3., 0.,
          0., 4., 3., 4., 1., 6., 3., 0., 0., 2., 1., 3., 0., 0., 3., 1.,
          3., 0., 1., 1., 4. ]
      - [ 7., 0., 0., 5., 0., 5., 0., 0., 0., 8., 3., 4., 5., 1., 0., 3.,
          0., 5., 0., 0., 1., 0., 2., 0., 0., 0., 0., 0., 1., 4., 1., 0.,
          0., 4., 3., 2., 2., 0., 1., 0., 2., 2., 2., 0., 1., 0., 1., 2.,
          7., 5., 0., 1. ]
      - [ 3., 0., 0., 4., 0., 4., 3., 0., 0., 2., 3., 5., 3., 1., 1., 0.,
          1., 2., 0., 1., 4., 0., 2., 0., 2., 0., 0., 0., 7., 1., 2., 1.,
          3., 3., 3., 5., 6., 3., 1., 0., 1., 0., 1., 0., 1., 3., 0., 3.,
          3., 1., 2., 4. ]
      - [ 10., 0., 1., 1., 1., 4., 1., 0., 0., 4., 3., 1., 7., 1., 3.,
          2., 1., 5., 0., 1., 2., 0., 2., 3., 2., 0., 0., 2., 1., 3., 1.,
          1., 1., 1., 5., 1., 2., 1., 0., 2., 1., 1., 0., 0., 2., 0., 0.,
          1., 7., 3., 0., 2. ]
      - [ 2., 0., 0., 3., 0., 0., 0., 2., 1., 2., 2., 0., 1., 2., 1., 0.,
          2., 1., 1., 2., 3., 0., 1., 1., 3., 0., 0., 2., 1., 4., 1., 3.,
          4., 6., 2., 7., 9., 1., 0., 1., 3., 0., 9., 0., 1., 0., 1., 0.,
          1., 0., 2., 2. ]
      - [ 9., 0., 1., 3., 0., 1., 1., 0., 1., 3., 1., 5., 3., 6., 2., 0.,
          1., 2., 1., 1., 2., 0., 0., 1., 4., 0., 0., 0., 0., 3., 0., 1.,
          0., 4., 1., 7., 7., 0., 1., 0., 1., 0., 4., 0., 0., 0., 5., 0.,
          2., 1., 4., 5. ]
      - [ 1., 5., 4., 1., 1., 8., 3., 2., 1., 1., 2., 4., 1., 1., 2., 1.,
          1., 5., 1., 1., 1., 0., 2., 0., 1., 2., 2., 2., 3., 5., 0., 4.,
          7., 2., 1., 0., 1., 1., 3., 1., 2., 2., 0., 2., 2., 0., 2., 2.,
          1., 2., 0., 1. ]
      - [ 1., 0., 5., 0., 1., 1., 2., 1., 3., 3., 3., 0., 2., 0., 2., 1.,
          1., 0., 3., 2., 1., 0., 2., 0., 5., 0., 0., 3., 3., 1., 2., 1.,
          4., 1., 4., 1., 0., 3., 3., 1., 0., 1., 2., 1., 2., 3., 3., 3.,
          0., 3., 3., 3. ]
      - [ 0., 5., 1., 1., 2., 7., 2., 5., 1., 3., 2., 0., 0., 1., 0., 6.,
          5., 0., 2., 0., 0., 2., 2., 0., 1., 5., 7., 3., 1., 1., 2., 2.,
          1., 2., 0., 0., 0., 1., 4., 1., 2., 4., 1., 6., 0., 3., 1., 0.,
          1., 0., 2., 2. ]
      - [ 1., 0., 3., 6., 3., 0., 3., 0., 0., 0., 0., 2., 0., 0., 0., 3.,
          6., 2., 3., 5., 3., 0., 5., 3., 2., 1., 2., 3., 2., 3., 1., 5.,
          4., 2., 2., 1., 5., 0., 0., 0., 1., 1., 3., 0., 1., 3., 2., 2.,
          2., 0., 1., 3. ]
      - [ 2., 1., 2., 2., 1., 1., 0., 0., 1., 1., 4., 2., 0., 4., 1., 2.,
          7., 4., 2., 1., 1., 0., 1., 0., 2., 2., 1., 0., 3., 1., 2., 3.,
          3., 3., 3., 3., 4., 0., 3., 1., 0., 2., 3., 1., 4., 2., 2., 1.,
          3., 0., 1., 7. ]
      - [ 1., 1., 1., 0., 3., 2., 6., 5., 1., 2., 1., 1., 0., 2., 2., 0.,
          3., 0., 1., 1., 2., 0., 3., 0., 0., 6., 1., 0., 0., 1., 1., 2.,
          2., 1., 4., 1., 0., 2., 3., 1., 3., 0., 1., 1., 4., 7., 1., 2.,
          1., 3., 4., 0. ]
      - [ 4., 1., 2., 1., 1., 2., 9., 1., 1., 1., 1., 2., 3., 3., 5., 0.,
          0., 0., 2., 1., 0., 3., 3., 0., 3., 1., 7., 0., 0., 0., 0., 4.,
          2., 3., 4., 1., 3., 1., 1., 0., 2., 2., 2., 3., 0., 2., 1., 0.,
          2., 1., 3., 1. ]
      - [ 0., 0., 1., 0., 2., 2., 1., 1., 0., 3., 4., 1., 4., 1., 2., 1.,
          3., 1., 3., 2., 5., 0., 2., 3., 1., 0., 0., 3., 3., 2., 2., 2.,
          1., 3., 1., 0., 0., 6., 3., 0., 4., 0., 2., 2., 1., 4., 1., 1.,
          1., 1., 2., 2. ]
      - [ 0., 4., 1., 0., 2., 2., 1., 1., 1., 1., 0., 0., 1., 2., 5., 4.,
          4., 3., 0., 2., 1., 5., 3., 0., 0., 3., 1., 2., 2., 3., 3., 1.,
          3., 0., 1., 0., 1., 4., 4., 1., 2., 2., 1., 3., 4., 0., 8., 0.,
          1., 2., 2., 3. ]
      - [ 0., 3., 2., 3., 2., 4., 1., 2., 0., 1., 0., 1., 4., 4., 1., 1.,
          6., 1., 0., 1., 1., 3., 4., 1., 2., 0., 1., 2., 0., 1., 2., 2.,
          3., 3., 0., 2., 2., 0., 2., 0., 0., 1., 5., 3., 1., 3., 2., 0.,
          1., 4., 1., 2. ]
      - [ 1., 1., 1., 1., 3., 3., 0., 0., 2., 1., 0., 1., 2., 0., 1., 1.,
          2., 2., 1., 0., 2., 3., 2., 1., 2., 2., 2., 2., 4., 1., 0., 2.,
          2., 3., 3., 5., 0., 3., 1., 1., 2., 4., 2., 2., 0., 3., 0., 0.,
          2., 3., 0., 1. ]
      - [ 4., 0., 1., 2., 4., 2., 1., 1., 2., 0., 1., 3., 6., 0., 3., 0.,
          1., 2., 2., 0., 1., 1., 1., 2., 2., 0., 1., 0., 5., 1., 0., 1.,
          1., 1., 2., 6., 1., 2., 2., 1., 1., 2., 3., 2., 0., 0., 2., 1.,
          3., 8., 1., 5. ]
      - [ 4., 1., 0., 7., 1., 3., 1., 3., 0., 0., 2., 1., 6., 1., 3., 1.,
          2., 3., 0., 2., 3., 0., 0., 2., 1., 0., 0., 1., 0., 1., 0., 1.,
          2., 5., 6., 3., 3., 3., 1., 0., 4., 0., 1., 1., 0., 2., 1., 5.,
          1., 6., 3., 3. ]
      - [ 0., 0., 1., 0., 3., 2., 0., 1., 6., 1., 3., 5., 3., 1., 0., 3.,
          0., 4., 0., 4., 1., 2., 1., 6., 4., 1., 0., 1., 1., 1., 0., 1.,
          0., 2., 1., 4., 5., 0., 1., 4., 3., 3., 0., 2., 0., 0., 1., 2.,
          4., 5., 2., 5. ]
      - [ 0., 0., 1., 1., 0., 0., 1., 4., 8., 7., 4., 5., 1., 0., 1., 0.,
          2., 2., 1., 4., 4., 1., 2., 5., 1., 1., 0., 3., 1., 2., 0., 0.,
          0., 1., 1., 0., 1., 4., 2., 2., 1., 1., 4., 2., 0., 2., 0., 4.,
          5., 2., 2., 4. ]
      - [ 2., 4., 2., 2., 0., 1., 3., 3., 2., 1., 0., 0., 3., 1., 3., 4.,
          1., 2., 3., 3., 0., 4., 3., 1., 2., 0., 3., 1., 5., 0., 2., 3.,
          2., 3., 1., 0., 1., 1., 4., 0., 2., 3., 0., 2., 2., 0., 1., 2.,
          0., 0., 2., 0. ]
      - [ 0., 4., 0., 0., 3., 0., 4., 4., 3., 1., 3., 3., 0., 4., 1., 4.,
          3., 1., 0., 1., 1., 2., 6., 1., 2., 3., 3., 2., 4., 1., 0., 0.,
          4., 0., 1., 0., 0., 4., 1., 1., 0., 2., 1., 5., 4., 2., 0., 0.,
          1., 5., 2., 3. ]
      - [ 1., 5., 1., 0., 4., 0., 7., 2., 1., 2., 0., 1., 1., 4., 1., 7.,
          0., 0., 1., 2., 1., 0., 3., 1., 0., 2., 10., 0., 4., 1., 0.,
          1., 0., 0., 3., 0., 0., 1., 3., 5., 0., 9., 0., 7., 1., 2., 1.,
          0., 2., 1., 1., 1. ]
      - [ 0., 10., 0., 0., 1., 0., 5., 4., 2., 2., 1., 1., 0., 3., 4.,
          3., 4., 2., 0., 1., 1., 2., 0., 1., 0., 7., 8., 4., 1., 1., 2.,
          1., 3., 2., 2., 0., 0., 1., 3., 2., 0., 1., 0., 6., 5., 0., 2.,
          0., 1., 1., 0., 0. ]
      - [ 1., 4., 1., 0., 2., 0., 5., 4., 2., 1., 2., 4., 0., 3., 4., 1.,
          3., 1., 1., 0., 0., 0., 8., 1., 0., 4., 9., 0., 3., 4., 4., 0.,
          3., 2., 1., 1., 1., 2., 1., 1., 0., 5., 0., 2., 3., 1., 2., 1.,
          0., 0., 0., 2. ]
      - [ 1., 5., 0., 2., 0., 1., 1., 2., 1., 1., 1., 0., 2., 0., 5., 2.,
          6., 1., 4., 1., 6., 2., 4., 0., 2., 0., 3., 1., 5., 1., 3., 1.,
          1., 3., 1., 0., 1., 1., 3., 1., 0., 0., 0., 3., 3., 1., 0., 0.,
          1., 1., 0., 3. ]
      - [ 1., 7., 5., 0., 0., 0., 1., 4., 3., 1., 1., 3., 2., 0., 3., 1.,
          0., 1., 3., 1., 1., 3., 0., 1., 0., 6., 4., 2., 2., 2., 1., 1.,
          4., 1., 3., 3., 1., 1., 2., 2., 1., 1., 1., 3., 1., 3., 3., 1.,
          1., 3., 3., 2. ]
      - [ 2., 1., 2., 7., 0., 2., 4., 0., 2., 2., 1., 3., 2., 0., 3., 2.,
          1., 2., 2., 1., 2., 1., 2., 3., 4., 1., 0., 0., 4., 4., 1., 0.,
          2., 3., 0., 1., 1., 4., 2., 2., 2., 1., 2., 4., 5., 0., 5., 0.,
          0., 2., 3., 0. ]
      - [ 1., 4., 5., 1., 0., 2., 5., 2., 1., 2., 1., 1., 3., 1., 6., 0.,
          1., 1., 2., 1., 0., 3., 2., 3., 0., 3., 3., 2., 1., 1., 6., 0.,
          2., 0., 3., 1., 0., 2., 0., 0., 0., 2., 2., 1., 1., 0., 6., 3.,
          0., 1., 1., 1. ]
      - [ 1., 4., 6., 0., 1., 0., 1., 4., 0., 5., 1., 0., 0., 1., 1., 3.,
          2., 1., 2., 0., 0., 0., 7., 9., 1., 1., 1., 5., 1., 0., 1., 0.,
          2., 0., 2., 0., 0., 2., 2., 1., 1., 2., 1., 4., 0., 1., 2., 0.,
          2., 6., 2., 1. ]
      - [ 1., 7., 0., 0., 7., 1., 5., 1., 1., 0., 0., 0., 5., 2., 1., 1.,
          1., 1., 6., 0., 3., 1., 2., 3., 0., 1., 0., 2., 3., 4., 0., 0.,
          0., 1., 2., 0., 0., 2., 9., 3., 2., 1., 1., 5., 0., 0., 1., 1.,
          2., 3., 1., 0. ]
      - [ 2., 5., 2., 1., 3., 4., 1., 2., 1., 1., 2., 1., 1., 1., 0., 3.,
          2., 3., 3., 1., 2., 2., 1., 0., 0., 2., 0., 6., 1., 1., 1., 1.,
          5., 3., 0., 0., 1., 2., 1., 1., 2., 2., 0., 2., 0., 6., 2., 0.,
          4., 2., 1., 3. ]
      - [ 8., 3., 2., 1., 2., 2., 1., 1., 2., 2., 1., 7., 3., 4., 3., 0.,
          3., 3., 0., 4., 0., 1., 3., 0., 6., 1., 3., 0., 3., 0., 0., 4.,
          1., 2., 6., 0., 0., 0., 2., 2., 2., 1., 1., 3., 0., 0., 2., 0.,
          1., 2., 0., 3. ]
      - [ 2., 3., 0., 1., 1., 1., 2., 4., 0., 2., 1., 6., 3., 2., 4., 3.,
          1., 1., 0., 1., 0., 1., 3., 1., 2., 1., 4., 4., 0., 6., 1., 2.,
          3., 1., 1., 1., 0., 4., 1., 0., 3., 8., 0., 7., 0., 2., 0., 0.,
          1., 0., 1., 4. ]
      - [ 1., 2., 1., 1., 0., 0., 1., 1., 1., 1., 3., 0., 3., 3., 0., 1.,
          5., 0., 2., 0., 6., 0., 0., 1., 1., 4., 8., 0., 1., 1., 2., 3.,
          2., 3., 2., 0., 2., 1., 3., 1., 2., 2., 1., 3., 1., 0., 6., 0.,
          3., 1., 0., 4. ]
      - [ 1., 0., 1., 0., 5., 4., 1., 5., 0., 1., 4., 4., 0., 0., 3., 1.,
          2., 4., 1., 3., 4., 2., 0., 0., 3., 2., 6., 0., 1., 3., 0., 2.,
          6., 1., 2., 0., 1., 2., 0., 1., 1., 1., 0., 0., 0., 2., 3., 2.,
          1., 3., 1., 0. ]
      - [ 7., 1., 0., 2., 0., 3., 1., 1., 2., 3., 0., 5., 0., 1., 4., 2.,
          0., 2., 0., 0., 0., 2., 0., 0., 2., 2., 2., 1., 3., 2., 1., 8.,
          2., 1., 2., 0., 1., 2., 3., 0., 1., 1., 1., 1., 0., 1., 2., 3.,
          2., 2., 5., 3. ]
      - [ 3., 0., 0., 0., 0., 2., 1., 0., 2., 2., 0., 4., 3., 0., 0., 3.,
          0., 3., 0., 2., 2., 0., 0., 2., 1., 6., 0., 4., 1., 3., 1., 4.,
          0., 0., 2., 3., 1., 2., 1., 0., 3., 2., 7., 0., 0., 3., 4., 5.,
          2., 1., 3., 2. ]
      - [ 1., 1., 1., 5., 2., 1., 0., 1., 1., 4., 2., 2., 3., 2., 2., 0.,
          0., 9., 0., 1., 3., 2., 2., 1., 2., 0., 0., 2., 3., 6., 3., 1.,
          2., 2., 0., 3., 3., 3., 4., 0., 1., 2., 3., 1., 2., 0., 2., 2.,
          1., 1., 0., 5. ]
      - [ 7., 9., 1., 1., 6., 1., 4., 3., 2., 3., 4., 3., 3., 1., 3., 1.,
          1., 0., 0., 0., 2., 2., 1., 0., 2., 2., 1., 1., 0., 6., 2., 1.,
          3., 0., 0., 0., 4., 1., 2., 1., 3., 0., 0., 2., 1., 3., 1., 0.,
          1., 0., 7., 0. ]
      - [ 6., 0., 0., 5., 1., 1., 1., 0., 1., 5., 1., 2., 4., 0., 1., 0.,
          1., 4., 1., 4., 1., 1., 0., 3., 3., 0., 0., 1., 11., 3., 0.,
          1., 0., 0., 4., 5., 2., 0., 5., 0., 1., 1., 2., 0., 3., 6., 0.,
          2., 1., 2., 1., 3. ]
      - [ 1., 2., 3., 1., 5., 0., 5., 7., 1., 1., 1., 0., 0., 1., 5., 9.,
          0., 0., 2., 4., 0., 2., 0., 0., 3., 2., 6., 1., 1., 3., 2., 0.,
          3., 1., 1., 0., 0., 1., 1., 1., 1., 5., 0., 7., 3., 0., 2., 2.,
          1., 3., 0., 0. ]
      - [ 6., 0., 2., 5., 1., 4., 2., 0., 0., 2., 2., 5., 4., 3., 0., 0.,
          0., 2., 1., 8., 5., 2., 0., 2., 0., 3., 0., 5., 2., 1., 1., 3.,
          0., 1., 3., 2., 3., 1., 0., 2., 1., 1., 2., 0., 1., 2., 0., 4.,
          3., 1., 2., 0. ]
      - [ 1., 2., 0., 1., 0., 1., 0., 0., 2., 1., 7., 4., 0., 1., 2., 1.,
          2., 2., 3., 2., 0., 2., 1., 2., 5., 4., 1., 1., 3., 1., 0., 4.,
          3., 1., 4., 0., 6., 1., 2., 3., 1., 1., 3., 2., 2., 3., 1., 1.,
          1., 2., 4., 2. ]
      - [ 1., 3., 0., 0., 0., 4., 1., 2., 2., 5., 0., 4., 3., 0., 3., 2.,
          0., 1., 0., 1., 2., 3., 1., 0., 3., 5., 2., 2., 2., 3., 3., 2.,
          5., 1., 1., 5., 0., 3., 1., 1., 1., 0., 1., 2., 1., 1., 1., 0.,
          2., 1., 1., 2. ]
      - [ 6., 1., 0., 1., 1., 2., 2., 2., 2., 0., 2., 1., 1., 0., 7., 3.,
          2., 2., 0., 3., 2., 0., 4., 0., 2., 11., 2., 1., 2., 5., 3.,
          4., 2., 0., 0., 0., 2., 3., 0., 1., 0., 1., 3., 4., 0., 0., 2.,
          0., 4., 0., 0., 0. ]
      - [ 2., 1., 3., 0., 2., 1., 1., 2., 0., 2., 6., 0., 2., 2., 0., 2.,
          2., 2., 1., 4., 3., 0., 5., 1., 1., 3., 1., 0., 5., 4., 2., 2.,
          0., 1., 3., 4., 0., 3., 7., 2., 0., 1., 0., 0., 1., 2., 5., 0.,
          0., 1., 1., 3. ]
      - [ 5., 2., 2., 5., 1., 2., 1., 1., 1., 2., 1., 1., 5., 1., 0., 1.,
          6., 4., 0., 1., 8., 1., 1., 0., 0., 0., 0., 1., 2., 3., 1., 0.,
          2., 2., 7., 0., 3., 3., 3., 0., 1., 5., 2., 0., 0., 0., 0., 2.,
          7., 4., 0., 0. ]
      - [ 5., 2., 0., 1., 1., 3., 3., 0., 0., 0., 2., 2., 3., 1., 1., 1.,
          1., 9., 0., 1., 3., 2., 2., 7., 2., 2., 1., 1., 2., 2., 0., 4.,
          2., 2., 2., 1., 0., 3., 0., 0., 2., 2., 4., 1., 1., 1., 0., 1.,
          3., 0., 0., 1. ]
      - [ 3., 1., 0., 3., 0., 1., 1., 1., 0., 2., 0., 0., 4., 6., 1., 2.,
          1., 2., 2., 1., 6., 2., 0., 4., 2., 0., 1., 0., 2., 2., 0., 2.,
          0., 3., 4., 4., 2., 0., 4., 0., 0., 1., 9., 2., 1., 1., 0., 0.,
          0., 2., 2., 3. ]
      - [ 2., 3., 1., 1., 2., 1., 0., 5., 0., 2., 0., 4., 2., 1., 3., 2.,
          2., 0., 2., 0., 1., 2., 5., 2., 2., 2., 0., 0., 3., 1., 0., 1.,
          0., 1., 2., 1., 6., 0., 8., 2., 1., 1., 5., 3., 2., 0., 1., 1.,
          0., 6., 1., 7. ]
      - [ 4., 2., 0., 2., 2., 1., 1., 2., 0., 4., 0., 3., 0., 0., 3., 2.,
          7., 0., 3., 2., 1., 2., 3., 2., 3., 0., 3., 2., 2., 1., 0., 6.,
          4., 2., 3., 6., 3., 2., 1., 1., 1., 7., 2., 2., 3., 2., 1., 0.,
          0., 0., 1., 1. ]
      - [ 0., 5., 1., 0., 2., 2., 5., 3., 4., 1., 0., 2., 0., 2., 2., 5.,
          4., 1., 0., 1., 0., 5., 1., 0., 0., 7., 6., 1., 6., 1., 3., 1.,
          0., 3., 0., 0., 0., 2., 2., 1., 0., 1., 0., 11., 3., 0., 2.,
          0., 1., 0., 2., 1. ]
      - [ 3., 6., 2., 0., 1., 1., 3., 4., 1., 6., 1., 3., 0., 2., 2., 5.,
          2., 2., 3., 1., 0., 0., 3., 1., 0., 3., 3., 0., 1., 4., 3., 1.,
          1., 3., 1., 1., 1., 2., 5., 1., 2., 0., 0., 6., 2., 2., 5., 0.,
          0., 1., 0., 0. ]
      - [ 3., 2., 1., 0., 0., 1., 3., 2., 2., 2., 2., 0., 2., 0., 4., 1.,
          2., 0., 2., 4., 2., 3., 5., 0., 1., 1., 2., 3., 1., 2., 0., 1.,
          2., 2., 3., 1., 0., 1., 4., 2., 4., 2., 0., 3., 1., 2., 1., 0.,
          2., 3., 1., 2. ]
      - [ 3., 6., 1., 0., 0., 0., 5., 6., 3., 0., 0., 1., 0., 3., 2., 3.,
          4., 2., 1., 1., 3., 0., 2., 3., 0., 4., 1., 0., 1., 2., 2., 0.,
          0., 5., 2., 0., 0., 0., 1., 2., 0., 2., 5., 4., 2., 2., 1., 0.,
          0., 3., 0., 2. ]
      - [ 1., 3., 1., 1., 2., 2., 1., 3., 1., 2., 0., 2., 3., 0., 2., 1.,
          1., 2., 0., 2., 1., 1., 0., 1., 1., 1., 0., 1., 2., 2., 1., 4.,
          1., 2., 1., 2., 0., 2., 0., 4., 5., 3., 6., 2., 4., 1., 2., 2.,
          5., 0., 4., 5. ]
      - [ 0., 3., 0., 0., 6., 1., 2., 5., 2., 4., 0., 2., 1., 5., 1., 1.,
          2., 1., 2., 3., 4., 3., 2., 8., 0., 3., 2., 0., 1., 0., 1., 1.,
          3., 1., 3., 1., 0., 1., 3., 3., 0., 1., 1., 3., 0., 2., 2., 1.,
          0., 1., 1., 5. ]
      - [ 0., 3., 2., 0., 1., 0., 5., 6., 4., 0., 3., 1., 0., 2., 2., 4.,
          3., 0., 1., 1., 2., 1., 4., 0., 0., 4., 3., 1., 2., 1., 10.,
          2., 0., 0., 1., 0., 0., 2., 1., 3., 1., 1., 1., 3., 0., 1., 2.,
          1., 0., 5., 0., 0. ]
      - [ 1., 6., 0., 1., 3., 1., 3., 2., 0., 0., 2., 2., 1., 0., 4., 1.,
          1., 1., 2., 0., 0., 1., 1., 0., 1., 1., 4., 2., 6., 2., 0., 2.,
          3., 1., 2., 1., 3., 0., 5., 4., 1., 3., 5., 1., 1., 1., 0., 0.,
          4., 2., 1., 2. ]
      - [ 1., 2., 2., 1., 1., 0., 0., 0., 0., 1., 0., 0., 0., 0., 2., 1.,
          2., 3., 1., 2., 2., 1., 0., 2., 3., 6., 1., 1., 3., 0., 0., 3.,
          2., 6., 3., 4., 2., 3., 1., 1., 1., 3., 0., 3., 2., 1., 3., 0.,
          3., 6., 5., 0. ]
      - [ 4., 3., 2., 1., 6., 0., 2., 3., 2., 4., 3., 0., 1., 2., 3., 1.,
          4., 0., 2., 3., 3., 1., 8., 1., 1., 3., 1., 2., 2., 3., 3., 2.,
          4., 0., 1., 0., 2., 1., 1., 0., 2., 2., 1., 3., 0., 0., 2., 0.,
          1., 1., 1., 2. ]
      - [ 0., 2., 4., 0., 1., 0., 5., 1., 2., 1., 1., 0., 3., 0., 5., 9.,
          3., 0., 0., 1., 2., 1., 2., 0., 2., 3., 4., 4., 1., 0., 2., 1.,
          8., 3., 2., 0., 2., 1., 2., 0., 1., 5., 0., 3., 3., 1., 5., 2.,
          2., 0., 0., 0. ]
      - [ 5., 9., 2., 0., 6., 2., 3., 5., 3., 1., 0., 0., 1., 2., 2., 5.,
          2., 0., 5., 0., 3., 4., 0., 1., 0., 7., 5., 1., 2., 0., 2., 3.,
          1., 2., 3., 0., 0., 5., 0., 5., 0., 0., 0., 6., 1., 3., 5., 0.,
          2., 0., 2., 0. ]
      - [ 4., 0., 1., 5., 1., 3., 0., 0., 1., 1., 0., 5., 5., 6., 4., 0.,
          1., 0., 6., 4., 0., 1., 1., 1., 0., 1., 0., 1., 1., 2., 3., 4.,
          0., 4., 2., 4., 7., 2., 2., 0., 1., 3., 5., 0., 3., 3., 4., 3.,
          1., 0., 8., 2. ]
      - [ 0., 2., 3., 2., 1., 1., 3., 6., 1., 0., 3., 4., 4., 1., 2., 3.,
          1., 2., 1., 4., 1., 0., 1., 1., 0., 0., 9., 1., 0., 1., 1., 0.,
          2., 2., 4., 1., 1., 5., 5., 2., 2., 4., 5., 1., 2., 5., 0., 2.,
          4., 4., 2., 4. ]
      - [ 1., 0., 2., 2., 2., 0., 3., 5., 2., 7., 2., 1., 1., 2., 3., 6.,
          5., 2., 2., 0., 1., 0., 6., 1., 1., 7., 3., 1., 3., 5., 5., 4.,
          3., 1., 0., 1., 2., 1., 3., 1., 1., 4., 2., 4., 0., 0., 0., 0.,
          2., 1., 2., 3. ]
      - [ 1., 2., 1., 1., 0., 5., 1., 3., 3., 4., 1., 2., 7., 5., 0., 0.,
          3., 7., 1., 5., 1., 0., 3., 3., 2., 2., 1., 0., 3., 2., 1., 2.,
          0., 1., 1., 3., 5., 1., 4., 4., 0., 0., 8., 0., 1., 1., 6., 0.,
          4., 4., 1., 0. ]
      - [ 3., 0., 1., 3., 4., 1., 2., 0., 3., 1., 1., 2., 2., 1., 5., 2.,
          7., 3., 2., 3., 1., 0., 0., 0., 2., 2., 2., 1., 0., 2., 0., 2.,
          12., 5., 2., 2., 6., 4., 1., 0., 0., 2., 3., 1., 2., 1., 5.,
          3., 2., 0., 2., 5. ]
      - [ 1., 8., 0., 19., 0., 0., 10., 4., 1., 0., 0., 0., 0., 0., 4.,
          7., 2., 0., 1., 0., 2., 0., 1., 3., 0., 4., 8., 2., 1., 0., 2.,
          3., 0., 2., 0., 2., 2., 0., 0., 7., 1., 4., 0., 6., 0., 1., 2.,
          0., 0., 0., 4., 0. ]
      - [ 2., 6., 4., 12., 0., 3., 8., 3., 2., 2., 3., 2., 8., 0., 1.,
          4., 4., 0., 0., 1., 1., 0., 3., 1., 1., 0., 5., 8., 1., 1., 2.,
          0., 2., 1., 0., 2., 2., 0., 1., 0., 5., 4., 3., 0., 1., 5., 0.,
          1., 0., 0., 1., 0. ]
      - [ 2., 5., 3., 1., 1., 1., 1., 2., 2., 5., 2., 2., 4., 1., 6., 3.,
          5., 2., 0., 4., 3., 2., 2., 4., 4., 5., 0., 2., 1., 0., 3., 1.,
          3., 4., 2., 0., 4., 2., 5., 2., 1., 0., 0., 4., 1., 0., 3., 0.,
          2., 3., 1., 0. ]
      - [ 3., 8., 2., 0., 3., 0., 5., 3., 5., 0., 1., 3., 2., 0., 0., 1.,
          2., 6., 1., 2., 7., 2., 4., 3., 0., 2., 3., 5., 0., 0., 1., 3.,
          1., 1., 7., 0., 5., 0., 2., 1., 0., 4., 1., 2., 1., 0., 2., 1.,
          10., 0., 0., 1. ]
      - [ 3., 2., 2., 4., 1., 3., 6., 2., 3., 2., 1., 0., 4., 2., 7., 0.,
          3., 2., 4., 0., 3., 0., 4., 0., 2., 3., 3., 4., 1., 3., 2., 1.,
          2., 4., 0., 0., 4., 1., 1., 3., 0., 5., 2., 2., 6., 0., 1., 1.,
          4., 3., 0., 0. ]
      - [ 2., 4., 3., 1., 2., 0., 7., 6., 5., 2., 0., 3., 0., 2., 1., 7.,
          1., 1., 5., 3., 1., 4., 2., 1., 1., 2., 1., 0., 1., 3., 5., 1.,
          4., 2., 2., 0., 4., 2., 4., 1., 1., 1., 2., 3., 1., 1., 2., 2.,
          1., 2., 3., 1. ]
      - [ 7., 3., 2., 0., 2., 1., 1., 2., 5., 1., 0., 0., 1., 0., 2., 3.,
          0., 0., 0., 1., 2., 1., 2., 4., 0., 4., 4., 2., 1., 9., 6., 3.,
          6., 0., 2., 1., 4., 0., 1., 4., 1., 2., 6., 1., 2., 1., 1., 2.,
          2., 0., 2., 1. ]
      - [ 3., 5., 4., 4., 1., 3., 3., 0., 1., 2., 1., 2., 5., 1., 1., 0.,
          0., 0., 0., 2., 3., 0., 0., 1., 1., 4., 4., 1., 1., 1., 13.,
          3., 6., 0., 2., 2., 3., 2., 2., 1., 3., 4., 6., 2., 1., 3., 2.,
          2., 1., 0., 3., 1. ]
      - [ 1., 2., 6., 0., 3., 0., 8., 1., 2., 2., 2., 0., 0., 1., 1., 7.,
          2., 0., 4., 0., 2., 1., 3., 1., 1., 2., 13., 9., 0., 7., 10.,
          2., 4., 3., 0., 0., 2., 0., 1., 1., 0., 5., 0., 3., 0., 0., 0.,
          0., 0., 4., 0., 0. ]
      - [ 3., 1., 0., 0., 1., 4., 1., 4., 1., 1., 0., 1., 1., 1., 4., 1.,
          6., 0., 2., 0., 1., 1., 4., 2., 0., 1., 3., 1., 1., 1., 0., 6.,
          9., 2., 2., 0., 6., 0., 2., 7., 0., 12., 2., 3., 2., 0., 1.,
          3., 6., 0., 5., 1. ]
      - [ 3., 2., 0., 3., 3., 3., 0., 0., 0., 0., 2., 6., 7., 4., 3., 4.,
          4., 3., 3., 1., 5., 2., 5., 2., 0., 2., 3., 3., 0., 0., 3., 2.,
          7., 1., 3., 4., 2., 1., 3., 1., 1., 2., 2., 2., 0., 2., 1., 0.,
          2., 3., 0., 1. ]
      - [ 2., 0., 0., 0., 0., 4., 2., 1., 3., 5., 0., 2., 4., 1., 1., 0.,
          6., 1., 0., 4., 2., 0., 1., 5., 3., 3., 2., 1., 0., 11., 4.,
          6., 8., 2., 1., 3., 5., 1., 0., 1., 2., 1., 2., 0., 0., 2., 4.,
          4., 0., 1., 2., 3. ]
      - [ 3., 4., 0., 2., 2., 0., 1., 2., 0., 1., 3., 2., 3., 0., 0., 0.,
          0., 2., 0., 0., 1., 1., 1., 14., 1., 0., 2., 3., 1., 0., 3.,
          4., 2., 0., 1., 11., 1., 1., 2., 3., 1., 4., 6., 2., 2., 6.,
          1., 2., 4., 3., 3., 5. ]
      - [ 1., 3., 1., 1., 0., 3., 1., 2., 0., 3., 0., 1., 0., 0., 0., 0.,
          5., 0., 2., 3., 2., 0., 4., 2., 1., 1., 3., 1., 6., 7., 0., 0.,
          2., 2., 1., 8., 6., 2., 10., 5., 0., 1., 14., 2., 2., 0., 0.,
          1., 0., 1., 0., 6. ]
      - [ 0., 0., 0., 3., 2., 0., 1., 5., 0., 1., 0., 3., 1., 1., 2., 2.,
          3., 0., 1., 1., 1., 0., 1., 8., 1., 4., 2., 2., 1., 2., 1., 5.,
          3., 0., 0., 2., 3., 1., 3., 3., 4., 6., 2., 3., 1., 4., 2., 0.,
          1., 1., 3., 10. ]
      - [ 0., 3., 0., 0., 1., 0., 3., 1., 3., 3., 2., 0., 4., 4., 0., 1.,
          0., 0., 1., 2., 0., 1., 4., 3., 3., 9., 4., 3., 0., 4., 4., 2.,
          3., 2., 2., 2., 4., 2., 3., 1., 0., 1., 0., 3., 1., 5., 5., 0.,
          3., 0., 4., 2. ]
      - [ 5., 3., 1., 0., 1., 0., 0., 8., 0., 0., 1., 0., 1., 1., 1., 0.,
          5., 2., 1., 1., 0., 0., 0., 0., 1., 3., 10., 1., 1., 0., 1.,
          18., 2., 1., 1., 0., 3., 1., 2., 1., 1., 4., 0., 1., 0., 2.,
          1., 5., 2., 1., 0., 2. ]
      - [ 2., 1., 3., 1., 0., 0., 1., 2., 5., 1., 4., 2., 1., 2., 1., 5.,
          1., 3., 1., 0., 1., 0., 2., 8., 1., 2., 1., 2., 2., 3., 2., 2.,
          3., 0., 4., 1., 1., 0., 2., 0., 4., 3., 3., 1., 4., 0., 0., 2.,
          6., 1., 2., 4. ]
      - [ 4., 0., 1., 5., 0., 6., 0., 0., 3., 0., 3., 2., 2., 4., 5., 3.,
          3., 1., 1., 2., 1., 1., 0., 3., 4., 2., 1., 4., 0., 5., 4., 2.,
          5., 2., 6., 3., 0., 3., 1., 1., 3., 0., 2., 0., 2., 4., 3., 1.,
          4., 3., 0., 1. ]
      - [ 4., 1., 2., 0., 4., 0., 0., 7., 1., 3., 1., 1., 2., 2., 0., 3.,
          4., 1., 0., 4., 5., 2., 1., 3., 0., 5., 2., 2., 1., 3., 1., 1.,
          3., 2., 5., 3., 0., 0., 4., 2., 1., 2., 1., 1., 1., 2., 0., 1.,
          1., 4., 3., 6. ]
      - [ 3., 8., 2., 1., 2., 1., 0., 4., 1., 1., 8., 0., 0., 1., 1., 1.,
          1., 3., 0., 0., 3., 3., 0., 7., 0., 2., 5., 0., 4., 2., 3., 0.,
          4., 1., 2., 6., 0., 0., 6., 2., 0., 3., 0., 6., 0., 3., 1., 4.,
          3., 2., 2., 2. ]
      - [ 0., 1., 1., 0., 0., 4., 1., 1., 0., 3., 3., 3., 4., 1., 0., 2.,
          2., 3., 1., 0., 1., 1., 3., 1., 2., 1., 1., 3., 0., 1., 1., 2.,
          0., 2., 1., 5., 3., 3., 6., 0., 2., 4., 10., 1., 0., 1., 2.,
          3., 4., 0., 3., 5. ]
      - [ 0., 11., 0., 1., 1., 1., 1., 2., 4., 1., 1., 0., 0., 1., 0.,
          0., 0., 1., 0., 1., 3., 0., 0., 2., 0., 0., 7., 1., 1., 0., 0.,
          0., 0., 2., 0., 1., 5., 0., 2., 4., 1., 0., 1., 3., 2., 1., 0.,
          3., 2., 1., 2., 2. ]
      - [ 0., 3., 0., 20., 0., 1., 0., 3., 0., 0., 1., 3., 2., 0., 0.,
          0., 2., 3., 0., 1., 0., 0., 0., 3., 0., 8., 1., 6., 1., 1., 0.,
          2., 0., 4., 1., 9., 6., 1., 1., 6., 1., 5., 1., 2., 0., 0., 0.,
          0., 5., 1., 5., 0. ]
      - [ 2., 13., 1., 2., 4., 2., 0., 1., 1., 1., 0., 2., 1., 3., 0.,
          2., 0., 1., 0., 0., 4., 2., 2., 4., 1., 0., 11., 0., 2., 1.,
          1., 1., 3., 0., 1., 1., 1., 2., 2., 3., 1., 2., 1., 4., 10.,
          1., 0., 0., 2., 3., 3., 1. ]
      - [ 4., 0., 1., 3., 1., 4., 0., 2., 0., 1., 1., 5., 5., 1., 0., 0.,
          1., 3., 2., 0., 1., 1., 2., 3., 2., 0., 2., 1., 3., 2., 1., 3.,
          1., 2., 0., 1., 4., 2., 4., 1., 1., 1., 5., 0., 1., 2., 2., 6.,
          2., 3., 0., 5. ]
      - [ 4., 2., 4., 0., 0., 0., 2., 0., 5., 2., 3., 5., 2., 0., 1., 5.,
          9., 1., 5., 2., 3., 1., 0., 2., 1., 2., 3., 1., 3., 0., 0., 2.,
          1., 2., 1., 1., 1., 2., 4., 0., 2., 6., 5., 3., 1., 0., 2., 1.,
          6., 1., 5., 1. ]
      - [ 1., 6., 0., 0., 1., 1., 2., 8., 1., 5., 4., 1., 3., 0., 1., 1.,
          1., 2., 3., 2., 2., 3., 0., 2., 4., 7., 0., 2., 1., 0., 5., 0.,
          1., 1., 0., 0., 1., 2., 1., 9., 0., 8., 1., 2., 0., 1., 2., 1.,
          2., 0., 1., 2. ]
      - [ 0., 2., 0., 0., 1., 1., 8., 5., 2., 3., 0., 1., 0., 0., 1., 4.,
          1., 1., 0., 0., 1., 1., 6., 5., 1., 8., 6., 3., 0., 0., 4., 3.,
          0., 0., 0., 0., 3., 1., 0., 3., 1., 7., 2., 10., 0., 0., 0.,
          1., 1., 0., 3., 0. ]
      - [ 1., 3., 2., 1., 1., 2., 4., 2., 2., 0., 1., 3., 1., 2., 7., 0.,
          0., 5., 2., 0., 0., 2., 1., 0., 2., 1., 2., 7., 1., 0., 2., 2.,
          2., 0., 3., 1., 1., 3., 4., 2., 3., 3., 3., 6., 2., 1., 3., 5.,
          1., 0., 2., 3. ]
      - [ 6., 3., 1., 1., 1., 1., 3., 5., 1., 1., 3., 0., 2., 1., 2., 1.,
          7., 1., 4., 1., 2., 2., 3., 0., 2., 3., 5., 0., 2., 6., 5., 0.,
          3., 6., 0., 1., 1., 3., 3., 3., 2., 0., 5., 2., 5., 2., 0., 1.,
          0., 3., 1., 0. ]
      - [ 2., 1., 0., 3., 0., 5., 1., 2., 4., 0., 0., 5., 5., 0., 2., 2.,
          2., 4., 0., 2., 3., 0., 4., 4., 1., 0., 2., 0., 2., 4., 5., 3.,
          3., 3., 1., 3., 2., 2., 3., 3., 3., 1., 3., 1., 1., 2., 2., 0.,
          2., 2., 1., 2. ]
      - [ 1., 2., 1., 5., 1., 5., 0., 0., 1., 3., 0., 10., 8., 2., 2.,
          0., 0., 3., 6., 3., 1., 0., 3., 0., 1., 2., 1., 0., 1., 1., 0.,
          3., 2., 1., 0., 4., 4., 2., 0., 0., 6., 0., 6., 2., 0., 2., 0.,
          2., 2., 2., 1., 3. ]
      - [ 1., 2., 0., 0., 0., 0., 3., 0., 0., 0., 0., 1., 0., 3., 2., 4.,
          4., 1., 6., 1., 2., 3., 1., 1., 0., 4., 9., 6., 2., 2., 1., 0.,
          0., 5., 1., 1., 0., 4., 0., 2., 2., 2., 5., 4., 1., 1., 5., 2.,
          1., 0., 0., 2. ]
      - [ 3., 0., 1., 9., 1., 1., 0., 1., 2., 0., 5., 0., 2., 3., 1.,
          11., 1., 2., 1., 0., 3., 4., 0., 3., 0., 3., 7., 1., 1., 1.,
          1., 4., 0., 4., 3., 1., 7., 0., 2., 3., 3., 2., 5., 0., 0., 3.,
          1., 2., 1., 0., 3., 0. ]
      - [ 0., 8., 1., 0., 0., 2., 8., 3., 2., 0., 3., 1., 1., 4., 0., 6.,
          2., 0., 0., 1., 0., 2., 5., 0., 0., 6., 6., 2., 2., 1., 4., 3.,
          5., 2., 3., 1., 0., 1., 3., 1., 1., 0., 0., 1., 0., 2., 4., 0.,
          1., 5., 2., 1. ]
      - [ 1., 0., 1., 9., 0., 4., 2., 0., 1., 3., 0., 4., 2., 0., 0., 1.,
          1., 3., 0., 1., 0., 0., 1., 0., 6., 3., 0., 0., 1., 5., 2., 5.,
          0., 4., 1., 10., 0., 2., 0., 0., 5., 2., 6., 0., 0., 0., 5.,
          6., 2., 1., 4., 2. ]
      - [ 4., 1., 1., 6., 1., 5., 0., 2., 0., 3., 1., 3., 2., 3., 2., 1.,
          0., 8., 0., 0., 0., 2., 2., 3., 10., 1., 2., 0., 1., 3., 3.,
          2., 1., 3., 0., 1., 1., 1., 2., 0., 4., 0., 4., 0., 0., 2., 0.,
          5., 2., 1., 1., 2. ]
      - [ 8., 3., 1., 2., 0., 4., 1., 0., 1., 2., 0., 6., 3., 3., 2., 0.,
          3., 0., 2., 1., 1., 0., 0., 0., 2., 3., 2., 0., 0., 4., 2., 6.,
          6., 1., 1., 4., 0., 3., 0., 0., 3., 1., 4., 0., 1., 1., 2., 1.,
          5., 2., 3., 1. ]
      - [ 3., 8., 0., 5., 1., 2., 1., 0., 0., 2., 1., 4., 2., 2., 2., 3.,
          4., 4., 0., 0., 0., 2., 0., 6., 1., 1., 2., 0., 0., 0., 0., 0.,
          1., 0., 2., 14., 3., 1., 2., 9., 1., 4., 4., 4., 2., 1., 0.,
          0., 1., 0., 1., 3. ]
      - [ 6., 0., 1., 1., 2., 5., 1., 0., 4., 1., 2., 9., 2., 3., 3.,
          10., 1., 2., 0., 2., 0., 2., 6., 0., 1., 2., 0., 0., 1., 0.,
          2., 1., 4., 1., 3., 3., 1., 1., 2., 0., 2., 7., 0., 0., 0., 2.,
          1., 1., 2., 1., 2., 4. ]
      - [ 6., 2., 4., 1., 2., 1., 7., 1., 1., 0., 0., 2., 2., 0., 2., 1.,
          0., 1., 0., 1., 2., 1., 6., 5., 1., 5., 3., 3., 0., 3., 5., 0.,
          1., 1., 1., 7., 5., 3., 0., 0., 1., 6., 2., 2., 0., 2., 0., 2.,
          6., 0., 1., 3. ]
      - [ 2., 1., 2., 3., 2., 3., 3., 5., 3., 3., 1., 3., 5., 0., 1., 3.,
          4., 0., 0., 5., 1., 0., 2., 0., 0., 1., 6., 2., 5., 2., 1., 4.,
          2., 1., 2., 0., 3., 2., 2., 0., 3., 3., 3., 2., 1., 1., 2., 1.,
          0., 2., 1., 5. ]
      - [ 2., 2., 2., 1., 0., 6., 5., 4., 2., 1., 0., 2., 0., 1., 5., 1.,
          2., 1., 0., 0., 5., 3., 4., 0., 2., 9., 7., 1., 4., 0., 0., 2.,
          8., 0., 2., 1., 0., 0., 0., 0., 4., 4., 1., 2., 2., 3., 1., 2.,
          4., 2., 2., 1. ]
      - [ 0., 10., 2., 1., 2., 0., 3., 2., 1., 2., 3., 3., 0., 0., 1.,
          7., 4., 1., 2., 0., 1., 6., 1., 0., 0., 3., 4., 1., 4., 1., 2.,
          2., 3., 3., 4., 0., 0., 4., 2., 0., 0., 10., 0., 2., 1., 0.,
          1., 0., 0., 7., 1., 2. ]
      - [ 2., 2., 1., 1., 2., 3., 2., 3., 0., 6., 3., 3., 3., 1., 1., 7.,
          2., 1., 1., 0., 2., 0., 2., 11., 0., 0., 2., 0., 1., 0., 0.,
          2., 1., 0., 2., 4., 4., 2., 3., 1., 0., 2., 4., 0., 0., 1., 3.,
          3., 0., 4., 1., 2. ]
      - [ 4., 2., 0., 1., 1., 1., 1., 0., 2., 0., 0., 0., 1., 5., 2., 2.,
          5., 0., 1., 3., 1., 3., 5., 2., 2., 0., 1., 1., 3., 3., 1., 4.,
          2., 10., 4., 1., 3., 1., 5., 2., 2., 1., 6., 1., 1., 0., 1.,
          0., 2., 4., 2., 3. ]
      - [ 1., 5., 1., 0., 2., 0., 0., 0., 0., 1., 3., 1., 0., 3., 1., 1.,
          2., 0., 7., 1., 7., 0., 2., 0., 3., 13., 8., 0., 1., 0., 0.,
          6., 3., 2., 2., 3., 0., 0., 2., 4., 0., 5., 3., 0., 0., 2., 2.,
          0., 2., 1., 2., 0. ]
      - [ 6., 1., 0., 2., 1., 0., 0., 0., 2., 1., 0., 4., 4., 1., 2., 2.,
          9., 2., 1., 2., 2., 2., 0., 3., 4., 1., 0., 2., 2., 1., 0., 6.,
          3., 5., 1., 5., 6., 3., 1., 2., 3., 2., 0., 0., 0., 0., 2., 0.,
          1., 1., 2., 3. ]
      - [ 1., 1., 2., 3., 2., 0., 3., 3., 2., 1., 1., 2., 0., 6., 6., 1.,
          7., 0., 2., 3., 1., 0., 4., 1., 2., 3., 10., 3., 1., 3., 2.,
          1., 3., 0., 0., 0., 2., 3., 4., 3., 3., 4., 4., 2., 0., 0., 1.,
          2., 1., 1., 0., 1. ]
      - [ 1., 0., 3., 10., 0., 5., 1., 4., 1., 2., 1., 0., 1., 2., 2.,
          0., 6., 0., 3., 5., 1., 2., 8., 2., 0., 1., 3., 0., 0., 2., 1.,
          5., 9., 3., 1., 5., 2., 0., 0., 1., 2., 0., 10., 4., 1., 1.,
          1., 0., 0., 1., 1., 2. ]
      - [ 4., 1., 0., 4., 0., 7., 0., 2., 3., 0., 1., 2., 2., 4., 2., 2.,
          0., 1., 0., 3., 0., 1., 3., 0., 2., 2., 0., 1., 0., 2., 0., 6.,
          6., 1., 3., 1., 5., 2., 2., 1., 3., 5., 4., 0., 4., 2., 2., 6.,
          2., 1., 1., 2. ]
      - [ 8., 3., 0., 0., 1., 1., 1., 2., 0., 0., 0., 3., 0., 3., 0., 1.,
          3., 3., 4., 2., 2., 4., 0., 1., 2., 5., 5., 1., 4., 2., 0., 1.,
          4., 1., 1., 1., 2., 1., 1., 1., 4., 5., 7., 0., 0., 3., 1., 3.,
          6., 1., 3., 1. ]
      - [ 1., 3., 2., 1., 0., 1., 6., 7., 1., 2., 2., 1., 2., 4., 1., 3.,
          2., 8., 1., 0., 2., 1., 2., 0., 4., 4., 3., 0., 1., 0., 1., 2.,
          1., 2., 0., 1., 3., 2., 1., 0., 4., 7., 1., 5., 0., 2., 2., 0.,
          3., 2., 0., 5. ]
      - [ 4., 5., 2., 3., 1., 5., 1., 6., 1., 1., 2., 0., 2., 0., 3., 0.,
          3., 1., 1., 1., 1., 0., 3., 1., 4., 4., 5., 4., 2., 2., 4., 5.,
          1., 2., 2., 0., 2., 1., 1., 0., 1., 3., 2., 6., 1., 2., 2., 1.,
          3., 1., 0., 0. ]
      - [ 1., 1., 1., 0., 2., 0., 1., 2., 1., 0., 0., 1., 0., 3., 3., 3.,
          11., 5., 4., 1., 0., 0., 0., 5., 0., 3., 3., 3., 2., 0., 2.,
          6., 1., 4., 0., 0., 6., 0., 1., 7., 3., 6., 0., 4., 0., 0., 2.,
          2., 5., 2., 5., 0. ]
      - [ 3., 6., 0., 2., 3., 1., 1., 3., 0., 1., 0., 2., 0., 0., 0., 4.,
          1., 3., 0., 2., 1., 5., 1., 8., 0., 4., 1., 1., 2., 0., 0., 4.,
          3., 0., 0., 4., 0., 1., 7., 6., 0., 4., 0., 4., 1., 0., 3., 1.,
          3., 3., 0., 2. ]
      - [ 9., 0., 1., 2., 1., 0., 4., 0., 2., 0., 0., 2., 0., 2., 4., 0.,
          0., 0., 2., 3., 0., 5., 3., 5., 2., 4., 1., 6., 2., 0., 0., 1.,
          1., 0., 0., 3., 1., 2., 3., 1., 0., 2., 1., 2., 3., 1., 3., 1.,
          5., 0., 1., 1. ]
      - [ 0., 10., 1., 0., 0., 0., 1., 6., 1., 0., 2., 0., 2., 2., 2.,
          8., 0., 3., 0., 0., 0., 0., 2., 0., 0., 9., 11., 1., 1., 1.,
          0., 1., 0., 3., 2., 1., 0., 1., 1., 2., 1., 10., 0., 5., 0.,
          0., 0., 0., 1., 0., 2., 0. ]
      - [ 0., 1., 4., 0., 4., 0., 3., 2., 0., 1., 0., 0., 0., 2., 0., 1.,
          8., 2., 3., 2., 2., 2., 0., 1., 3., 6., 2., 4., 7., 7., 1., 1.,
          2., 0., 1., 0., 1., 1., 2., 0., 6., 5., 1., 3., 0., 0., 1., 0.,
          0., 5., 0., 5. ]
      - [ 4., 0., 0., 1., 1., 2., 0., 4., 4., 5., 5., 3., 3., 1., 2., 5.,
          5., 0., 0., 0., 2., 1., 2., 4., 2., 1., 3., 4., 0., 5., 4., 2.,
          0., 0., 2., 1., 2., 0., 5., 1., 2., 1., 4., 1., 2., 6., 1., 3.,
          4., 2., 1., 3. ]
      - [ 2., 1., 1., 0., 3., 0., 0., 1., 1., 2., 1., 3., 1., 0., 3., 7.,
          2., 4., 3., 3., 1., 0., 2., 3., 3., 3., 1., 5., 0., 2., 2., 7.,
          6., 1., 3., 1., 2., 1., 1., 1., 2., 5., 4., 1., 2., 3., 1., 1.,
          7., 2., 3., 2. ]
      - [ 3., 3., 3., 0., 3., 0., 5., 6., 2., 1., 5., 0., 1., 0., 2., 7.,
          6., 0., 2., 2., 1., 8., 2., 0., 2., 0., 5., 0., 3., 0., 5., 4.,
          2., 4., 1., 0., 2., 0., 1., 4., 0., 0., 0., 1., 2., 0., 2., 1.,
          4., 1., 3., 2. ]
   decision_functions:
      -
         sv_count: 124
         rho: -2.2515830854860712e+00
         alpha: [ 5., 5., 5., 5., 5., 5., 3.7875003571365111e+00, 5., 5.,
             5., 5., 5., 5., 5., 5., 5., 4.1656820666849992e-01, 5., 5.,
             5., 5., 4.8224993978782065e+00, 1.8192829156702386e+00, 5.,
             3.6945394476491633e+00, 5., 5., 5., 5., 5., 5., 5., 5., 5.,
             5., 5., 5., 5., 5., 5., 5., 5., 3.8686447502257679e+00,
             4.4908170364137305e+00, 3.8445862064091432e+00, 5., 5., 5.,
             5., 5., 5., 4.9117591056813179e+00, 4.6297630759367063e+00,
             5., 5., 4.0425984239165969e+00, 3.1794668979837710e+00,
             3.5579253380536855e+00, 3.1960149248723515e+00, 5., 5.,
             -3.2395149628122897e+00, -5., -5., -5., -5., -5., -5.,
             -3.2215788809496124e+00, -5., -5., -5., -5., -5., -5., -5.,
             -2.4130568907833765e+00, -5., -2.6484867634491511e+00, -5.,
             -5., -5., -5., -5., -5., -2.2023809351176453e+00, -5.,
             -1.7190728396310417e-01, -4.0078006075255797e+00, -5., -5.,
             -5., -5., -5., -5., -5., -9.7722175031813929e-01, -5., -5.,
             -5., -5., -2.9864783757730282e+00, -2.7069107802459773e+00,
             -5., -5., -3.2581760608187751e+00, -5., -5., -5., -5., -5.,
             -4.4755075562012996e+00, -5., -5., -3.6311059231750740e+00,
             -5., -5., -4.3720118884329739e+00, -5., -5.,
             -4.9498274249296710e+00, -5., -5., -5. ]
         index: [ 0, 1, 2, 4, 6, 7, 8, 10, 11, 12, 13, 14, 15, 16, 17,
             18, 19, 20, 21, 22, 24, 25, 26, 27, 28, 29, 30, 31, 32, 33,
             34, 35, 39, 40, 41, 42, 43, 44, 45, 46, 47, 49, 51, 53, 55,
             57, 58, 59, 60, 61, 62, 63, 64, 65, 66, 68, 70, 72, 74, 75,
             76, 77, 78, 79, 81, 82, 83, 85, 86, 87, 88, 89, 90, 91, 92,
             93, 94, 95, 96, 97, 98, 99, 100, 101, 102, 103, 104, 105,
             106, 107, 108, 109, 110, 111, 112, 113, 114, 115, 117, 118,
             119, 120, 121, 122, 123, 124, 125, 126, 127, 128, 129, 130,
             132, 133, 134, 135, 138, 139, 140, 141, 142, 143, 144, 146 ]
      -
         sv_count: 126
         rho: 1.1457017511116507e+00
         alpha: [ 1.0916727278692868e+00, 5., 5., 1.2591681607411849e+00,
             5., 5., 5., 5., 5., 5., 5., 5., 5., 5., 5., 5., 5.,
             2.9178711872462451e+00, 5., 5., 5., 1.6726509724012641e+00,
             5., 5., 5., 5., 5., 5., 5., 5., 5., 2.7093019903981950e+00,
             5.6047757689741944e-03, 2.5049380333888913e+00, 5.,
             4.0055145438981778e+00, 5., 5., 4.9502867323318727e+00, 5.,
             5., 7.4680446920492571e-01, 5., 3.9415743003405762e-01,
             1.0023484298206466e+00, 4.9126425227652808e+00,
             1.5646750297529390e+00, 5., 1.8224873260489118e+00, 5.,
             4.2874048668557441e+00, 5., 2.7654422868756288e+00,
             4.1179655584918535e+00, 5., 5., 2.1844756909561602e+00,
             6.6583752124592344e-01, 5., 5.8939306673493641e-01,
             3.6550032585929793e+00, 1.8050506270621676e+00, 5., 5., -5.,
             -5., -8.6939111393491131e-01, -1.0353324586875698e+00, -5.,
             -2.0157443825876449e+00, -4.8094388404324731e+00, -5., -5.,
             -5., -1.6535459104339226e-01, -2.2901088887961493e-01,
             -3.2775844708640838e+00, -5., -1.7198944013279587e+00,
             -1.2415962664809288e+00, -5., -5., -1.4304951397719907e+00,
             -5., -5., -5., -5., -5., -5., -5., -3.2920042325313532e+00,
             -5., -6.4918064797465358e-01, -5., -5., -5., -5., -5., -5.,
             -4.6738249448511677e+00, -5., -5., -5., -5., -5.,
             -2.2320748908631924e+00, -5., -5., -5., -5., -5., -5., -5.,
             -5., -1.9218231077706762e+00, -5., -5.,
             -2.8469885912826311e-02, -5., -5., -3.1824808050231201e+00,
             -5., -5., -3.8569961395486962e+00, -5., -5. ]
         index: [ 0, 1, 2, 3, 4, 5, 6, 7, 8, 9, 10, 12, 13, 15, 17, 18,
             19, 20, 21, 22, 23, 25, 26, 27, 28, 29, 30, 31, 32, 33, 34,
             36, 37, 38, 39, 40, 41, 43, 44, 45, 47, 48, 49, 50, 52, 53,
             54, 55, 56, 57, 60, 61, 63, 64, 65, 66, 67, 68, 69, 70, 71,
             73, 74, 76, 148, 149, 150, 151, 152, 153, 154, 155, 157,
             158, 160, 161, 162, 163, 165, 166, 167, 168, 169, 170, 171,
             172, 173, 174, 175, 176, 177, 178, 179, 180, 182, 183, 184,
             185, 186, 187, 188, 189, 190, 191, 192, 193, 194, 195, 196,
             197, 198, 199, 200, 201, 202, 203, 204, 205, 206, 207, 208,
             209, 210, 211, 212, 215 ]
      -
         sv_count: 110
         rho: 2.7843199212789855e+00
         alpha: [ 3.9565690724970786e+00, 5., 6.3346483860570468e-01,
             3.7328539408296972e+00, 5., 4.0774396971659937e-01,
             9.5838188182424533e-01, 9.4797226794011447e-01, 5., 5.,
             4.9858022974298510e+00, 5., 5., 5., 5., 5., 5.,
             3.9985708101119206e+00, 2.6125850528389627e+00, 5., 5., 5.,
             2.8414741998168139e-02, 5., 5., 5., 5.,
             4.4122920324644985e+00, 5., 5., 3.6861975702701433e-01, 5.,
             5., 3.4217480446874564e+00, 5., 4.6209879950425297e+00, 5.,
             5., 5., 5., 5., 5., 5., 4.0044842063629837e-01, 5., 5., 5.,
             2.5646302326205870e+00, 5., 5., 5., 5., 5.,
             1.0908644186958385e+00, 5., -5., -5.,
             -4.1699035559572497e+00, -5., -4.6078493161442484e+00, -5.,
             -7.1350350555242317e-02, -4.2419657037463770e-01, -5., -5.,
             -5., -5., -1.8939589960639176e+00, -1.1056460809846233e-01,
             -4.8224157113315496e+00, -3.4108717016547735e-01, -5., -5.,
             -5., -5., -5., -5., -5., -5., -5., -5.,
             -3.2985949503280967e+00, -5., -5., -4.6416945858731040e+00,
             -5., -5., -5., -5., -5., -5., -5., -5., -5., -5., -5., -5.,
             -5., -5., -6.0101643856999754e-01, -1.7967068535719977e+00,
             -5., -5., -5., -5., -1.9180424120276516e+00, -5.,
             -3.7233810313861521e-01, -7.2230152766316821e-02, -5. ]
         index: [ 78, 79, 80, 81, 82, 83, 84, 86, 87, 88, 89, 91, 92, 93,
             95, 97, 98, 100, 101, 102, 103, 104, 105, 106, 107, 108,
             110, 112, 113, 115, 116, 117, 118, 120, 121, 123, 125, 126,
             127, 128, 129, 131, 132, 133, 134, 135, 136, 137, 139, 140,
             141, 142, 143, 145, 146, 147, 148, 149, 150, 151, 152, 153,
             154, 155, 156, 157, 158, 159, 161, 163, 164, 167, 168, 170,
             171, 172, 173, 174, 175, 177, 178, 180, 181, 182, 183, 184,
             185, 186, 188, 189, 190, 191, 193, 195, 196, 197, 198, 199,
             201, 202, 204, 206, 207, 209, 210, 211, 212, 213, 214, 215 ]
