%YAML:1.0
---
opencv_ml_svm:
   format: 3
   svmType: C_SVC
   kernel:
      type: RBF
      gamma: 5.9999999999999995e-04
   C: 50.
   term_criteria: { epsilon:1.1920928955078125e-07, iterations:1000 }
   var_count: 24
   class_count: 6
   class_labels: !!opencv-matrix
      rows: 6
      cols: 1
      dt: i
      data: [ 0, 1, 2, 3, 4, 5 ]
   sv_total: 364
   support_vectors:
      - [ 2., 5., 0., 1., 2., 3., 2., 5., 2., 2., 7., 2., 2., 3., 2., 0.,
          0., 1., 7., 1., 3., 2., 2., 3. ]
      - [ 3., 2., 1., 6., 0., 0., 3., 2., 4., 5., 3., 2., 4., 1., 2., 3.,
          2., 5., 2., 1., 1., 2., 4., 1. ]
      - [ 3., 1., 1., 6., 1., 3., 0., 0., 1., 1., 2., 6., 1., 4., 2., 3.,
          3., 6., 2., 3., 0., 0., 0., 4. ]
      - [ 7., 0., 3., 4., 0., 4., 0., 0., 0., 0., 2., 15., 2., 0., 2.,
          3., 3., 1., 3., 2., 4., 2., 0., 2. ]
      - [ 3., 1., 2., 5., 2., 5., 2., 0., 0., 0., 0., 3., 2., 0., 4., 3.,
          0., 5., 0., 9., 1., 1., 0., 5. ]
      - [ 12., 0., 1., 1., 1., 1., 1., 1., 3., 5., 3., 2., 7., 1., 0.,
          4., 3., 3., 4., 0., 2., 0., 4., 0. ]
      - [ 8., 1., 1., 0., 0., 4., 1., 4., 2., 4., 4., 2., 9., 1., 0., 0.,
          2., 3., 1., 1., 1., 5., 1., 4. ]
      - [ 3., 2., 3., 4., 2., 3., 2., 4., 2., 5., 3., 2., 4., 0., 2., 0.,
          3., 2., 2., 2., 3., 3., 3., 0. ]
      - [ 11., 1., 0., 2., 4., 2., 0., 4., 2., 0., 2., 1., 13., 0., 5.,
          3., 2., 1., 2., 1., 0., 2., 2., 4. ]
      - [ 3., 1., 6., 1., 0., 1., 0., 3., 2., 0., 1., 4., 1., 0., 0., 5.,
          1., 10., 7., 2., 1., 4., 0., 0. ]
      - [ 2., 1., 2., 4., 0., 0., 1., 2., 0., 5., 6., 0., 2., 0., 8., 3.,
          3., 8., 1., 1., 1., 1., 1., 1. ]
      - [ 4., 1., 2., 2., 5., 5., 5., 3., 5., 1., 2., 2., 2., 2., 1., 0.,
          3., 1., 0., 1., 2., 0., 5., 3. ]
      - [ 2., 1., 8., 6., 1., 2., 3., 0., 2., 3., 1., 3., 2., 7., 1., 0.,
          1., 4., 2., 0., 5., 2., 1., 2. ]
      - [ 5., 1., 4., 4., 1., 2., 1., 4., 1., 1., 2., 1., 0., 1., 6., 3.,
          1., 2., 3., 4., 4., 3., 1., 4. ]
      - [ 4., 0., 3., 8., 0., 5., 0., 1., 0., 4., 4., 0., 3., 1., 5., 1.,
          1., 3., 5., 4., 0., 0., 2., 3. ]
      - [ 7., 2., 2., 4., 0., 1., 6., 2., 2., 0., 3., 3., 1., 2., 1., 4.,
          2., 1., 4., 1., 1., 0., 5., 5. ]
      - [ 2., 3., 0., 4., 1., 4., 1., 1., 4., 0., 2., 4., 1., 2., 3., 7.,
          4., 2., 2., 4., 4., 1., 1., 7. ]
      - [ 2., 6., 3., 2., 7., 4., 2., 7., 3., 2., 2., 2., 0., 4., 0., 0.,
          0., 3., 0., 3., 2., 3., 5., 2. ]
      - [ 0., 1., 0., 2., 2., 1., 1., 3., 0., 0., 5., 0., 1., 8., 6., 3.,
          2., 2., 2., 7., 3., 0., 2., 4. ]
      - [ 12., 0., 4., 1., 0., 0., 0., 2., 4., 0., 5., 17., 3., 0., 1.,
          5., 0., 4., 0., 1., 0., 1., 0., 4. ]
      - [ 9., 3., 1., 2., 3., 1., 6., 2., 3., 0., 11., 5., 3., 0., 1.,
          0., 0., 4., 1., 0., 0., 2., 2., 5. ]
      - [ 5., 4., 0., 0., 2., 1., 3., 2., 4., 2., 4., 4., 0., 3., 2., 1.,
          3., 1., 1., 0., 1., 2., 4., 4. ]
      - [ 7., 1., 5., 2., 2., 0., 4., 0., 6., 1., 1., 3., 2., 1., 7., 6.,
          1., 3., 2., 1., 1., 0., 0., 3. ]
      - [ 10., 2., 4., 1., 3., 1., 0., 6., 2., 3., 3., 0., 4., 0., 1.,
          1., 3., 4., 2., 3., 4., 1., 0., 1. ]
      - [ 6., 3., 0., 4., 1., 3., 2., 6., 2., 2., 2., 2., 3., 0., 0., 2.,
          1., 3., 2., 0., 5., 1., 0., 3. ]
      - [ 3., 0., 2., 2., 0., 2., 1., 1., 2., 4., 10., 5., 7., 0., 0.,
          2., 3., 0., 6., 2., 1., 2., 0., 4. ]
      - [ 7., 0., 1., 4., 0., 1., 0., 1., 0., 0., 7., 21., 1., 0., 1.,
          4., 3., 1., 1., 0., 2., 2., 0., 6. ]
      - [ 13., 1., 3., 1., 8., 1., 0., 0., 0., 0., 0., 6., 6., 0., 2.,
          4., 0., 9., 2., 0., 1., 3., 0., 6. ]
      - [ 4., 1., 4., 3., 4., 0., 6., 1., 4., 7., 2., 0., 2., 3., 3., 1.,
          5., 2., 3., 1., 1., 1., 0., 1. ]
      - [ 4., 3., 7., 1., 2., 3., 3., 3., 5., 3., 3., 1., 0., 4., 0., 7.,
          0., 1., 1., 3., 0., 3., 4., 3. ]
      - [ 4., 3., 4., 2., 1., 1., 4., 4., 0., 2., 2., 0., 3., 1., 3., 2.,
          8., 4., 4., 2., 3., 1., 0., 6. ]
      - [ 4., 9., 0., 0., 0., 2., 5., 3., 6., 4., 0., 1., 0., 4., 1., 3.,
          1., 4., 1., 5., 2., 2., 5., 2. ]
      - [ 1., 3., 4., 0., 3., 3., 7., 1., 3., 2., 1., 0., 1., 6., 5., 1.,
          0., 1., 3., 2., 2., 2., 4., 4. ]
      - [ 5., 1., 2., 1., 2., 1., 0., 4., 3., 2., 4., 2., 0., 2., 3., 3.,
          4., 0., 6., 1., 3., 6., 1., 3. ]
      - [ 2., 5., 1., 1., 2., 1., 6., 6., 3., 2., 2., 0., 2., 5., 0., 1.,
          0., 7., 2., 0., 1., 2., 2., 0. ]
      - [ 2., 4., 1., 2., 2., 1., 0., 5., 3., 3., 3., 1., 2., 1., 1., 4.,
          0., 5., 1., 0., 3., 6., 1., 2. ]
      - [ 2., 6., 3., 4., 0., 0., 2., 0., 5., 2., 1., 1., 0., 3., 3., 0.,
          0., 2., 5., 1., 9., 4., 0., 0. ]
      - [ 2., 1., 0., 2., 0., 1., 1., 3., 4., 3., 0., 2., 2., 2., 3., 4.,
          2., 7., 2., 1., 5., 2., 0., 4. ]
      - [ 3., 0., 1., 11., 0., 0., 0., 7., 0., 3., 1., 4., 4., 1., 0.,
          1., 2., 0., 1., 1., 1., 2., 3., 2. ]
      - [ 1., 2., 6., 1., 0., 3., 0., 2., 3., 3., 0., 3., 4., 1., 0., 6.,
          8., 4., 3., 2., 3., 0., 3., 1. ]
      - [ 2., 1., 6., 0., 1., 1., 0., 1., 0., 1., 7., 2., 2., 2., 2., 2.,
          2., 9., 0., 2., 0., 0., 2., 1. ]
      - [ 5., 7., 2., 3., 2., 1., 1., 3., 5., 3., 4., 0., 1., 0., 1., 1.,
          3., 7., 1., 2., 2., 0., 4., 1. ]
      - [ 2., 3., 4., 1., 1., 0., 4., 4., 2., 5., 3., 2., 3., 0., 2., 2.,
          3., 3., 2., 1., 0., 4., 2., 0. ]
      - [ 0., 1., 6., 1., 2., 3., 2., 1., 5., 0., 2., 2., 2., 2., 3., 6.,
          1., 2., 0., 6., 1., 3., 0., 2. ]
      - [ 2., 4., 1., 2., 2., 0., 0., 1., 2., 1., 0., 2., 1., 1., 1.,
          11., 4., 6., 1., 4., 5., 1., 2., 5. ]
      - [ 1., 1., 8., 2., 1., 1., 4., 1., 8., 3., 1., 0., 3., 3., 6., 2.,
          4., 1., 1., 6., 0., 1., 1., 0. ]
      - [ 2., 4., 2., 3., 2., 0., 0., 3., 2., 3., 1., 1., 1., 0., 1., 0.,
          0., 5., 2., 3., 1., 5., 4., 8. ]
      - [ 4., 2., 2., 1., 1., 5., 2., 3., 3., 3., 2., 1., 2., 2., 0., 1.,
          11., 4., 2., 1., 2., 1., 1., 3. ]
      - [ 0., 0., 4., 2., 1., 1., 1., 0., 2., 8., 2., 3., 1., 1., 2., 7.,
          3., 1., 0., 2., 2., 4., 0., 0. ]
      - [ 2., 3., 12., 2., 1., 1., 1., 7., 4., 3., 2., 0., 0., 1., 2.,
          3., 3., 1., 1., 4., 4., 3., 3., 1. ]
      - [ 2., 3., 2., 1., 2., 2., 3., 3., 4., 3., 3., 1., 1., 1., 1., 2.,
          2., 8., 1., 3., 3., 1., 0., 1. ]
      - [ 2., 3., 3., 1., 7., 0., 5., 0., 1., 2., 4., 0., 0., 3., 0., 1.,
          5., 6., 10., 5., 0., 0., 1., 0. ]
      - [ 2., 1., 5., 5., 1., 1., 1., 0., 3., 2., 3., 5., 6., 1., 1., 2.,
          3., 2., 0., 2., 1., 4., 2., 0. ]
      - [ 1., 4., 2., 2., 0., 0., 3., 4., 1., 1., 6., 0., 0., 1., 0.,
          10., 0., 14., 0., 2., 1., 0., 1., 0. ]
      - [ 4., 2., 3., 7., 1., 1., 0., 3., 2., 1., 2., 4., 1., 1., 4., 3.,
          4., 3., 4., 4., 1., 3., 1., 0. ]
      - [ 1., 4., 0., 1., 1., 1., 1., 2., 0., 3., 4., 5., 7., 4., 0., 5.,
          1., 0., 4., 2., 1., 3., 1., 2. ]
      - [ 0., 3., 7., 3., 0., 0., 5., 1., 7., 3., 3., 0., 3., 0., 2., 7.,
          1., 2., 0., 4., 2., 1., 5., 0. ]
      - [ 0., 4., 1., 6., 1., 1., 2., 1., 0., 0., 7., 0., 1., 2., 0., 1.,
          0., 13., 0., 8., 1., 1., 0., 0. ]
      - [ 0., 8., 7., 3., 5., 0., 1., 3., 0., 1., 3., 0., 1., 1., 1., 6.,
          0., 1., 0., 3., 2., 3., 2., 0. ]
      - [ 5., 7., 3., 0., 3., 2., 0., 2., 7., 1., 4., 1., 0., 4., 1., 4.,
          2., 1., 0., 1., 2., 1., 1., 1. ]
      - [ 1., 1., 3., 1., 3., 3., 0., 2., 4., 3., 1., 2., 3., 2., 1., 9.,
          4., 0., 2., 3., 0., 2., 2., 1. ]
      - [ 1., 1., 0., 1., 0., 0., 2., 0., 0., 0., 4., 9., 3., 2., 3., 5.,
          3., 1., 2., 0., 2., 8., 3., 0. ]
      - [ 0., 3., 3., 5., 5., 2., 1., 1., 2., 4., 1., 3., 1., 2., 0., 2.,
          1., 2., 0., 1., 9., 4., 3., 1. ]
      - [ 0., 4., 4., 1., 1., 1., 2., 3., 3., 6., 5., 5., 0., 2., 1., 0.,
          1., 0., 0., 0., 5., 6., 0., 3. ]
      - [ 2., 8., 4., 3., 1., 0., 1., 3., 2., 3., 3., 3., 2., 3., 1., 1.,
          1., 0., 0., 2., 1., 4., 4., 1. ]
      - [ 0., 1., 4., 2., 7., 0., 2., 0., 4., 0., 2., 10., 2., 2., 5.,
          0., 2., 4., 0., 3., 1., 1., 1., 0. ]
      - [ 2., 11., 4., 1., 2., 0., 6., 6., 0., 4., 2., 3., 1., 0., 1.,
          3., 0., 2., 1., 1., 1., 1., 1., 0. ]
      - [ 0., 1., 3., 3., 5., 1., 2., 4., 0., 1., 5., 0., 0., 1., 4., 1.,
          3., 6., 2., 8., 2., 4., 0., 3. ]
      - [ 0., 1., 8., 0., 1., 8., 1., 3., 1., 3., 2., 1., 2., 1., 0., 3.,
          1., 6., 0., 2., 3., 0., 6., 0. ]
      - [ 0., 10., 11., 0., 0., 5., 5., 4., 1., 0., 0., 0., 0., 0., 1.,
          1., 0., 6., 0., 8., 0., 0., 7., 0. ]
      - [ 0., 8., 9., 0., 1., 2., 2., 1., 7., 0., 3., 2., 0., 0., 1., 7.,
          4., 4., 0., 5., 1., 2., 0., 0. ]
      - [ 0., 9., 9., 0., 0., 0., 1., 5., 2., 3., 2., 1., 2., 3., 1., 5.,
          0., 3., 1., 2., 0., 0., 4., 0. ]
      - [ 3., 7., 2., 1., 2., 1., 3., 4., 5., 3., 1., 1., 0., 2., 0., 3.,
          0., 4., 0., 3., 2., 2., 2., 2. ]
      - [ 0., 7., 2., 1., 3., 0., 3., 4., 4., 0., 1., 0., 0., 4., 2., 1.,
          0., 16., 0., 2., 3., 0., 0., 0. ]
      - [ 11., 0., 0., 2., 3., 0., 2., 3., 3., 4., 3., 3., 1., 1., 4.,
          2., 5., 0., 4., 1., 1., 0., 2., 4. ]
      - [ 8., 1., 2., 3., 1., 1., 4., 5., 1., 4., 5., 3., 1., 3., 0., 1.,
          1., 4., 2., 1., 1., 3., 1., 3. ]
      - [ 7., 1., 0., 3., 1., 0., 1., 3., 1., 3., 3., 3., 3., 2., 1., 1.,
          4., 1., 1., 1., 0., 2., 8., 3. ]
      - [ 0., 0., 4., 4., 0., 0., 2., 3., 6., 5., 4., 3., 6., 2., 4., 0.,
          2., 1., 1., 0., 2., 3., 1., 0. ]
      - [ 8., 0., 1., 2., 0., 1., 1., 5., 2., 4., 6., 2., 1., 1., 0., 2.,
          0., 3., 4., 0., 1., 3., 0., 10. ]
      - [ 2., 1., 0., 5., 1., 5., 3., 1., 2., 5., 2., 6., 4., 2., 2., 2.,
          5., 0., 1., 0., 1., 5., 2., 2. ]
      - [ 8., 2., 4., 0., 1., 1., 0., 0., 2., 4., 2., 4., 6., 1., 4., 4.,
          3., 0., 3., 0., 2., 1., 1., 0. ]
      - [ 6., 0., 2., 2., 1., 2., 0., 1., 6., 3., 3., 2., 2., 2., 1., 1.,
          1., 0., 5., 1., 3., 2., 1., 6. ]
      - [ 3., 0., 0., 2., 4., 0., 1., 0., 1., 7., 3., 2., 8., 2., 2., 3.,
          2., 1., 5., 0., 3., 1., 0., 3. ]
      - [ 7., 0., 1., 3., 4., 1., 1., 1., 4., 3., 4., 4., 4., 2., 3., 1.,
          1., 0., 1., 1., 4., 2., 1., 5. ]
      - [ 4., 0., 0., 4., 2., 3., 2., 3., 1., 1., 9., 1., 2., 1., 0., 1.,
          1., 1., 5., 0., 6., 6., 1., 2. ]
      - [ 4., 1., 1., 0., 0., 2., 0., 1., 5., 6., 2., 6., 10., 1., 0.,
          4., 1., 2., 2., 0., 0., 2., 1., 2. ]
      - [ 5., 0., 0., 3., 4., 0., 0., 2., 1., 5., 2., 6., 6., 5., 1., 3.,
          3., 1., 2., 0., 1., 1., 4., 2. ]
      - [ 4., 3., 2., 1., 3., 4., 1., 5., 5., 5., 4., 0., 3., 2., 2., 0.,
          3., 1., 0., 3., 2., 2., 1., 3. ]
      - [ 0., 1., 0., 4., 5., 1., 3., 1., 7., 1., 5., 1., 1., 4., 3., 2.,
          2., 3., 1., 2., 1., 1., 2., 2. ]
      - [ 2., 5., 6., 1., 1., 0., 4., 8., 2., 4., 0., 0., 2., 2., 1., 1.,
          3., 2., 0., 9., 1., 3., 2., 0. ]
      - [ 3., 4., 1., 4., 2., 6., 2., 5., 2., 3., 0., 3., 8., 0., 2., 4.,
          1., 3., 0., 0., 0., 3., 2., 1. ]
      - [ 2., 6., 2., 2., 2., 1., 4., 2., 4., 0., 3., 2., 3., 5., 6., 5.,
          1., 1., 0., 0., 2., 3., 2., 1. ]
      - [ 0., 7., 3., 1., 1., 0., 2., 1., 2., 5., 2., 0., 0., 4., 5., 3.,
          2., 0., 2., 4., 2., 1., 5., 1. ]
      - [ 3., 4., 9., 0., 0., 1., 1., 3., 1., 2., 6., 2., 3., 2., 1., 1.,
          2., 3., 4., 2., 1., 0., 4., 3. ]
      - [ 0., 2., 1., 1., 6., 1., 0., 5., 4., 0., 2., 7., 0., 1., 3., 1.,
          1., 1., 3., 1., 4., 2., 0., 7. ]
      - [ 0., 1., 3., 2., 2., 3., 2., 4., 1., 4., 0., 2., 0., 4., 2., 2.,
          1., 3., 5., 2., 0., 6., 3., 2. ]
      - [ 2., 6., 2., 1., 3., 2., 2., 1., 1., 0., 6., 5., 3., 3., 1., 3.,
          1., 1., 4., 0., 3., 2., 2., 3. ]
      - [ 5., 1., 2., 7., 2., 7., 0., 1., 0., 0., 1., 2., 4., 5., 2., 1.,
          2., 1., 2., 2., 1., 3., 3., 5. ]
      - [ 2., 1., 1., 1., 3., 3., 4., 2., 2., 2., 4., 2., 4., 2., 1., 1.,
          2., 0., 5., 0., 1., 5., 7., 4. ]
      - [ 2., 3., 1., 4., 7., 5., 0., 0., 2., 3., 0., 2., 1., 2., 3., 2.,
          1., 1., 5., 1., 1., 3., 3., 7. ]
      - [ 4., 1., 4., 6., 2., 6., 3., 1., 0., 4., 2., 1., 0., 3., 0., 4.,
          3., 2., 1., 3., 0., 0., 2., 7. ]
      - [ 4., 0., 0., 3., 3., 0., 1., 2., 2., 7., 7., 2., 4., 2., 1., 3.,
          5., 2., 3., 0., 1., 4., 0., 3. ]
      - [ 2., 0., 1., 8., 1., 0., 3., 3., 3., 2., 3., 5., 2., 4., 2., 1.,
          1., 2., 3., 5., 1., 4., 1., 2. ]
      - [ 1., 0., 0., 1., 2., 3., 1., 2., 3., 1., 4., 3., 2., 5., 2., 5.,
          1., 3., 6., 4., 2., 1., 1., 6. ]
      - [ 2., 1., 5., 1., 1., 2., 3., 3., 4., 3., 3., 0., 2., 3., 2., 1.,
          2., 4., 1., 4., 1., 0., 2., 3. ]
      - [ 0., 0., 7., 1., 1., 0., 1., 2., 0., 1., 4., 0., 0., 3., 1., 6.,
          1., 11., 0., 5., 0., 2., 10., 3. ]
      - [ 1., 5., 13., 3., 1., 0., 1., 6., 1., 3., 3., 0., 0., 2., 2.,
          0., 0., 4., 0., 8., 1., 0., 4., 1. ]
      - [ 2., 4., 9., 2., 0., 8., 3., 1., 5., 1., 0., 0., 0., 3., 2., 1.,
          0., 2., 1., 4., 3., 1., 4., 3. ]
      - [ 3., 2., 6., 1., 3., 4., 2., 1., 3., 5., 3., 2., 1., 1., 4., 3.,
          0., 2., 1., 2., 1., 1., 2., 0. ]
      - [ 1., 6., 5., 1., 1., 1., 1., 1., 4., 5., 2., 2., 1., 2., 2., 3.,
          2., 5., 0., 5., 2., 1., 2., 4. ]
      - [ 9., 7., 2., 0., 1., 3., 1., 3., 0., 2., 2., 2., 3., 2., 2., 3.,
          5., 3., 2., 3., 1., 1., 1., 1. ]
      - [ 2., 1., 3., 1., 1., 4., 11., 1., 1., 6., 0., 4., 1., 2., 1.,
          0., 0., 2., 3., 3., 1., 0., 3., 2. ]
      - [ 0., 1., 2., 7., 3., 1., 7., 2., 1., 2., 4., 2., 0., 3., 2., 3.,
          0., 3., 0., 4., 0., 1., 5., 0. ]
      - [ 0., 1., 1., 2., 4., 1., 1., 2., 0., 2., 0., 0., 1., 2., 10.,
          4., 2., 4., 5., 7., 0., 4., 2., 1. ]
      - [ 2., 1., 2., 0., 4., 0., 1., 2., 5., 4., 4., 3., 3., 2., 3., 4.,
          1., 5., 1., 2., 1., 3., 2., 1. ]
      - [ 5., 3., 3., 0., 2., 2., 2., 2., 2., 2., 12., 0., 0., 2., 3.,
          2., 0., 3., 4., 5., 0., 0., 0., 6. ]
      - [ 1., 3., 3., 1., 2., 3., 1., 3., 2., 3., 1., 2., 0., 4., 2., 0.,
          2., 5., 4., 9., 0., 1., 2., 5. ]
      - [ 1., 2., 5., 4., 1., 0., 1., 4., 2., 5., 1., 0., 2., 5., 4., 2.,
          2., 2., 3., 2., 2., 1., 2., 0. ]
      - [ 3., 3., 6., 2., 3., 1., 1., 2., 2., 2., 3., 0., 1., 1., 3., 1.,
          1., 2., 1., 3., 5., 2., 1., 4. ]
      - [ 5., 1., 2., 0., 1., 3., 3., 8., 1., 1., 4., 3., 0., 0., 2., 0.,
          5., 2., 1., 0., 3., 2., 0., 6. ]
      - [ 0., 4., 0., 6., 0., 1., 1., 6., 1., 2., 2., 4., 5., 1., 1., 0.,
          3., 3., 6., 0., 1., 3., 0., 3. ]
      - [ 1., 2., 2., 2., 6., 4., 2., 0., 1., 2., 5., 6., 5., 4., 2., 1.,
          0., 2., 1., 3., 4., 2., 0., 2. ]
      - [ 6., 1., 0., 2., 3., 1., 2., 0., 3., 7., 3., 3., 5., 2., 4., 1.,
          6., 1., 0., 0., 1., 3., 0., 4. ]
      - [ 3., 3., 7., 1., 2., 3., 3., 2., 2., 0., 0., 0., 3., 1., 5., 2.,
          4., 2., 1., 3., 2., 6., 2., 4. ]
      - [ 8., 0., 0., 2., 4., 2., 0., 1., 2., 0., 6., 2., 3., 0., 0., 5.,
          1., 3., 7., 0., 3., 2., 0., 8. ]
      - [ 2., 6., 7., 0., 5., 1., 4., 2., 1., 0., 2., 0., 0., 3., 1., 2.,
          0., 6., 1., 8., 3., 1., 3., 1. ]
      - [ 6., 0., 0., 3., 2., 2., 2., 3., 1., 3., 7., 0., 4., 1., 3., 1.,
          2., 2., 3., 2., 3., 5., 0., 4. ]
      - [ 1., 5., 5., 1., 1., 0., 0., 3., 3., 3., 6., 0., 1., 1., 2., 4.,
          8., 0., 2., 1., 7., 2., 0., 3. ]
      - [ 1., 4., 1., 3., 2., 4., 2., 7., 6., 0., 1., 2., 1., 0., 2., 0.,
          0., 2., 2., 2., 2., 4., 1., 4. ]
      - [ 1., 3., 2., 1., 2., 2., 3., 3., 3., 2., 5., 0., 2., 4., 1., 2.,
          0., 2., 1., 1., 5., 4., 3., 7. ]
      - [ 2., 11., 1., 3., 2., 7., 2., 3., 3., 2., 1., 1., 2., 0., 0.,
          1., 0., 3., 2., 2., 2., 4., 4., 1. ]
      - [ 3., 2., 1., 4., 1., 2., 0., 0., 2., 3., 14., 0., 4., 1., 1.,
          6., 0., 6., 2., 1., 1., 2., 1., 2. ]
      - [ 4., 2., 3., 4., 2., 2., 0., 4., 0., 0., 5., 2., 1., 0., 0., 1.,
          1., 4., 2., 1., 3., 3., 3., 6. ]
      - [ 4., 0., 1., 5., 2., 1., 2., 1., 1., 1., 1., 3., 2., 4., 3., 2.,
          2., 2., 9., 2., 3., 1., 0., 1. ]
      - [ 1., 2., 7., 2., 6., 2., 0., 6., 2., 0., 3., 4., 2., 0., 0., 4.,
          1., 6., 0., 1., 3., 3., 3., 6. ]
      - [ 0., 4., 13., 0., 3., 1., 5., 2., 0., 1., 4., 0., 1., 2., 2.,
          0., 2., 1., 1., 7., 3., 0., 4., 3. ]
      - [ 0., 3., 4., 1., 5., 2., 3., 3., 2., 4., 2., 1., 0., 5., 5., 2.,
          1., 4., 0., 4., 0., 1., 6., 1. ]
      - [ 1., 1., 3., 0., 1., 4., 2., 0., 0., 2., 6., 1., 0., 0., 2., 6.,
          1., 4., 2., 4., 3., 1., 5., 4. ]
      - [ 1., 1., 6., 3., 1., 2., 3., 3., 2., 4., 3., 0., 1., 2., 1., 3.,
          0., 2., 2., 6., 3., 0., 1., 3. ]
      - [ 0., 3., 1., 0., 1., 5., 2., 4., 2., 6., 1., 6., 0., 2., 0., 2.,
          3., 4., 2., 6., 6., 2., 0., 1. ]
      - [ 1., 2., 4., 7., 3., 0., 1., 3., 1., 3., 1., 3., 0., 6., 6., 2.,
          0., 4., 1., 4., 0., 4., 3., 0. ]
      - [ 0., 3., 4., 1., 3., 1., 7., 4., 0., 3., 3., 0., 1., 3., 5., 2.,
          0., 2., 2., 1., 2., 0., 6., 0. ]
      - [ 1., 3., 3., 1., 1., 1., 0., 2., 3., 1., 4., 2., 5., 0., 4., 4.,
          0., 3., 4., 3., 2., 2., 3., 2. ]
      - [ 1., 3., 1., 1., 4., 0., 1., 6., 1., 3., 2., 4., 1., 1., 0., 2.,
          4., 8., 1., 1., 3., 0., 3., 2. ]
      - [ 0., 3., 4., 0., 5., 5., 3., 7., 0., 0., 5., 1., 0., 3., 1., 4.,
          1., 1., 3., 3., 2., 0., 4., 2. ]
      - [ 1., 2., 3., 4., 6., 8., 2., 5., 3., 1., 1., 0., 2., 4., 1., 2.,
          0., 2., 2., 4., 3., 0., 3., 0. ]
      - [ 1., 3., 5., 0., 2., 1., 3., 2., 2., 1., 6., 0., 2., 0., 2., 3.,
          0., 8., 0., 4., 5., 2., 6., 1. ]
      - [ 3., 6., 3., 5., 3., 2., 1., 4., 6., 1., 4., 1., 0., 1., 1., 3.,
          1., 5., 3., 3., 1., 2., 4., 1. ]
      - [ 0., 7., 7., 0., 3., 2., 1., 2., 1., 4., 3., 1., 3., 4., 3., 0.,
          2., 7., 2., 1., 2., 4., 5., 0. ]
      - [ 2., 3., 9., 2., 0., 2., 1., 10., 3., 1., 3., 2., 2., 1., 1.,
          1., 2., 6., 2., 1., 1., 1., 5., 1. ]
      - [ 1., 4., 1., 5., 5., 1., 3., 4., 2., 0., 5., 4., 3., 2., 2., 2.,
          1., 7., 2., 1., 2., 0., 3., 2. ]
      - [ 5., 2., 1., 1., 0., 3., 5., 5., 8., 3., 2., 1., 1., 8., 1., 1.,
          0., 1., 3., 1., 2., 6., 1., 7. ]
      - [ 0., 1., 0., 7., 3., 2., 1., 3., 1., 3., 3., 6., 1., 3., 6., 3.,
          3., 6., 4., 3., 3., 0., 1., 1. ]
      - [ 0., 4., 8., 3., 2., 1., 5., 0., 5., 0., 3., 6., 0., 0., 9., 1.,
          0., 9., 2., 5., 1., 1., 1., 2. ]
      - [ 1., 3., 3., 2., 2., 2., 2., 3., 2., 1., 3., 9., 5., 2., 5., 2.,
          0., 4., 4., 1., 2., 3., 0., 0. ]
      - [ 0., 1., 9., 2., 2., 0., 0., 1., 2., 0., 0., 2., 2., 2., 2., 1.,
          5., 4., 1., 7., 2., 0., 0., 2. ]
      - [ 10., 5., 10., 4., 1., 1., 0., 1., 1., 3., 0., 3., 8., 2., 0.,
          1., 2., 7., 1., 2., 0., 0., 1., 2. ]
      - [ 5., 1., 14., 2., 0., 1., 2., 0., 1., 2., 3., 2., 3., 1., 7.,
          1., 1., 6., 0., 4., 3., 1., 0., 4. ]
      - [ 10., 4., 1., 1., 1., 3., 1., 1., 1., 0., 6., 6., 6., 3., 4.,
          3., 1., 0., 3., 2., 2., 6., 0., 3. ]
      - [ 3., 4., 7., 1., 3., 1., 2., 1., 0., 2., 1., 2., 3., 2., 7.,
          10., 2., 6., 4., 1., 1., 1., 1., 3. ]
      - [ 1., 6., 5., 6., 5., 0., 4., 1., 2., 1., 2., 0., 1., 3., 0., 7.,
          0., 11., 1., 1., 2., 3., 0., 1. ]
      - [ 0., 2., 8., 2., 3., 0., 4., 4., 0., 1., 2., 0., 1., 0., 1., 0.,
          1., 8., 0., 17., 0., 0., 6., 0. ]
      - [ 3., 7., 4., 5., 2., 4., 3., 1., 0., 1., 4., 0., 2., 3., 4., 1.,
          3., 2., 4., 3., 4., 3., 0., 1. ]
      - [ 2., 2., 4., 1., 0., 2., 6., 2., 8., 6., 1., 0., 1., 0., 3., 8.,
          1., 2., 3., 6., 4., 1., 4., 1. ]
      - [ 2., 2., 2., 3., 0., 3., 5., 4., 3., 6., 5., 1., 2., 2., 2., 1.,
          3., 3., 6., 0., 1., 4., 2., 2. ]
      - [ 11., 6., 2., 1., 4., 2., 0., 2., 2., 2., 3., 3., 1., 3., 0.,
          4., 2., 0., 5., 0., 1., 6., 0., 4. ]
      - [ 3., 1., 8., 4., 1., 1., 0., 3., 0., 5., 1., 1., 1., 4., 0., 7.,
          3., 6., 3., 1., 1., 3., 2., 1. ]
      - [ 5., 1., 6., 0., 0., 1., 1., 11., 3., 4., 2., 0., 4., 3., 1.,
          9., 4., 1., 2., 0., 3., 3., 1., 3. ]
      - [ 2., 10., 5., 1., 3., 2., 5., 4., 1., 5., 2., 0., 1., 4., 2.,
          0., 0., 3., 2., 2., 1., 1., 8., 0. ]
      - [ 0., 3., 10., 0., 0., 2., 4., 6., 1., 4., 1., 0., 0., 1., 3.,
          1., 0., 6., 0., 6., 0., 4., 6., 6. ]
      - [ 12., 6., 1., 0., 0., 0., 5., 1., 1., 11., 3., 8., 2., 0., 0.,
          1., 3., 0., 5., 0., 2., 0., 1., 3. ]
      - [ 15., 0., 2., 2., 1., 1., 5., 2., 3., 1., 5., 0., 1., 2., 3.,
          2., 3., 1., 1., 0., 1., 5., 0., 5. ]
      - [ 9., 2., 2., 1., 1., 2., 3., 3., 5., 2., 1., 0., 1., 4., 0., 4.,
          0., 2., 4., 0., 1., 3., 4., 6. ]
      - [ 6., 1., 2., 5., 1., 0., 0., 0., 2., 2., 4., 5., 4., 2., 0., 3.,
          2., 5., 7., 8., 3., 1., 0., 2. ]
      - [ 3., 2., 1., 0., 3., 0., 8., 9., 2., 2., 1., 0., 1., 3., 1., 2.,
          1., 4., 2., 0., 2., 4., 5., 8. ]
      - [ 3., 2., 4., 5., 1., 5., 7., 4., 2., 2., 0., 7., 2., 1., 1., 0.,
          3., 6., 0., 1., 2., 4., 4., 1. ]
      - [ 3., 8., 4., 1., 0., 2., 1., 9., 1., 4., 1., 4., 4., 1., 0., 2.,
          1., 0., 3., 0., 3., 7., 1., 0. ]
      - [ 1., 2., 6., 2., 4., 1., 2., 6., 0., 3., 1., 1., 2., 1., 5., 1.,
          1., 4., 5., 2., 1., 5., 5., 4. ]
      - [ 1., 10., 6., 2., 1., 5., 2., 5., 4., 4., 7., 1., 0., 1., 1.,
          1., 1., 2., 0., 4., 3., 3., 1., 3. ]
      - [ 0., 4., 2., 0., 4., 2., 1., 4., 3., 3., 4., 1., 0., 0., 0., 0.,
          0., 14., 0., 9., 4., 0., 3., 7. ]
      - [ 2., 0., 2., 12., 3., 0., 3., 1., 0., 0., 5., 6., 3., 3., 3.,
          0., 0., 4., 1., 4., 2., 2., 4., 0. ]
      - [ 2., 0., 2., 1., 2., 3., 1., 6., 2., 9., 1., 0., 1., 3., 9., 2.,
          1., 1., 4., 2., 0., 3., 3., 6. ]
      - [ 1., 12., 7., 1., 1., 1., 1., 8., 4., 5., 0., 0., 0., 0., 0.,
          4., 0., 7., 1., 2., 1., 1., 1., 3. ]
      - [ 7., 2., 0., 4., 1., 1., 0., 6., 2., 6., 3., 2., 3., 4., 1., 8.,
          3., 1., 2., 0., 0., 0., 1., 5. ]
      - [ 3., 3., 11., 1., 3., 3., 2., 3., 3., 2., 1., 0., 1., 6., 3.,
          6., 1., 2., 2., 5., 2., 0., 2., 2. ]
      - [ 8., 1., 2., 1., 2., 4., 1., 1., 10., 3., 2., 0., 4., 2., 2.,
          10., 3., 1., 2., 3., 0., 1., 5., 0. ]
      - [ 3., 4., 0., 1., 1., 2., 2., 3., 8., 1., 2., 3., 6., 6., 2., 1.,
          2., 0., 3., 0., 1., 5., 4., 4. ]
      - [ 4., 0., 9., 3., 2., 0., 0., 0., 8., 0., 1., 5., 3., 0., 1., 4.,
          1., 8., 4., 4., 6., 1., 0., 4. ]
      - [ 1., 4., 6., 1., 0., 2., 0., 2., 5., 0., 4., 0., 2., 2., 0., 4.,
          5., 6., 6., 4., 1., 3., 1., 5. ]
      - [ 2., 6., 7., 1., 0., 1., 1., 5., 3., 3., 4., 0., 2., 3., 1., 3.,
          0., 12., 0., 6., 1., 0., 3., 1. ]
      - [ 5., 5., 5., 2., 0., 5., 5., 4., 0., 5., 4., 1., 2., 1., 1., 3.,
          1., 2., 1., 4., 1., 5., 3., 1. ]
      - [ 0., 1., 7., 3., 0., 1., 3., 8., 3., 1., 3., 0., 3., 1., 1., 8.,
          7., 9., 0., 8., 0., 0., 1., 0. ]
      - [ 1., 1., 5., 7., 1., 1., 0., 9., 1., 0., 8., 1., 0., 1., 3., 2.,
          0., 6., 1., 8., 1., 0., 3., 0. ]
      - [ 7., 0., 0., 4., 1., 1., 1., 2., 3., 2., 2., 1., 3., 2., 0., 2.,
          0., 12., 0., 0., 6., 1., 3., 4. ]
      - [ 0., 9., 11., 0., 1., 0., 2., 5., 0., 2., 0., 2., 1., 3., 0.,
          1., 2., 8., 3., 5., 0., 0., 1., 0. ]
      - [ 0., 5., 2., 1., 4., 1., 4., 6., 3., 3., 2., 1., 0., 3., 4., 8.,
          1., 3., 2., 2., 1., 1., 1., 3. ]
      - [ 3., 2., 5., 3., 6., 2., 3., 5., 1., 1., 4., 1., 4., 1., 8., 0.,
          1., 0., 2., 1., 4., 8., 1., 2. ]
      - [ 1., 5., 3., 1., 2., 1., 4., 11., 4., 2., 5., 1., 3., 2., 1.,
          3., 3., 5., 1., 1., 2., 3., 3., 1. ]
      - [ 1., 2., 8., 1., 2., 0., 7., 6., 3., 4., 4., 2., 0., 2., 1., 4.,
          0., 2., 0., 5., 4., 0., 4., 5. ]
      - [ 1., 6., 7., 6., 1., 0., 2., 4., 1., 1., 4., 0., 2., 3., 0., 4.,
          0., 3., 0., 12., 0., 1., 3., 0. ]
      - [ 0., 2., 8., 3., 2., 2., 4., 4., 5., 2., 1., 0., 0., 3., 0., 3.,
          1., 4., 1., 5., 3., 6., 2., 1. ]
      - [ 4., 3., 1., 0., 0., 1., 0., 1., 0., 5., 3., 2., 4., 8., 1., 9.,
          3., 2., 3., 0., 1., 3., 6., 2. ]
      - [ 4., 3., 4., 1., 2., 0., 1., 4., 0., 2., 2., 0., 3., 2., 0., 1.,
          4., 8., 9., 2., 2., 3., 4., 3. ]
      - [ 14., 4., 1., 4., 3., 2., 4., 6., 4., 1., 0., 2., 0., 1., 0.,
          1., 0., 4., 0., 7., 0., 2., 2., 2. ]
      - [ 16., 5., 0., 2., 0., 4., 1., 3., 2., 1., 5., 0., 4., 0., 0.,
          1., 1., 6., 2., 2., 0., 0., 4., 4. ]
      - [ 0., 4., 10., 8., 1., 1., 0., 5., 2., 2., 1., 0., 2., 0., 3.,
          5., 2., 6., 3., 7., 0., 0., 2., 0. ]
      - [ 0., 2., 6., 1., 0., 2., 4., 3., 4., 1., 5., 0., 2., 3., 1., 2.,
          3., 3., 5., 11., 1., 2., 6., 1. ]
      - [ 1., 9., 9., 2., 1., 2., 4., 5., 1., 1., 1., 5., 1., 3., 5., 2.,
          1., 6., 1., 3., 0., 2., 3., 0. ]
      - [ 7., 1., 0., 0., 0., 3., 6., 6., 1., 4., 2., 5., 3., 4., 2., 0.,
          0., 0., 7., 0., 3., 3., 2., 6. ]
      - [ 1., 2., 5., 2., 4., 6., 0., 1., 3., 1., 1., 5., 2., 2., 3., 5.,
          2., 1., 3., 3., 2., 1., 4., 1. ]
      - [ 3., 0., 1., 9., 7., 5., 1., 3., 2., 2., 2., 3., 2., 1., 0., 2.,
          1., 0., 4., 0., 3., 2., 3., 8. ]
      - [ 5., 1., 1., 1., 1., 4., 8., 5., 0., 2., 3., 2., 5., 2., 0., 0.,
          1., 1., 7., 1., 2., 3., 2., 2. ]
      - [ 0., 3., 2., 2., 6., 3., 1., 1., 3., 6., 3., 2., 1., 3., 4., 0.,
          4., 2., 3., 4., 1., 5., 7., 2. ]
      - [ 2., 2., 2., 8., 5., 1., 2., 7., 0., 2., 2., 3., 2., 1., 2., 5.,
          1., 5., 1., 4., 4., 1., 3., 3. ]
      - [ 1., 2., 1., 2., 2., 3., 2., 3., 2., 3., 9., 0., 1., 4., 3., 1.,
          1., 1., 4., 1., 3., 4., 2., 6. ]
      - [ 11., 0., 1., 0., 0., 4., 3., 2., 1., 5., 3., 2., 15., 4., 1.,
          1., 0., 0., 2., 0., 1., 7., 1., 0. ]
      - [ 0., 1., 5., 1., 3., 2., 5., 4., 6., 2., 3., 1., 0., 0., 1., 4.,
          2., 4., 1., 10., 3., 1., 4., 5. ]
      - [ 5., 3., 4., 3., 3., 1., 1., 4., 3., 5., 3., 2., 2., 5., 2., 5.,
          1., 3., 4., 1., 0., 3., 0., 3. ]
      - [ 0., 3., 5., 3., 1., 4., 2., 5., 3., 2., 0., 1., 1., 1., 4., 2.,
          2., 6., 1., 7., 2., 1., 4., 1. ]
      - [ 5., 3., 1., 1., 1., 1., 5., 2., 4., 2., 3., 1., 1., 4., 0., 4.,
          0., 4., 4., 0., 0., 5., 8., 5. ]
      - [ 1., 0., 2., 4., 0., 0., 1., 2., 1., 1., 3., 5., 3., 0., 1., 2.,
          2., 2., 2., 1., 2., 3., 4., 3. ]
      - [ 8., 0., 0., 3., 0., 8., 2., 4., 2., 2., 1., 3., 3., 2., 0., 1.,
          0., 1., 2., 2., 6., 4., 5., 1. ]
      - [ 0., 2., 4., 8., 0., 4., 3., 7., 1., 1., 3., 1., 1., 0., 2., 1.,
          0., 5., 7., 3., 1., 3., 2., 4. ]
      - [ 3., 1., 2., 0., 3., 0., 0., 2., 3., 2., 8., 5., 7., 3., 3., 3.,
          0., 1., 9., 0., 2., 6., 0., 1. ]
      - [ 2., 1., 3., 2., 4., 3., 4., 1., 0., 2., 5., 3., 1., 5., 3., 1.,
          5., 1., 3., 4., 3., 0., 3., 4. ]
      - [ 3., 0., 4., 0., 0., 4., 0., 9., 1., 11., 0., 0., 2., 2., 3.,
          5., 6., 4., 0., 4., 1., 1., 1., 3. ]
      - [ 7., 5., 0., 1., 3., 4., 4., 9., 0., 4., 2., 2., 0., 0., 2., 2.,
          1., 3., 1., 1., 1., 2., 3., 2. ]
      - [ 4., 2., 0., 6., 5., 2., 0., 1., 2., 2., 1., 11., 0., 0., 2.,
          5., 5., 0., 6., 1., 1., 4., 0., 3. ]
      - [ 0., 2., 11., 0., 0., 1., 0., 0., 8., 3., 4., 0., 0., 0., 2.,
          7., 2., 5., 0., 14., 4., 0., 2., 3. ]
      - [ 6., 2., 1., 4., 0., 0., 3., 1., 0., 1., 3., 3., 1., 5., 4., 4.,
          4., 13., 3., 0., 3., 1., 0., 4. ]
      - [ 9., 2., 2., 1., 0., 3., 6., 2., 1., 2., 5., 7., 4., 2., 5., 1.,
          3., 2., 5., 0., 1., 4., 0., 1. ]
      - [ 3., 0., 1., 9., 1., 1., 0., 2., 2., 2., 0., 12., 2., 0., 2.,
          6., 9., 4., 2., 2., 1., 1., 1., 3. ]
      - [ 7., 1., 3., 4., 3., 0., 0., 1., 2., 2., 3., 5., 0., 0., 4., 9.,
          3., 2., 7., 4., 2., 2., 0., 3. ]
      - [ 3., 2., 4., 0., 2., 1., 2., 2., 4., 1., 5., 3., 0., 3., 1., 6.,
          1., 10., 2., 10., 3., 1., 2., 0. ]
      - [ 0., 5., 1., 4., 1., 1., 3., 3., 2., 1., 2., 1., 1., 5., 5., 2.,
          5., 1., 7., 1., 1., 1., 3., 4. ]
      - [ 3., 0., 6., 1., 1., 4., 3., 2., 1., 2., 0., 0., 2., 2., 0., 3.,
          0., 2., 2., 1., 2., 4., 3., 1. ]
      - [ 6., 2., 2., 0., 1., 0., 0., 4., 3., 5., 3., 6., 4., 2., 0., 3.,
          6., 5., 1., 1., 2., 0., 1., 3. ]
      - [ 0., 15., 5., 0., 0., 2., 15., 7., 1., 3., 0., 0., 0., 1., 0.,
          0., 1., 3., 0., 1., 0., 0., 10., 0. ]
      - [ 5., 1., 0., 3., 2., 5., 3., 2., 2., 3., 3., 1., 4., 4., 1., 0.,
          0., 0., 6., 0., 1., 7., 5., 2. ]
      - [ 8., 7., 4., 1., 1., 4., 1., 3., 1., 6., 2., 1., 2., 1., 0., 7.,
          3., 3., 1., 2., 1., 3., 1., 5. ]
      - [ 5., 7., 7., 1., 4., 3., 2., 4., 3., 1., 1., 0., 0., 3., 5., 1.,
          3., 2., 0., 5., 1., 4., 3., 3. ]
      - [ 7., 1., 4., 0., 1., 0., 0., 0., 5., 10., 1., 4., 5., 0., 2.,
          2., 4., 2., 4., 4., 0., 1., 0., 1. ]
      - [ 6., 11., 0., 2., 6., 2., 1., 9., 2., 0., 3., 1., 2., 3., 2.,
          2., 1., 1., 0., 1., 1., 6., 3., 3. ]
      - [ 4., 3., 2., 3., 4., 0., 5., 3., 4., 2., 3., 2., 1., 3., 6., 3.,
          3., 3., 0., 8., 1., 2., 2., 1. ]
      - [ 0., 0., 4., 2., 2., 2., 3., 4., 2., 5., 3., 0., 1., 3., 1., 3.,
          4., 9., 1., 7., 2., 2., 3., 5. ]
      - [ 10., 1., 4., 0., 3., 1., 0., 1., 4., 9., 1., 2., 6., 0., 3.,
          5., 2., 1., 2., 2., 1., 0., 3., 3. ]
      - [ 12., 3., 0., 1., 1., 2., 4., 2., 0., 2., 1., 1., 4., 3., 0.,
          4., 3., 0., 3., 2., 7., 2., 7., 0. ]
      - [ 2., 4., 4., 2., 2., 0., 1., 5., 1., 1., 5., 6., 0., 0., 4., 2.,
          6., 5., 3., 6., 2., 0., 2., 1. ]
      - [ 6., 2., 3., 1., 7., 3., 3., 0., 2., 5., 1., 1., 1., 0., 2., 3.,
          3., 2., 2., 4., 4., 3., 3., 3. ]
      - [ 1., 6., 4., 7., 4., 2., 2., 7., 2., 4., 2., 1., 0., 3., 2., 0.,
          1., 3., 2., 0., 2., 3., 2., 2. ]
      - [ 4., 1., 2., 4., 3., 3., 1., 2., 1., 6., 3., 1., 1., 2., 2., 1.,
          2., 3., 6., 3., 2., 2., 3., 10. ]
      - [ 1., 2., 2., 2., 1., 3., 2., 2., 1., 3., 4., 1., 0., 4., 3., 1.,
          1., 4., 9., 2., 1., 4., 1., 8. ]
      - [ 3., 7., 1., 9., 1., 0., 1., 1., 5., 1., 3., 0., 4., 1., 1., 1.,
          2., 12., 3., 1., 0., 1., 1., 0. ]
      - [ 2., 2., 3., 0., 2., 4., 6., 10., 1., 5., 0., 3., 0., 7., 3.,
          3., 1., 2., 5., 1., 1., 4., 1., 1. ]
      - [ 0., 4., 4., 2., 1., 0., 2., 3., 4., 4., 2., 1., 1., 1., 5., 1.,
          4., 8., 2., 3., 2., 2., 2., 4. ]
      - [ 0., 2., 1., 6., 1., 3., 1., 4., 2., 3., 4., 1., 1., 0., 1., 9.,
          0., 4., 2., 1., 0., 6., 5., 6. ]
      - [ 6., 4., 1., 2., 0., 0., 1., 1., 2., 6., 5., 0., 2., 2., 0., 0.,
          1., 5., 3., 1., 2., 10., 0., 5. ]
      - [ 4., 0., 0., 3., 1., 5., 2., 1., 0., 1., 5., 5., 0., 4., 3., 2.,
          0., 0., 11., 0., 0., 3., 5., 9. ]
      - [ 0., 8., 10., 0., 4., 1., 6., 11., 1., 2., 0., 0., 1., 2., 0.,
          2., 2., 4., 1., 4., 0., 0., 0., 0. ]
      - [ 0., 5., 5., 2., 5., 2., 4., 5., 2., 4., 5., 0., 0., 6., 1., 1.,
          1., 2., 4., 0., 2., 3., 2., 1. ]
      - [ 0., 2., 1., 4., 2., 2., 2., 0., 0., 0., 8., 3., 2., 3., 4., 3.,
          0., 0., 4., 2., 3., 4., 5., 5. ]
      - [ 2., 2., 0., 1., 5., 8., 4., 8., 0., 8., 5., 4., 0., 2., 0., 1.,
          0., 0., 1., 0., 0., 6., 0., 2. ]
      - [ 6., 2., 2., 0., 0., 3., 2., 3., 2., 2., 1., 0., 2., 3., 2., 0.,
          1., 1., 6., 0., 3., 8., 3., 3. ]
      - [ 1., 1., 0., 2., 1., 4., 2., 4., 1., 0., 4., 5., 6., 4., 3., 2.,
          5., 3., 4., 0., 3., 0., 1., 3. ]
      - [ 0., 3., 3., 4., 1., 3., 5., 9., 1., 7., 3., 1., 1., 4., 2., 1.,
          0., 2., 0., 3., 0., 3., 2., 1. ]
      - [ 2., 6., 3., 6., 3., 0., 3., 0., 5., 9., 2., 0., 2., 3., 2., 2.,
          1., 3., 0., 2., 6., 1., 1., 2. ]
      - [ 1., 5., 4., 0., 0., 1., 6., 2., 2., 5., 2., 2., 2., 2., 3., 2.,
          0., 3., 3., 1., 9., 5., 4., 1. ]
      - [ 2., 1., 0., 1., 1., 5., 3., 2., 2., 2., 1., 0., 0., 4., 0., 3.,
          2., 3., 13., 0., 4., 7., 3., 3. ]
      - [ 2., 3., 3., 3., 0., 0., 2., 8., 2., 6., 6., 0., 2., 0., 2., 2.,
          0., 3., 2., 3., 2., 6., 5., 5. ]
      - [ 11., 1., 0., 4., 2., 3., 1., 6., 1., 5., 1., 2., 4., 2., 1.,
          2., 0., 0., 6., 0., 3., 10., 0., 3. ]
      - [ 1., 2., 2., 6., 1., 2., 3., 5., 0., 4., 2., 5., 2., 8., 3., 1.,
          1., 2., 2., 0., 3., 4., 0., 1. ]
      - [ 1., 5., 5., 5., 2., 3., 0., 5., 1., 7., 4., 1., 0., 3., 4., 0.,
          2., 4., 2., 3., 1., 4., 0., 2. ]
      - [ 2., 8., 6., 0., 0., 0., 4., 1., 1., 9., 2., 0., 1., 0., 4., 1.,
          1., 1., 4., 2., 3., 9., 0., 0. ]
      - [ 2., 2., 0., 1., 6., 6., 1., 10., 0., 7., 5., 1., 1., 4., 2.,
          0., 0., 2., 4., 0., 2., 2., 2., 2. ]
      - [ 1., 1., 6., 2., 3., 1., 1., 1., 0., 2., 10., 0., 3., 5., 3.,
          1., 0., 3., 3., 0., 3., 3., 3., 4. ]
      - [ 1., 1., 2., 7., 10., 4., 3., 0., 1., 0., 5., 2., 0., 2., 4.,
          2., 8., 2., 1., 0., 4., 1., 1., 3. ]
      - [ 2., 2., 6., 1., 2., 1., 5., 0., 1., 1., 0., 0., 7., 1., 2., 7.,
          1., 7., 0., 9., 1., 0., 2., 1. ]
      - [ 1., 2., 3., 1., 0., 9., 2., 7., 2., 2., 2., 0., 8., 2., 0., 0.,
          0., 6., 2., 0., 3., 3., 4., 3. ]
      - [ 7., 4., 2., 2., 0., 3., 1., 5., 4., 5., 1., 4., 5., 2., 1., 4.,
          1., 2., 6., 1., 3., 2., 1., 2. ]
      - [ 5., 1., 1., 1., 0., 3., 1., 1., 5., 2., 1., 8., 9., 1., 2., 6.,
          1., 0., 5., 0., 3., 2., 4., 2. ]
      - [ 0., 5., 2., 1., 1., 2., 2., 3., 0., 10., 2., 1., 3., 0., 3.,
          1., 0., 4., 5., 3., 0., 2., 6., 3. ]
      - [ 7., 0., 2., 1., 1., 3., 1., 4., 2., 4., 8., 1., 1., 2., 2., 3.,
          0., 0., 3., 2., 4., 1., 2., 5. ]
      - [ 3., 1., 4., 1., 2., 2., 3., 2., 1., 1., 3., 2., 0., 4., 3., 3.,
          2., 2., 5., 3., 3., 1., 0., 2. ]
      - [ 0., 4., 3., 1., 1., 3., 4., 3., 4., 2., 2., 1., 3., 4., 4., 7.,
          2., 0., 2., 4., 2., 1., 1., 1. ]
      - [ 4., 4., 1., 3., 0., 1., 2., 4., 4., 0., 5., 5., 0., 2., 1., 3.,
          1., 0., 7., 0., 1., 5., 0., 6. ]
      - [ 3., 0., 1., 2., 2., 2., 2., 0., 2., 5., 4., 0., 1., 3., 2., 4.,
          4., 2., 0., 0., 4., 2., 2., 6. ]
      - [ 3., 10., 4., 1., 3., 1., 0., 2., 1., 6., 3., 0., 0., 0., 1.,
          0., 4., 8., 1., 13., 2., 0., 0., 1. ]
      - [ 7., 0., 0., 6., 0., 3., 0., 1., 1., 6., 1., 1., 11., 2., 2.,
          5., 2., 2., 13., 0., 0., 4., 0., 1. ]
      - [ 5., 1., 1., 1., 2., 3., 1., 1., 4., 7., 3., 1., 2., 6., 1., 2.,
          7., 4., 4., 1., 1., 1., 0., 0. ]
      - [ 6., 1., 0., 0., 0., 1., 1., 1., 2., 0., 2., 16., 6., 0., 0.,
          4., 12., 0., 2., 1., 2., 2., 1., 2. ]
      - [ 4., 2., 1., 6., 3., 1., 1., 4., 2., 1., 3., 5., 2., 2., 0., 4.,
          0., 3., 11., 1., 5., 2., 0., 1. ]
      - [ 0., 4., 2., 0., 1., 5., 0., 3., 1., 2., 1., 4., 2., 1., 2., 5.,
          7., 5., 4., 2., 3., 0., 5., 0. ]
      - [ 5., 1., 2., 8., 0., 0., 3., 0., 0., 6., 2., 4., 4., 5., 1., 3.,
          3., 3., 4., 2., 2., 3., 2., 1. ]
      - [ 3., 4., 1., 1., 2., 1., 1., 2., 4., 2., 5., 1., 1., 0., 3., 5.,
          0., 1., 2., 5., 1., 5., 2., 1. ]
      - [ 7., 1., 4., 5., 1., 0., 1., 0., 0., 6., 1., 5., 1., 3., 1., 2.,
          0., 1., 5., 1., 0., 6., 0., 2. ]
      - [ 0., 4., 5., 1., 6., 3., 2., 5., 2., 1., 0., 0., 1., 2., 4., 4.,
          0., 5., 0., 5., 3., 2., 2., 7. ]
      - [ 7., 0., 0., 4., 1., 0., 0., 0., 2., 5., 0., 6., 9., 2., 2., 9.,
          1., 1., 0., 0., 0., 4., 0., 0. ]
      - [ 0., 1., 3., 4., 3., 1., 0., 0., 0., 0., 4., 8., 1., 2., 2., 1.,
          7., 1., 4., 2., 4., 1., 3., 1. ]
      - [ 1., 3., 1., 3., 4., 0., 4., 1., 0., 3., 4., 1., 1., 3., 3., 6.,
          1., 6., 4., 1., 3., 3., 1., 9. ]
      - [ 0., 1., 9., 3., 1., 2., 1., 2., 1., 3., 4., 0., 0., 3., 0., 5.,
          2., 3., 2., 8., 1., 0., 6., 2. ]
      - [ 3., 5., 5., 2., 2., 7., 1., 4., 3., 3., 1., 1., 2., 5., 2., 4.,
          1., 1., 2., 0., 7., 3., 1., 1. ]
      - [ 0., 5., 0., 4., 6., 0., 2., 7., 0., 2., 4., 2., 2., 2., 1., 0.,
          2., 2., 1., 1., 9., 4., 1., 11. ]
      - [ 4., 2., 1., 0., 3., 1., 0., 2., 1., 9., 0., 6., 3., 3., 1., 1.,
          6., 1., 7., 1., 2., 1., 2., 0. ]
      - [ 3., 5., 3., 3., 5., 0., 3., 1., 3., 2., 5., 0., 2., 0., 5., 4.,
          2., 0., 0., 5., 4., 0., 2., 2. ]
      - [ 2., 0., 3., 2., 6., 2., 0., 0., 3., 2., 6., 1., 6., 0., 2., 7.,
          13., 2., 0., 4., 1., 0., 0., 2. ]
      - [ 0., 1., 0., 2., 3., 2., 2., 2., 3., 0., 5., 8., 2., 1., 2., 3.,
          3., 2., 4., 1., 3., 2., 0., 8. ]
      - [ 7., 7., 1., 3., 4., 0., 3., 7., 3., 1., 1., 2., 1., 2., 1., 4.,
          2., 2., 0., 5., 5., 1., 1., 0. ]
      - [ 0., 0., 0., 5., 6., 1., 1., 1., 2., 1., 7., 4., 1., 3., 8., 2.,
          1., 2., 1., 2., 3., 1., 1., 0. ]
      - [ 1., 0., 2., 1., 3., 3., 0., 3., 0., 2., 7., 4., 0., 1., 1., 2.,
          5., 12., 0., 4., 1., 1., 1., 5. ]
      - [ 0., 1., 0., 5., 3., 2., 0., 1., 0., 2., 1., 3., 2., 0., 4., 4.,
          8., 4., 3., 1., 4., 4., 0., 1. ]
      - [ 2., 4., 2., 1., 0., 0., 0., 4., 5., 9., 0., 2., 1., 3., 1., 1.,
          2., 0., 3., 1., 8., 1., 0., 0. ]
      - [ 2., 2., 2., 0., 4., 1., 2., 8., 2., 4., 5., 1., 1., 2., 3., 0.,
          2., 8., 0., 6., 1., 0., 3., 2. ]
      - [ 7., 0., 3., 2., 2., 2., 2., 2., 5., 1., 6., 3., 1., 2., 4., 0.,
          2., 4., 2., 0., 5., 5., 2., 6. ]
      - [ 5., 1., 4., 1., 2., 1., 0., 2., 2., 4., 4., 3., 9., 3., 2., 3.,
          1., 2., 1., 0., 4., 4., 1., 0. ]
      - [ 2., 6., 2., 1., 0., 2., 0., 5., 3., 4., 0., 1., 2., 5., 0., 8.,
          7., 2., 1., 0., 2., 2., 0., 4. ]
      - [ 7., 0., 0., 2., 0., 1., 1., 0., 2., 10., 2., 0., 1., 5., 0.,
          3., 13., 3., 1., 5., 1., 3., 0., 4. ]
      - [ 1., 4., 6., 3., 1., 1., 2., 1., 2., 3., 1., 1., 2., 2., 4., 1.,
          3., 7., 2., 9., 2., 0., 1., 0. ]
      - [ 8., 2., 1., 3., 0., 0., 0., 8., 2., 2., 1., 7., 6., 3., 1., 1.,
          5., 3., 2., 2., 0., 2., 3., 2. ]
      - [ 5., 6., 1., 0., 5., 0., 1., 5., 0., 2., 9., 5., 7., 2., 0., 3.,
          3., 0., 1., 1., 4., 4., 0., 0. ]
      - [ 2., 1., 4., 1., 0., 2., 0., 3., 7., 1., 1., 3., 7., 0., 3., 5.,
          10., 5., 7., 0., 1., 4., 1., 0. ]
      - [ 0., 1., 3., 0., 2., 2., 2., 3., 0., 1., 3., 4., 2., 2., 8., 8.,
          6., 4., 5., 5., 0., 3., 4., 0. ]
      - [ 11., 0., 0., 1., 1., 4., 1., 0., 2., 3., 2., 13., 2., 1., 1.,
          4., 5., 0., 3., 0., 1., 2., 0., 2. ]
      - [ 1., 1., 7., 3., 2., 1., 1., 0., 1., 1., 2., 1., 4., 4., 1., 9.,
          2., 5., 6., 6., 4., 2., 1., 3. ]
      - [ 2., 5., 2., 0., 4., 2., 12., 7., 0., 1., 5., 0., 0., 4., 2.,
          0., 0., 2., 1., 4., 2., 0., 3., 10. ]
      - [ 10., 5., 4., 0., 2., 0., 5., 2., 2., 1., 3., 4., 0., 2., 1.,
          6., 0., 10., 1., 6., 2., 0., 1., 1. ]
      - [ 2., 4., 8., 1., 4., 2., 3., 2., 3., 2., 3., 1., 3., 1., 0., 1.,
          3., 7., 0., 9., 1., 2., 1., 1. ]
      - [ 0., 0., 3., 2., 7., 4., 0., 2., 5., 4., 2., 4., 2., 0., 4., 2.,
          6., 1., 8., 0., 1., 2., 1., 4. ]
      - [ 3., 6., 7., 3., 0., 1., 1., 6., 1., 1., 2., 2., 0., 4., 2., 5.,
          0., 2., 2., 9., 1., 2., 4., 4. ]
      - [ 2., 4., 6., 0., 4., 0., 4., 7., 4., 1., 2., 0., 0., 0., 1., 0.,
          0., 8., 0., 15., 0., 0., 9., 1. ]
      - [ 2., 5., 9., 1., 1., 0., 3., 3., 7., 1., 1., 0., 0., 2., 1., 3.,
          1., 10., 0., 8., 0., 4., 4., 2. ]
      - [ 4., 7., 5., 0., 2., 2., 2., 5., 6., 3., 1., 2., 4., 4., 0., 2.,
          3., 4., 0., 3., 0., 1., 4., 4. ]
      - [ 7., 2., 5., 4., 0., 4., 1., 1., 2., 3., 4., 1., 4., 3., 4., 2.,
          5., 3., 4., 2., 3., 2., 1., 1. ]
      - [ 2., 1., 4., 0., 2., 2., 3., 0., 9., 3., 1., 2., 2., 4., 5., 3.,
          2., 2., 4., 1., 2., 5., 2., 3. ]
      - [ 0., 0., 0., 2., 3., 2., 1., 2., 1., 3., 3., 5., 1., 3., 3., 7.,
          5., 2., 2., 5., 1., 5., 9., 3. ]
      - [ 2., 8., 5., 4., 1., 2., 0., 9., 4., 4., 2., 1., 0., 1., 3., 2.,
          8., 6., 0., 3., 0., 0., 2., 1. ]
      - [ 11., 1., 1., 3., 1., 0., 0., 4., 2., 10., 5., 3., 5., 1., 2.,
          3., 2., 6., 0., 3., 1., 0., 0., 4. ]
      - [ 3., 2., 4., 2., 2., 6., 3., 3., 3., 2., 6., 1., 0., 2., 6., 7.,
          0., 2., 4., 0., 3., 2., 0., 5. ]
      - [ 5., 0., 3., 0., 3., 5., 1., 2., 8., 0., 6., 2., 1., 3., 2., 3.,
          0., 1., 3., 1., 3., 5., 0., 11. ]
      - [ 4., 1., 0., 3., 1., 7., 2., 1., 2., 2., 1., 8., 5., 1., 0., 8.,
          1., 0., 8., 0., 3., 3., 1., 2. ]
      - [ 1., 3., 1., 2., 5., 3., 3., 2., 4., 2., 3., 1., 2., 3., 1., 6.,
          3., 1., 4., 2., 4., 3., 5., 4. ]
      - [ 1., 2., 1., 6., 5., 2., 0., 2., 3., 3., 6., 8., 3., 1., 5., 3.,
          3., 0., 3., 0., 3., 1., 0., 3. ]
      - [ 1., 6., 1., 5., 2., 0., 2., 6., 2., 0., 3., 0., 1., 1., 3., 2.,
          0., 9., 3., 3., 2., 3., 4., 9. ]
      - [ 11., 5., 8., 4., 2., 3., 0., 2., 3., 2., 6., 0., 2., 1., 1.,
          1., 0., 1., 1., 6., 3., 5., 1., 0. ]
      - [ 3., 9., 5., 2., 3., 0., 1., 2., 1., 4., 1., 1., 1., 2., 2., 5.,
          1., 8., 0., 4., 3., 3., 3., 4. ]
      - [ 5., 2., 2., 0., 3., 4., 1., 4., 2., 3., 7., 0., 4., 0., 7., 4.,
          2., 2., 1., 8., 1., 2., 2., 2. ]
      - [ 4., 1., 2., 3., 5., 0., 1., 2., 0., 1., 6., 3., 6., 2., 7., 3.,
          2., 2., 7., 0., 1., 5., 0., 1. ]
      - [ 1., 2., 2., 3., 6., 4., 3., 1., 4., 6., 3., 4., 1., 3., 3., 1.,
          0., 6., 4., 5., 2., 1., 0., 1. ]
      - [ 9., 2., 2., 1., 0., 6., 2., 0., 4., 4., 4., 2., 1., 4., 3., 4.,
          2., 3., 2., 1., 2., 0., 4., 6. ]
      - [ 0., 1., 3., 1., 3., 3., 4., 1., 3., 4., 6., 3., 3., 5., 2., 4.,
          0., 5., 2., 4., 1., 3., 3., 4. ]
      - [ 5., 4., 10., 0., 2., 2., 4., 4., 1., 3., 7., 0., 2., 3., 5.,
          1., 0., 5., 0., 4., 1., 0., 4., 1. ]
      - [ 4., 0., 0., 3., 1., 2., 3., 0., 8., 0., 1., 5., 1., 2., 3.,
          12., 0., 0., 2., 8., 6., 2., 2., 3. ]
      - [ 3., 1., 3., 2., 2., 1., 1., 4., 5., 3., 6., 2., 1., 7., 0., 3.,
          6., 3., 1., 4., 5., 3., 2., 0. ]
      - [ 6., 4., 5., 5., 3., 0., 0., 7., 3., 2., 0., 3., 1., 2., 2., 3.,
          2., 13., 2., 1., 0., 1., 2., 1. ]
      - [ 7., 1., 3., 1., 3., 1., 1., 4., 1., 3., 3., 2., 5., 11., 3.,
          2., 3., 1., 2., 0., 1., 4., 2., 4. ]
      - [ 0., 4., 6., 6., 1., 3., 4., 4., 7., 1., 1., 2., 1., 1., 3., 8.,
          0., 4., 2., 2., 3., 0., 1., 4. ]
      - [ 0., 10., 8., 2., 0., 5., 1., 6., 2., 1., 1., 0., 2., 8., 1.,
          4., 2., 5., 1., 1., 1., 3., 3., 0. ]
      - [ 3., 0., 0., 5., 2., 4., 1., 2., 3., 3., 3., 7., 5., 2., 1., 0.,
          2., 4., 6., 3., 3., 0., 1., 8. ]
      - [ 2., 5., 6., 5., 2., 1., 1., 4., 2., 0., 3., 1., 0., 3., 2., 2.,
          3., 8., 1., 10., 2., 3., 1., 1. ]
      - [ 3., 1., 2., 5., 2., 1., 2., 3., 2., 0., 6., 3., 4., 3., 0., 9.,
          1., 4., 3., 3., 3., 3., 1., 4. ]
      - [ 0., 2., 4., 1., 3., 1., 1., 3., 2., 4., 3., 1., 3., 6., 4., 6.,
          4., 1., 2., 3., 1., 2., 4., 3. ]
      - [ 7., 0., 2., 4., 1., 2., 0., 2., 1., 7., 8., 5., 2., 1., 4., 1.,
          1., 8., 2., 1., 3., 0., 1., 3. ]
      - [ 9., 1., 0., 1., 2., 5., 1., 4., 4., 0., 3., 4., 4., 1., 2., 6.,
          2., 0., 15., 0., 2., 1., 0., 1. ]
      - [ 1., 0., 9., 1., 2., 3., 1., 6., 3., 2., 1., 3., 2., 0., 11.,
          2., 0., 7., 3., 8., 2., 1., 0., 0. ]
      - [ 1., 4., 3., 1., 2., 4., 2., 2., 1., 2., 6., 2., 0., 6., 2., 2.,
          1., 0., 0., 5., 4., 3., 12., 2. ]
   decision_functions:
      -
         sv_count: 110
         rho: -7.3940509949046600e+00
         alpha: [ 50., 50., 50., 50., 1.9318055724654233e+01, 50., 50.,
             3.8169686629318292e+01, 50., 50., 50., 50., 50., 50., 50.,
             50., 50., 50., 50., 4.1553694110544548e+01, 50., 50., 50.,
             50., 50., 6.4068528338652664e+00, 50., 50.,
             1.0258516136318406e+01, 50., 1.5603871132962826e+01, 50.,
             50., 2.0520222929166017e+00, 50., 8.6324294511416255e+00,
             4.5352300100915592e+01, 50., 7.6230931259710744e+00,
             4.4562486019656035e+01, 4.9569474250491169e+01, 50.,
             3.1018283652605543e+01, 4.9912031300346902e+00, 50.,
             1.8769582204767481e+01, 4.4628841483696164e+01,
             1.6333783556786194e+01, 50., 50., 50., 50., 50., 50., 50.,
             3.6936802919807057e+01, 1.7045312460995156e+01, -50., -50.,
             -50., -50., -50., -50., -2.5504174785529785e+00,
             -3.9397344069984861e+01, -50., -50., -50., -50., -50.,
             -4.4854561517903051e+01, -50., -1.5051893752033658e+01,
             -50., -2.3854142891720990e+01, -50., -50.,
             -3.6469259580531656e+01, -4.1372984481606132e+01, -50.,
             -4.6327554126650575e+01, -50., -50.,
             -3.9477839276275319e+01, -50., -4.3390576610323834e+01,
             -50., -50., -50., -50., -50., -50., -50., -50., -50.,
             -1.2043133977923247e+01, -50., -50., -50.,
             -4.6717286574215109e+01, -50., -50., -50.,
             -3.1168012249856867e+00, -50., -50., -50.,
             -1.4202495654740828e+01, -50., -50. ]
         index: [ 0, 1, 2, 4, 5, 6, 7, 8, 10, 11, 12, 13, 14, 15, 16, 17,
             18, 20, 21, 23, 24, 25, 28, 29, 30, 31, 32, 33, 34, 35, 37,
             38, 40, 41, 42, 43, 45, 46, 47, 48, 49, 50, 51, 52, 55, 58,
             60, 61, 62, 63, 64, 65, 67, 68, 69, 71, 72, 74, 75, 76, 77,
             79, 80, 81, 84, 85, 88, 89, 90, 91, 93, 96, 97, 100, 101,
             102, 104, 105, 106, 107, 108, 109, 110, 111, 112, 113, 114,
             117, 118, 119, 120, 122, 123, 124, 125, 126, 127, 128, 130,
             131, 132, 133, 134, 135, 138, 139, 140, 142, 143, 146 ]
      -
         sv_count: 78
         rho: 2.2884444604698526e+00
         alpha: [ 50., 50., 2.2038452541738717e+01,
             3.6943456698729662e+01, 3.2306975473511372e+01,
             4.8086592775685455e+00, 50., 50., 50.,
             3.6684998736936876e+01, 1.6162363048556507e+01,
             4.9058302780630193e+01, 50., 1.9653553162169580e+01,
             4.6875038803089950e+01, 3.3204550031424368e+01,
             2.0310684418114441e+01, 50., 50., 50.,
             3.0983221518685895e+01, 50., 50., 1.7939679246687188e+01,
             7.2099726204213610e+00, 2.7442304921088841e+01, 50.,
             1.3683249429192140e+01, 1.1473511593926183e+01, 50.,
             1.4692100767751811e+01, 4.0358814283237379e+01,
             1.3674750574418164e+01, 2.2895846245427992e-01, 50.,
             4.7272237937417110e+01, 50., 2.4374463147297437e+01, -50.,
             -3.0233686341761246e+01, -50., -4.2280756578973815e+01,
             -50., -50., -3.2252302315805558e+01,
             -3.4976690435494639e+01, -1.5104084627731110e+01, -50.,
             -4.9827300813882580e+01, -50., -1.7233784680501554e+01,
             -1.7633567339993508e+01, -50., -1.2604102815071059e+01,
             -50., -50., -3.0826238297829796e+01,
             -1.6092985283233581e+01, -2.0091704922100078e+01,
             -2.1308059698604072e+01, -1.5386044811423796e+01,
             -2.1762333055001672e+01, -7.3332656721676512e+00,
             -2.9103327973839562e+01, -3.0171850539920619e+01,
             -4.1568555255524920e+01, -50., -4.2625797400346102e+01,
             -1.3598126655101675e+01, -50., -50., -50.,
             -3.0485532663926932e+01, -1.7551613542635053e+01,
             -2.0203006778291317e+00, -50., -5.2889271123197572e+00,
             -2.0019359964028499e+01 ]
         index: [ 0, 1, 5, 6, 7, 8, 9, 12, 13, 14, 15, 16, 17, 19, 20,
             27, 28, 29, 30, 31, 32, 33, 34, 35, 36, 45, 49, 51, 53, 54,
             55, 56, 57, 66, 67, 69, 71, 73, 147, 149, 150, 152, 154,
             155, 157, 158, 161, 162, 163, 164, 165, 166, 168, 170, 171,
             172, 173, 174, 175, 178, 179, 180, 181, 183, 185, 186, 188,
             190, 192, 193, 194, 195, 196, 198, 199, 200, 201, 202 ]
      -
         sv_count: 99
         rho: 4.0938025544765120e+00
         alpha: [ 50., 50., 1.3655797557961206e+01,
             4.9738464172622088e+00, 50., 50., 50.,
             1.4653404227504957e+01, 1.4032348280119509e+01, 50.,
             9.1745246940695246e-01, 4.9899525533530685e+01, 50., 50.,
             4.7173373482376810e+01, 50., 50., 50.,
             2.1256333717578983e+01, 3.2241177983355357e+01,
             9.5656514925535774e+00, 50., 50., 50., 50., 50., 50., 50.,
             2.8281566461169788e+01, 3.4439191094910477e+01,
             2.3372763953320248e+01, 4.7209855377909058e+00,
             1.1051650650664854e+01, 50., 2.5845707038379562e+01, 50.,
             50., 5.4273375406442019e+00, 50., 4.1977015675869410e+01,
             1.7311545309528366e+01, 50., 7.0618079478183269e+00,
             3.4283664108138133e+01, 50., 1.6707719101731904e+01, 50.,
             1.4938985773397738e+01, -1.6660789970530583e+01, -50.,
             -3.2180219178820536e+01, -50., -5.8043866694748489e+00,
             -4.7627337071549285e+01, -4.2220985263207744e+01,
             -8.9147702612590827e+00, -4.9931009007772630e+01,
             -1.9096178216634833e+01, -50., -2.0219799617316433e+01,
             -50., -4.4507291870273505e+01, -1.8997805092673381e+01,
             -50., -1.6055908538542251e+01, -9.7680690908202550e+00,
             -4.4844366386456855e+01, -1.5838572839685700e+01, -50.,
             -5.8076071647933594e+00, -50., -50., -50.,
             -1.5590277302521773e+01, -9.1805372640048546e+00, -50.,
             -50., -1.7128929107667666e+01, -3.4349925603649126e+01,
             -7.6709578059923196e+00, -50., -2.5953642975999667e+01,
             -3.6124592327268218e+01, -50., -50.,
             -1.7177677633356270e+00, -4.3054645945933366e+01, -50.,
             -2.4038974273695118e+01, -50., -50., -50., -50.,
             -1.2123535397343087e+01, -1.3662415807433677e+01, -50.,
             -2.9776200336543255e+01, -50., -4.9413532038151500e+00 ]
         index: [ 0, 1, 3, 4, 5, 6, 7, 8, 9, 10, 11, 12, 13, 14, 15, 16,
             17, 18, 20, 25, 26, 27, 28, 29, 30, 31, 32, 33, 34, 39, 41,
             44, 45, 46, 47, 49, 51, 53, 54, 55, 61, 62, 65, 66, 67, 68,
             69, 73, 203, 204, 205, 209, 210, 211, 214, 215, 216, 217,
             218, 219, 220, 221, 223, 224, 226, 227, 229, 231, 232, 233,
             234, 235, 236, 237, 239, 240, 241, 243, 245, 246, 247, 248,
             249, 252, 254, 255, 256, 258, 259, 260, 262, 263, 265, 266,
             270, 274, 275, 276, 277 ]
      -
         sv_count: 82
         rho: 1.9811861850683338e-01
         alpha: [ 50., 1.2997828128941544e+00, 4.0866043894851742e+01,
             4.1538328598341899e+01, 50., 50., 3.5919894585725757e+01,
             50., 4.2268117385236206e+00, 50., 1.8646150343987502e+00,
             50., 50., 50., 5.9156971744842259e+00,
             1.6972332358513824e+00, 2.4298919683141868e+01, 50.,
             2.8686567457230474e+01, 8.0720337859134386e+00,
             4.4252666276565471e+01, 3.9016912592598118e+01, 50.,
             3.1577607121879964e+01, 1.1219603809067561e+01, 50.,
             1.0664804303972748e+00, 50., 50., 50.,
             3.8121183188998124e+01, 50., 1.8638047222316608e+01,
             3.0108412854483602e-01, 50., 50., 1.9470784834693923e+01,
             50., 3.5517980880798220e+01, 50., 3.2633990442540330e+01,
             2.9180603260978593e+01, 50., 2.7226330340012922e+01,
             -1.5860446068934118e+01, -4.5815889049002273e+01, -50.,
             -50., -50., -50., -50., -7.1532917368021112e+00,
             -2.7591357739945876e-01, -6.6308401607709202e+00,
             -1.2722991883966989e+01, -4.7645539447395123e+01, -50.,
             -50., -50., -50., -4.6110931048493548e+01, -50.,
             -2.1823003557381515e+01, -50., -4.9864462987571287e+01,
             -50., -1.7850678854082545e+01, -50., -50.,
             -4.4292733264887623e+01, -50., -50.,
             -1.6913200122029998e+01, -3.8788206972762701e+01, -50.,
             -50., -50., -8.6107379926914085e-01, -50., -50., -50., -50. ]
         index: [ 0, 1, 2, 3, 5, 7, 8, 10, 12, 13, 14, 16, 17, 18, 19,
             21, 23, 25, 26, 27, 28, 29, 30, 31, 32, 33, 35, 37, 39, 44,
             47, 48, 51, 53, 54, 55, 59, 60, 61, 62, 63, 65, 67, 71, 279,
             280, 281, 282, 283, 284, 285, 286, 288, 289, 290, 291, 292,
             293, 294, 295, 296, 297, 298, 299, 300, 303, 304, 305, 306,
             307, 308, 309, 310, 311, 312, 313, 314, 315, 316, 317, 319,
             321 ]
      -
         sv_count: 56
         rho: 2.7141778991739727e-02
         alpha: [ 50., 2.4636382583815234e+01, 2.0625174455209365e+01,
             2.4077929858685827e+01, 2.5080175453758066e+01, 50., 50.,
             2.6176222527815117e+01, 9.5788687072145393e+00,
             2.1726403696073007e+01, 1.7842348331141498e+01,
             4.0350091377613850e+01, 1.2336429388689609e+00,
             3.3453409928161655e+01, 50., 3.0426854494791066e+01, 50.,
             4.5637481449367264e+01, 2.4121747630602766e+01,
             1.1897563977444360e+01, 1.0752136858154918e+01,
             1.6608004813102902e+01, 4.8371244301347858e+01,
             4.5232995069237738e+00, 8.6454153465793127e+00,
             1.9644315599618473e+01, 3.4517423392765828e+01,
             5.0501732887687858e+00, 2.0824117457401528e+01,
             -4.9788777104980021e+01, -3.9653021209114790e+01, -50.,
             -8.9426934408450123e+00, -2.3173086902671177e+01,
             -1.3932966338341275e+00, -4.1439800499576769e+01, -50.,
             -50., -3.9185645923057955e+01, -2.3189757542402734e+00,
             -2.4734328205394651e+00, -3.1745266755790340e+01,
             -3.8826039769508000e+01, -2.1304036412618679e+01,
             -2.7831557036632844e+01, -4.1055011370760958e+01, -50.,
             -1.4738999851608606e+01, -7.5896530826756079e+00,
             -1.0243959580417940e+01, -4.5522775303359303e+01,
             -2.9865194050137962e+00, -3.0169191153567880e+01,
             -4.6316198575226103e+01, -1.7483588143089765e+01,
             -3.1618901246096517e+01 ]
         index: [ 0, 1, 8, 12, 14, 16, 17, 18, 19, 20, 22, 25, 26, 27,
             29, 30, 31, 32, 39, 41, 44, 45, 49, 51, 53, 54, 67, 69, 70,
             323, 324, 325, 326, 327, 329, 330, 331, 332, 334, 335, 337,
             338, 339, 340, 341, 342, 345, 347, 350, 351, 354, 355, 356,
             359, 360, 363 ]
      -
         sv_count: 63
         rho: 7.7366581399010173e+00
         alpha: [ 3.0206716404281170e+01, 50., 50., 50., 50., 50.,
             2.6478057079376644e+01, 3.7601977608199121e+01, 50.,
             2.7660065395821167e+01, 50., 50., 2.2457160562163946e+01,
             50., 2.9765998777681574e+01, 1.4034297685097940e+01, 50.,
             4.2761384483439308e+01, 50., 50., 7.1868845670437143e+00,
             50., 4.1547691114600617e+01, 3.5396223586972198e+01, 50.,
             50., 4.0926282134501882e+01, -2.1194086658816587e+01, -50.,
             -50., -2.0408793059020422e+01, -50., -50.,
             -9.6012804883236704e+00, -1.6022361093205234e+01,
             -2.0656614384609821e+01, -50., -1.1282204307719896e+00,
             -1.5871194833483726e+00, -1.4569814991044288e+01,
             -1.2831107692959071e+01, -4.8902212679127949e+01,
             -3.0663787007081638e+01, -4.6024782090934913e+01,
             -1.5243122072373955e+01, -2.3342404537260038e+01, -50.,
             -2.5020922932450560e+01, -9.0238041834282363e+00,
             -4.5148335449716576e+01, -3.9693416433412409e+01, -50.,
             -3.6372302268083232e+01, -3.7805805811863678e+01, -50.,
             -1.9644265749150389e+01, -4.3041786706776669e+01,
             -1.3672039780347089e+00, -4.9178257360401417e+01,
             -3.3463410581128503e+00, -4.4638557952847897e+01,
             -4.6241517978777686e+01, -2.3324514867245039e+01 ]
         index: [ 74, 75, 78, 89, 90, 91, 93, 95, 102, 103, 105, 106,
             107, 109, 110, 113, 117, 120, 123, 125, 127, 130, 131, 133,
             134, 140, 146, 147, 148, 150, 152, 154, 155, 157, 158, 161,
             162, 164, 165, 166, 168, 169, 171, 172, 173, 176, 177, 178,
             179, 180, 181, 183, 186, 188, 190, 192, 193, 194, 195, 198,
             199, 200, 201 ]
      -
         sv_count: 95
         rho: 6.2238678670139436e+00
         alpha: [ 50., 50., 4.6631575562355458e+01, 50., 50.,
             3.8880494671842043e+00, 2.1887023445469058e+01, 50., 50.,
             3.6926271968626821e+01, 50., 50., 3.7015708764670685e+00,
             50., 50., 3.0806313530141235e+01, 50., 50.,
             4.1719711180515205e+01, 2.5484438515423445e+01,
             2.4348494475366110e+01, 2.3139657906522029e+01,
             2.5086530339155271e+01, 50., 50., 3.6581033152442721e+01,
             4.7783915759509838e+00, 5.2559571587164102e+00, 50.,
             9.7814621582573640e+00, 50., 1.3080258629233816e+00, 50.,
             4.5288285375175228e+01, 3.8361681113404956e+01,
             4.8249940457488492e+01, 5.7480226062668018e+00, 50., 50.,
             2.6383828966239541e+01, 50., 50., 3.7228673684687223e+01,
             1.2396158589324154e+01, 1.7390593870599794e+01, 50.,
             4.6246395557444451e+01, -2.0370513155567004e+01,
             -8.8856964980742141e+00, -2.8616176996967795e+00, -50.,
             -50., -4.5538620903535666e+01, -7.2343559173804570e-02,
             -50., -3.9733373854158167e+01, -2.6773348773727410e+01,
             -50., -50., -4.4951972031471477e+01,
             -9.5625731158608342e+00, -50., -50.,
             -2.7941956311380245e+01, -50., -50., -50.,
             -3.0685943837875278e+01, -8.8916915487905648e+00, -50.,
             -50., -4.8614607961279495e+00, -50.,
             -4.6693073847687110e+01, -50., -1.0965720254275659e+01,
             -2.1078717118259679e+01, -1.2440580649209828e+01, -50.,
             -50., -50., -3.2113574952337515e+01,
             -2.4552835542698741e+01, -50., -1.9192054201381652e+01,
             -50., -50., -50., -3.2808430343765657e+01, -50.,
             -1.7435940954561902e+00, -50., -1.6397674005842379e+01,
             -50., -2.9500720299793564e+01 ]
         index: [ 74, 75, 78, 79, 84, 86, 87, 89, 90, 91, 93, 95, 97, 98,
             99, 100, 101, 102, 103, 105, 106, 107, 109, 110, 111, 113,
             115, 116, 120, 122, 123, 124, 126, 127, 129, 130, 131, 133,
             134, 136, 139, 140, 141, 143, 144, 145, 146, 204, 205, 206,
             209, 210, 211, 212, 214, 216, 217, 218, 220, 221, 223, 224,
             226, 227, 234, 235, 236, 238, 239, 240, 241, 242, 243, 247,
             248, 249, 251, 252, 254, 255, 256, 258, 259, 260, 261, 262,
             263, 264, 265, 270, 271, 274, 275, 276, 277 ]
      -
         sv_count: 74
         rho: 4.7109325102409354e+00
         alpha: [ 50., 2.6855728941865422e+01, 7.4112207035748785e+00,
             50., 50., 1.0971744463300826e+01, 8.9126477944649949e+00,
             3.6079181652004820e+01, 2.3258684894471834e+01, 50.,
             4.2993924567780063e+01, 50., 2.3033583657600126e+01,
             4.6621488143194775e+01, 2.7820441283645735e+01,
             2.2132433637498452e+00, 50., 50., 50.,
             1.3237744924496180e+01, 1.0018392682619449e+01, 50., 50.,
             50., 1.6956522292334249e+01, 6.1211661189628508e+00,
             3.6781394758426799e+01, 3.8284080055517869e+01,
             2.5557443160488329e+01, 2.7431826615526042e+01, 50.,
             3.0509012850800623e+01, 50., 50., 50.,
             2.5357631975180553e+01, 50., 2.4480989460189321e+01, 50.,
             3.9590875271686997e+01, -2.9862985190468297e+01, -50., -50.,
             -50., -50., -50., -50., -3.7144266999395601e+00, -50.,
             -2.9193264884577850e+01, -3.8132844317163482e+01, -50.,
             -50., -50., -3.1198235314987098e+01, -50., -50., -50.,
             -1.6018642439438054e+01, -8.1559412678578642e+00,
             -2.7062108576676380e+01, -50., -50.,
             -3.0979341691857528e+01, -50., -50.,
             -1.5175405250468822e+01, -2.1971336616019268e+01, -50.,
             -50., -50., -50., -50., -4.9034437382428386e+01 ]
         index: [ 74, 75, 78, 79, 80, 82, 83, 84, 85, 86, 89, 91, 92, 94,
             96, 100, 101, 102, 103, 105, 106, 109, 110, 113, 115, 116,
             117, 121, 122, 124, 127, 131, 133, 134, 137, 138, 139, 140,
             143, 146, 279, 280, 281, 282, 283, 284, 285, 287, 288, 291,
             292, 293, 294, 295, 296, 297, 298, 299, 300, 301, 302, 303,
             305, 306, 307, 308, 309, 310, 311, 312, 313, 316, 317, 318 ]
      -
         sv_count: 59
         rho: 3.0348077422223563e+00
         alpha: [ 2.4592835472416212e+01, 9.3704803141720703e+00,
             6.6278584347600962e+00, 50., 2.1399700351902574e+01,
             1.1477014812102789e+01, 3.1524773027776167e+01,
             2.8991604268280533e+01, 50., 1.7759935517757082e+01,
             2.3630407608873014e+01, 1.1578156888920121e+01, 50.,
             9.6201424705941037e+00, 7.4706521870941272e+00,
             3.7236988792014756e+01, 5.7622786485468813e+00,
             3.7012393195558111e+01, 1.8695499182912773e+01,
             7.5725789972916795e+00, 3.1360518827917048e+01,
             1.2962207965738354e+01, 5.4828639774638015e+00,
             2.8195137390351213e+01, 50., 3.3966499618988820e+01,
             1.3304138770132765e+01, 2.5328920755932245e+01,
             1.8983184434944183e+00, -2.5800055291209379e+01, -50.,
             -1.0462927128002695e+01, -2.6194781829354913e+01,
             -1.1176713411989219e+01, -3.0581302528044496e+01,
             -2.4530004071196503e+00, -6.4467976895113299e+00,
             -2.1575068841447155e+01, -8.6697661168863487e+00,
             -1.6800358544693648e+01, -50., -2.4087788929668285e+01,
             -1.0594556542147071e+01, -3.8683795321277863e+01,
             -6.2295306730864963e+00, -3.9971621275648644e+01,
             -3.4773600546630973e+01, -8.7082095601995562e+00,
             -2.8830273504885881e+01, -2.3273768411089524e+01,
             -5.2060460746002200e+00, -4.0052478839359820e+00,
             -8.9441791929343317e+00, -4.7879998234823895e-01,
             -2.1961463175692590e+01, -2.9778587072702518e+01, -50.,
             -3.0255160052964857e+01, -3.6878505932919907e+01 ]
         index: [ 74, 89, 90, 91, 98, 99, 101, 102, 103, 105, 106, 107,
             109, 110, 113, 115, 116, 121, 123, 124, 125, 127, 130, 131,
             134, 136, 139, 140, 146, 323, 325, 326, 327, 330, 332, 333,
             334, 337, 338, 339, 340, 341, 342, 343, 344, 345, 346, 347,
             348, 349, 351, 353, 355, 356, 357, 358, 359, 360, 363 ]
      -
         sv_count: 106
         rho: -2.2932062985346766e+00
         alpha: [ 50., 50., 50., 1.4481217766629300e+01, 50.,
             1.7370654572184382e+01, 50., 50., 2.2210847432995915e+00,
             50., 50., 2.0291375350521568e+00, 4.2472597726496446e+01,
             50., 50., 50., 50., 50., 50., 1.7340815562090711e+01, 50.,
             4.5953256111984651e+01, 3.1331409902602307e+01, 50., 50.,
             50., 50., 50., 50., 50., 50., 50., 1.7536517959080268e+01,
             50., 2.2424395482213959e+00, 3.0980265066338436e+01,
             3.0091718669957721e+01, 50., 50., 50.,
             2.3894502320036931e+01, 50., 50., 50.,
             2.3931026797517365e+01, 50., 50., 50., 50., 50.,
             -2.0338258744984500e+01, -4.2265563957597486e+01, -50.,
             -50., -50., -3.4087498972794535e+01, -50., -50.,
             -9.9511018970585265e+00, -50., -50.,
             -2.1456003659763880e+01, -50., -50.,
             -2.4733353754076333e+01, -50., -1.7949292555699690e+00,
             -4.0724996607229230e+01, -50., -50.,
             -4.7150186039647739e+00, -50., -50.,
             -2.1900133110605118e+01, -50., -50.,
             -2.5655232419566694e+01, -50., -50., -50.,
             -2.8353687607691491e+01, -50., -50.,
             -1.0995481663477067e+01, -50., -50., -50.,
             -3.1119912609030411e+01, -50., -50.,
             -1.2675799398939873e+01, -50., -50.,
             -2.5120470551196657e+01, -7.0428332890640615e+00,
             -2.7486095314751246e+01, -4.5895011072464094e+01, -50.,
             -7.8644371546990310e+00, -50., -9.2679904652175932e-02,
             -2.2612479240020491e+01, -50., -7.6730205405431162e+00,
             -50., -2.7322644951750888e+01 ]
         index: [ 147, 148, 150, 151, 152, 153, 154, 155, 156, 158, 159,
             160, 161, 162, 163, 164, 165, 166, 168, 169, 170, 171, 172,
             173, 174, 175, 176, 177, 178, 179, 180, 181, 182, 183, 184,
             185, 186, 188, 190, 191, 192, 193, 195, 196, 197, 198, 199,
             200, 201, 202, 203, 204, 205, 206, 207, 208, 209, 213, 215,
             216, 217, 218, 219, 220, 222, 223, 227, 228, 229, 230, 231,
             232, 233, 234, 235, 236, 237, 239, 240, 242, 243, 244, 245,
             246, 247, 249, 252, 253, 254, 255, 256, 258, 259, 262, 264,
             265, 266, 268, 269, 270, 271, 272, 274, 275, 276, 277 ]
      -
         sv_count: 59
         rho: -7.6564910782185471e+00
         alpha: [ 2.7151372965609983e+01, 50., 50., 50., 50.,
             1.4544010536424425e+01, 50., 50., 50.,
             3.9982084009048727e+01, 4.7522215045975813e+01,
             1.8549244656397047e+01, 2.2626272104362716e+01, 50., 50.,
             50., 1.3131020427890853e+01, 50., 50.,
             7.2612759436328780e+00, 3.1568786158837046e+01, 50.,
             5.5827808389988203e+00, 4.5400428294260724e+00,
             2.2496522448865928e+01, 50., 3.1856163028490588e+01,
             3.8296226786482408e+00, 1.2461183779484861e+01, 50.,
             2.6088360408198270e+01, -50., -50., -4.2273570501278517e+00,
             -1.0694353570034922e+01, -50., -50.,
             -1.7621885157480676e+01, -2.2567993258680549e+01,
             -3.7742342499993427e+01, -50., -4.8317783118190953e+01,
             -50., -50., -50., -50., -50., -2.9040003859393245e+01,
             -5.1255781421139410e+00, -3.7149886225558483e+01, -50.,
             -50., -3.7058052305243699e+01, -4.3957527587627702e+01,
             -50., -50., -1.7135362834971762e+01,
             -3.1079538271798555e+01, -3.7473293979076495e+01 ]
         index: [ 150, 152, 154, 155, 158, 161, 162, 163, 164, 165, 166,
             167, 170, 173, 176, 179, 180, 181, 183, 185, 186, 188, 190,
             191, 193, 195, 196, 198, 199, 201, 202, 278, 280, 281, 282,
             283, 284, 286, 287, 290, 292, 293, 294, 295, 298, 299, 300,
             306, 307, 308, 311, 312, 313, 314, 316, 317, 318, 319, 320 ]
      -
         sv_count: 79
         rho: -4.2429546546004699e+00
         alpha: [ 50., 3.9368636274207930e+01, 50., 50., 50.,
             3.6399640490453734e+01, 6.0061664734606799e+00,
             4.2967752849336982e+01, 1.1119802639850331e+01, 50., 50.,
             8.7870611578681981e+00, 1.7877766017445058e+01, 50.,
             4.3374570477953149e+01, 4.9628067130198685e+00,
             2.4853126694632395e+00, 50., 2.6789573604435560e+01,
             2.4533934130038080e+01, 50., 50., 4.9977175275383225e+01,
             50., 50., 50., 6.5275552684310769e+00,
             4.8728207059744605e+01, 50., 50., 7.7327297861609097e+00,
             4.8542051822159273e+01, 1.4170428867154692e+01,
             3.8204183458457606e+00, 50., 50., 5.0262823621847090e+00,
             50., 4.9161110572848187e+01, 4.0199810467700210e+01, -50.,
             -4.3745526501434227e+01, -2.1811604673527928e+01, -50.,
             -1.1362503135278910e+00, -50., -1.6657097717564326e+01,
             -50., -50., -50., -50., -4.2326741872090451e-01, -50.,
             -4.9963764890776744e+01, -1.7995544364896933e+01,
             -5.1520901625568669e+00, -50., -4.6456723834997135e+01,
             -50., -50., -50., -50., -50., -2.7225048749072364e+01,
             -3.1220511716154878e+01, -50., -3.4535976119800611e+00,
             -1.0765514614961464e+00, -50., -1.9704578870900356e+01,
             -50., -50., -4.2969806646178377e+01, -50., -50.,
             -2.9410266783082470e+01, -1.9672874254229789e+01, -50.,
             -1.0483687354048069e+01 ]
         index: [ 147, 148, 150, 151, 152, 153, 154, 156, 157, 158, 159,
             160, 161, 162, 165, 169, 171, 173, 175, 177, 178, 179, 181,
             183, 184, 185, 186, 187, 188, 189, 190, 191, 192, 193, 195,
             196, 197, 198, 199, 201, 322, 323, 324, 325, 326, 327, 328,
             329, 330, 331, 332, 333, 334, 335, 336, 337, 338, 339, 340,
             341, 342, 343, 345, 346, 348, 349, 350, 351, 352, 353, 354,
             355, 357, 358, 359, 360, 361, 362, 363 ]
      -
         sv_count: 79
         rho: -3.0830580234556266e+00
         alpha: [ 50., 2.8033158827640783e+01, 50.,
             1.3119619016440625e+01, 50., 2.6100330232015036e+01, 50.,
             2.9232437218407540e+01, 50., 50., 50., 50.,
             2.1119432837290802e+01, 3.4428581139154446e+01,
             1.2134700849591436e+01, 50., 50., 50.,
             4.5136175939319465e+01, 50., 3.2754913040586452e+01, 50.,
             1.8941658005744500e+01, 4.4344038684702568e+01,
             1.7537676854260095e+01, 4.3678339671525741e+01, 50.,
             1.7040234951826907e+01, 50., 3.1765084382677465e+01,
             3.8798696958046918e+01, 4.6540312400750850e-01, 50., 50.,
             9.5279974630577406e+00, 1.0782413122950068e+01,
             6.6786723868353750e+00, 2.3860362783690967e+01,
             2.2181476703539090e+01, 2.6583634465547107e+01,
             2.0373771825567495e+01, 2.5693624542549397e+01, -50.,
             -2.6770816827029428e+01, -50., -3.6634375929444282e+01,
             -50., -3.5502741981407262e+01, -50., -50.,
             -1.2184759063373864e+01, -2.1343793906820096e+01,
             -4.0413240344321139e+01, -2.9315225427081884e+01,
             -2.4914037473569600e+01, -50., -4.3542353010391196e+01,
             -50., -50., -50., -50., -50., -50., -1.8090231381898398e+01,
             -2.3850201415306991e+00, -4.2382682902082351e+01,
             -7.2834109783936745e+00, -3.8881080423930996e+01,
             -4.1298872167074983e+01, -50., -50., -50., -50.,
             -2.9513086613692472e+01, -50., -50.,
             -2.2326194489255759e+01, -50., -2.7530511965677483e+01 ]
         index: [ 209, 213, 214, 215, 217, 218, 220, 221, 223, 224, 225,
             227, 228, 229, 231, 232, 233, 234, 235, 236, 239, 241, 242,
             243, 245, 246, 247, 251, 254, 256, 260, 262, 263, 265, 266,
             267, 269, 270, 273, 274, 275, 276, 278, 279, 280, 281, 282,
             283, 284, 285, 286, 287, 288, 290, 291, 292, 293, 294, 295,
             297, 298, 299, 300, 301, 302, 303, 305, 306, 307, 308, 311,
             312, 313, 315, 316, 317, 319, 320, 321 ]
      -
         sv_count: 84
         rho: 1.2770262431247123e-01
         alpha: [ 1.8511459407028283e+01, 2.8976279891137931e+01,
             3.2963155649189552e+01, 4.5994346148870889e+01, 50., 50.,
             1.9862556287344201e+01, 50., 50., 3.2365635275231995e+01,
             8.2860300056719520e+00, 50., 50., 2.0713856661296859e+01,
             7.2202850143985549e+00, 50., 4.1493146448832221e+01,
             2.1253212621751356e+01, 4.6824526618197702e+01, 50.,
             4.8299156903786006e-01, 1.8325305482833096e+00, 50., 50.,
             50., 4.6900718598121109e+01, 50., 4.7908837751592372e+01,
             50., 50., 50., 1.1136871075214101e+01,
             1.4899232819873269e+01, 2.6663296142523741e+01,
             1.2410633035006921e+01, 1.0357557745362920e+01,
             9.5733395990193131e+00, 2.0886363532579097e+01,
             1.6842711129275074e+01, 50., 4.0260181749073425e+01,
             7.4530033288667163e-01, 50., 5.6361442857974442e-01,
             6.0255878734290524e+00, 2.3195439179108188e+01, -50., -50.,
             -3.1659962268802044e+01, -50., -50., -50.,
             -3.1510941794525909e+01, -1.2059692310662099e+01,
             -3.0373441194582657e+01, -50., -50., -50., -50., -50., -50.,
             -50., -50., -50., -50., -50., -3.8702362305260031e+01, -50.,
             -50., -2.5882616564289034e+01, -5.9508391464857429e+00,
             -1.4125372984583766e+01, -2.9338224382989182e+01,
             -3.3573629784071393e+01, -2.3203680988716165e+01,
             -2.6002248307480482e+01, -3.6159935907227563e+01, -50.,
             -1.9752876856967674e+01, -50., -4.3842079320794376e+01,
             -1.2901387721484346e+01, -5.7554397245834092e+00,
             -4.4354965574411736e+01 ]
         index: [ 203, 204, 205, 206, 207, 209, 210, 212, 213, 214, 215,
             216, 217, 218, 219, 223, 224, 227, 228, 229, 230, 231, 232,
             233, 236, 239, 240, 242, 243, 244, 245, 247, 250, 252, 253,
             254, 255, 257, 260, 263, 265, 271, 274, 275, 276, 277, 322,
             323, 324, 325, 326, 327, 328, 329, 330, 331, 332, 333, 334,
             335, 338, 339, 340, 341, 342, 343, 344, 345, 346, 347, 348,
             349, 351, 352, 353, 354, 356, 357, 358, 359, 360, 361, 362,
             363 ]
      -
         sv_count: 51
         rho: -9.9522764154671456e-02
         alpha: [ 50., 50., 3.9477409540140812e+01,
             3.2428749580948342e+01, 3.4061937797387642e+01,
             3.2688633999781509e+01, 3.5114221130860969e+01,
             1.9161767355280727e+01, 4.5576366355654059e+01,
             4.8810750048112219e+01, 50., 50., 50.,
             4.7211241544857174e+01, 3.9115503312972741e+01,
             3.6853948977482432e+01, 3.3108824221771663e+01,
             3.3764053906354661e+01, 3.1017182563991454e+01, 50., 50.,
             1.6735485408901123e+01, 1.0074705616205778e+01,
             2.9770323451898193e+01, 50., 5.9570574624560324e+00, -50.,
             -3.9164962652242828e+01, -50., -1.3187239462001381e+01,
             -50., -4.1721798599559833e+01, -3.1848211779411731e+01,
             -50., -2.9017626992475453e+01, -50., -50., -50.,
             -2.6274378397294569e+01, -50., -2.9714256651347224e+01,
             -50., -1.2947489719280448e+01, -50., -50.,
             -1.9686707842402538e+00, -2.6277193625944495e+01, -50.,
             -50., -50., -1.8806333611259259e+01 ]
         index: [ 278, 279, 281, 283, 284, 286, 287, 288, 290, 292, 295,
             298, 299, 300, 303, 304, 305, 307, 308, 311, 312, 316, 317,
             319, 320, 321, 322, 323, 325, 326, 331, 332, 333, 334, 335,
             338, 339, 340, 341, 343, 344, 345, 350, 351, 356, 357, 358,
             359, 360, 361, 362 ]
