%YAML:1.0
---
opencv_ml_svm:
   format: 3
   svmType: C_SVC
   kernel:
      type: RBF
      gamma: 2.2500000000000003e-03
   C: 2.5000000000000000e+00
   term_criteria: { epsilon:1.1920928955078125e-07, iterations:1000 }
   var_count: 4
   class_count: 3
   class_labels: !!opencv-matrix
      rows: 3
      cols: 1
      dt: i
      data: [ 0, 1, 2 ]
   sv_total: 163
   support_vectors:
      - [ 17., 3., 22., 12. ]
      - [ 9., 9., 15., 18. ]
      - [ 11., 4., 29., 4. ]
      - [ 11., 12., 9., 7. ]
      - [ 8., 12., 10., 4. ]
      - [ 20., 8., 9., 16. ]
      - [ 27., 6., 8., 7. ]
      - [ 13., 7., 18., 14. ]
      - [ 8., 18., 8., 5. ]
      - [ 9., 12., 5., 7. ]
      - [ 12., 13., 14., 10. ]
      - [ 12., 19., 9., 11. ]
      - [ 16., 11., 10., 3. ]
      - [ 10., 14., 14., 12. ]
      - [ 15., 5., 8., 16. ]
      - [ 13., 18., 9., 24. ]
      - [ 27., 35., 11., 9. ]
      - [ 41., 14., 12., 11. ]
      - [ 14., 7., 7., 17. ]
      - [ 16., 6., 14., 16. ]
      - [ 26., 12., 29., 10. ]
      - [ 14., 2., 2., 20. ]
      - [ 31., 3., 14., 7. ]
      - [ 17., 8., 8., 3. ]
      - [ 35., 18., 9., 2. ]
      - [ 11., 9., 12., 7. ]
      - [ 14., 18., 10., 14. ]
      - [ 14., 17., 14., 15. ]
      - [ 9., 9., 21., 12. ]
      - [ 10., 5., 20., 11. ]
      - [ 6., 17., 9., 8. ]
      - [ 5., 15., 9., 9. ]
      - [ 18., 6., 14., 4. ]
      - [ 12., 6., 10., 8. ]
      - [ 16., 10., 11., 15. ]
      - [ 16., 10., 5., 16. ]
      - [ 10., 19., 9., 18. ]
      - [ 13., 15., 10., 9. ]
      - [ 11., 16., 8., 10. ]
      - [ 7., 13., 13., 10. ]
      - [ 11., 9., 10., 13. ]
      - [ 11., 9., 7., 7. ]
      - [ 10., 10., 4., 13. ]
      - [ 6., 9., 9., 11. ]
      - [ 21., 31., 13., 18. ]
      - [ 10., 21., 5., 22. ]
      - [ 6., 17., 15., 11. ]
      - [ 38., 40., 17., 17. ]
      - [ 8., 4., 23., 17. ]
      - [ 19., 35., 14., 18. ]
      - [ 7., 18., 8., 8. ]
      - [ 12., 25., 13., 13. ]
      - [ 11., 8., 15., 8. ]
      - [ 12., 5., 7., 4. ]
      - [ 5., 10., 6., 7. ]
      - [ 10., 21., 4., 9. ]
      - [ 9., 27., 10., 7. ]
      - [ 14., 8., 9., 2. ]
      - [ 6., 75., 4., 15. ]
      - [ 14., 21., 15., 14. ]
      - [ 21., 39., 10., 8. ]
      - [ 4., 55., 19., 17. ]
      - [ 19., 26., 6., 15. ]
      - [ 13., 16., 6., 18. ]
      - [ 16., 28., 13., 3. ]
      - [ 6., 18., 8., 8. ]
      - [ 18., 22., 7., 10. ]
      - [ 15., 11., 16., 8. ]
      - [ 16., 12., 3., 3. ]
      - [ 17., 29., 8., 3. ]
      - [ 14., 18., 7., 4. ]
      - [ 17., 29., 5., 0. ]
      - [ 14., 16., 6., 7. ]
      - [ 14., 14., 4., 3. ]
      - [ 17., 6., 12., 8. ]
      - [ 9., 7., 26., 16. ]
      - [ 9., 20., 9., 14. ]
      - [ 12., 5., 7., 11. ]
      - [ 8., 8., 17., 19. ]
      - [ 13., 4., 10., 13. ]
      - [ 10., 10., 10., 6. ]
      - [ 13., 6., 15., 13. ]
      - [ 12., 6., 6., 11. ]
      - [ 6., 9., 14., 9. ]
      - [ 9., 13., 13., 7. ]
      - [ 15., 23., 14., 8. ]
      - [ 17., 13., 11., 13. ]
      - [ 16., 8., 12., 12. ]
      - [ 22., 14., 8., 6. ]
      - [ 9., 14., 16., 15. ]
      - [ 12., 15., 8., 8. ]
      - [ 19., 16., 14., 9. ]
      - [ 21., 8., 6., 9. ]
      - [ 11., 4., 30., 20. ]
      - [ 5., 2., 44., 25. ]
      - [ 5., 4., 46., 25. ]
      - [ 3., 5., 22., 20. ]
      - [ 13., 20., 9., 8. ]
      - [ 8., 10., 15., 14. ]
      - [ 8., 9., 9., 9. ]
      - [ 9., 4., 18., 9. ]
      - [ 12., 8., 19., 6. ]
      - [ 7., 20., 10., 24. ]
      - [ 6., 8., 30., 23. ]
      - [ 10., 12., 12., 14. ]
      - [ 13., 6., 10., 10. ]
      - [ 12., 16., 9., 7. ]
      - [ 7., 7., 10., 7. ]
      - [ 7., 11., 17., 10. ]
      - [ 23., 13., 1., 5. ]
      - [ 5., 9., 32., 10. ]
      - [ 11., 24., 9., 14. ]
      - [ 9., 8., 10., 10. ]
      - [ 15., 13., 10., 8. ]
      - [ 8., 6., 9., 9. ]
      - [ 13., 11., 23., 7. ]
      - [ 15., 8., 12., 11. ]
      - [ 18., 13., 28., 5. ]
      - [ 15., 9., 14., 12. ]
      - [ 13., 11., 23., 5. ]
      - [ 6., 6., 34., 12. ]
      - [ 9., 9., 19., 18. ]
      - [ 6., 1., 18., 12. ]
      - [ 4., 12., 21., 8. ]
      - [ 11., 7., 18., 9. ]
      - [ 9., 19., 24., 12. ]
      - [ 7., 15., 21., 15. ]
      - [ 15., 13., 8., 7. ]
      - [ 17., 8., 24., 12. ]
      - [ 24., 5., 60., 4. ]
      - [ 39., 9., 25., 23. ]
      - [ 14., 5., 27., 12. ]
      - [ 19., 6., 11., 12. ]
      - [ 14., 10., 32., 15. ]
      - [ 21., 19., 11., 17. ]
      - [ 4., 4., 6., 2. ]
      - [ 9., 11., 21., 14. ]
      - [ 1., 3., 2., 14. ]
      - [ 27., 13., 17., 13. ]
      - [ 25., 6., 45., 7. ]
      - [ 2., 12., 16., 21. ]
      - [ 14., 9., 18., 19. ]
      - [ 14., 11., 8., 28. ]
      - [ 13., 10., 19., 15. ]
      - [ 8., 9., 38., 21. ]
      - [ 11., 23., 9., 26. ]
      - [ 11., 14., 5., 26. ]
      - [ 6., 10., 29., 25. ]
      - [ 18., 13., 15., 14. ]
      - [ 14., 13., 30., 6. ]
      - [ 23., 14., 8., 23. ]
      - [ 34., 21., 11., 24. ]
      - [ 15., 4., 12., 24. ]
      - [ 8., 5., 33., 5. ]
      - [ 10., 10., 13., 12. ]
      - [ 16., 6., 65., 4. ]
      - [ 13., 3., 37., 13. ]
      - [ 18., 23., 20., 12. ]
      - [ 25., 6., 21., 9. ]
      - [ 12., 7., 57., 10. ]
      - [ 22., 18., 26., 6. ]
      - [ 12., 32., 16., 29. ]
      - [ 18., 8., 21., 13. ]
   decision_functions:
      -
         sv_count: 106
         rho: -1.1177418917317441e+00
         alpha: [ 2.5000000000000000e+00, 2.5000000000000000e+00,
             2.5000000000000000e+00, 2.5000000000000000e+00,
             2.5000000000000000e+00, 2.5000000000000000e+00,
             2.5000000000000000e+00, 2.5000000000000000e+00,
             2.5000000000000000e+00, 2.5000000000000000e+00,
             2.5000000000000000e+00, 2.5000000000000000e+00,
             2.5000000000000000e+00, 2.5000000000000000e+00,
             2.5000000000000000e+00, 1.3352426121140901e+00,
             2.5000000000000000e+00, 2.5000000000000000e+00,
             1.8341421943345599e+00, 2.5000000000000000e+00,
             2.5000000000000000e+00, 2.5000000000000000e+00,
             2.5000000000000000e+00, 2.5000000000000000e+00,
             2.5000000000000000e+00, 2.5000000000000000e+00,
             2.5000000000000000e+00, 1.0332037568572496e+00,
             2.5000000000000000e+00, 2.5000000000000000e+00,
             2.5000000000000000e+00, 1.2593342362742508e+00,
             2.5000000000000000e+00, 2.5000000000000000e+00,
             2.5000000000000000e+00, 2.5000000000000000e+00,
             2.5000000000000000e+00, 2.5000000000000000e+00,
             2.5000000000000000e+00, 2.5000000000000000e+00,
             2.5000000000000000e+00, 2.5000000000000000e+00,
             2.5000000000000000e+00, 2.5000000000000000e+00,
             2.5000000000000000e+00, 1.7850234891818075e+00,
             2.2745474953032878e+00, 2.5000000000000000e+00,
             2.5000000000000000e+00, 2.5000000000000000e+00,
             6.3527804490609407e-01, 2.1410059825945877e+00,
             -1.5544368310874863e+00, -2.5000000000000000e+00,
             -2.5000000000000000e+00, -1.8500150003200950e+00,
             -2.5000000000000000e+00, -2.5000000000000000e+00,
             -2.5000000000000000e+00, -2.5000000000000000e+00,
             -2.5000000000000000e+00, -2.5000000000000000e+00,
             -2.5000000000000000e+00, -2.5000000000000000e+00,
             -2.5000000000000000e+00, -2.5000000000000000e+00,
             -2.5000000000000000e+00, -2.5000000000000000e+00,
             -2.5000000000000000e+00, -2.5000000000000000e+00,
             -2.5000000000000000e+00, -2.5000000000000000e+00,
             -2.5000000000000000e+00, -2.5000000000000000e+00,
             -9.0880071917933181e-01, -2.5000000000000000e+00,
             -2.5000000000000000e+00, -2.5000000000000000e+00,
             -2.5000000000000000e+00, -2.5000000000000000e+00,
             -1.4099248590367734e+00, -2.5000000000000000e+00,
             -2.5000000000000000e+00, -2.5000000000000000e+00,
             -2.5000000000000000e+00, -2.5000000000000000e+00,
             -2.5000000000000000e+00, -2.5000000000000000e+00,
             -2.5000000000000000e+00, -2.5000000000000000e+00,
             -2.5000000000000000e+00, -2.5000000000000000e+00,
             -2.5000000000000000e+00, -2.5000000000000000e+00,
             -2.5000000000000000e+00, -2.5000000000000000e+00,
             -2.5000000000000000e+00, -2.5000000000000000e+00,
             -2.5000000000000000e+00, -2.5000000000000000e+00,
             -2.5000000000000000e+00, -4.7939068494925918e-01,
             -1.3441222539969904e+00, -9.6300034741637042e-01,
             -1.1375414387313016e+00, -1.5054567684831460e-01 ]
         index: [ 0, 1, 2, 3, 4, 5, 6, 7, 8, 9, 10, 11, 12, 13, 14, 16,
             18, 19, 20, 23, 24, 25, 26, 27, 28, 29, 30, 31, 32, 33, 34,
             35, 37, 38, 39, 40, 41, 42, 43, 46, 48, 50, 51, 52, 53, 54,
             55, 56, 57, 59, 60, 62, 64, 65, 66, 67, 68, 69, 70, 72, 73,
             74, 76, 77, 78, 79, 80, 81, 82, 83, 84, 85, 86, 87, 88, 89,
             90, 91, 92, 93, 95, 97, 98, 99, 100, 101, 102, 104, 105,
             106, 107, 108, 109, 111, 112, 113, 114, 116, 117, 118, 121,
             122, 123, 124, 125, 126 ]
      -
         sv_count: 61
         rho: -1.3263073920503026e-02
         alpha: [ 2.5000000000000000e+00, 2.5000000000000000e+00,
             2.5000000000000000e+00, 2.5000000000000000e+00,
             2.5000000000000000e+00, 2.5000000000000000e+00,
             6.6600095098712142e-01, 2.5000000000000000e+00,
             2.3675062873941037e+00, 6.2603918402720815e-01,
             2.5000000000000000e+00, 2.5000000000000000e+00,
             2.5000000000000000e+00, 2.3281088905591778e+00,
             8.0426712394274610e-02, 2.5000000000000000e+00,
             2.5000000000000000e+00, 2.5000000000000000e+00,
             1.3964446222700331e+00, 2.5000000000000000e+00,
             1.8575672049791461e+00, 2.5000000000000000e+00,
             2.5000000000000000e+00, 5.3429018006760143e-01,
             2.5000000000000000e+00, 8.5561070433419861e-01,
             1.6137526107593767e+00, 8.0779283561735504e-01,
             2.5000000000000000e+00, 6.7751976469155129e-01,
             5.5982769242668776e-02, -2.5000000000000000e+00,
             -2.5000000000000000e+00, -4.9270842185666264e-01,
             -3.1351586071041854e-01, -2.5000000000000000e+00,
             -2.5000000000000000e+00, -2.5000000000000000e+00,
             -2.5000000000000000e+00, -2.5000000000000000e+00,
             -2.5000000000000000e+00, -2.3050267833869351e+00,
             -3.0746385269424609e-02, -2.5000000000000000e+00,
             -2.5000000000000000e+00, -2.2412672580030016e-01,
             -2.5000000000000000e+00, -2.5000000000000000e+00,
             -2.5000000000000000e+00, -2.5000000000000000e+00,
             -7.7069583931300159e-02, -2.1154262083598203e+00,
             -5.5112173656966357e-01, -2.5000000000000000e+00,
             -2.5000000000000000e+00, -2.5000000000000000e+00,
             -4.8673441658020244e-01, -2.5000000000000000e+00,
             -2.5000000000000000e+00, -2.2705665948590874e+00,
             -2.5000000000000000e+00 ]
         index: [ 0, 1, 2, 5, 7, 10, 13, 15, 17, 18, 19, 20, 21, 22, 24,
             27, 28, 29, 32, 34, 36, 44, 45, 47, 48, 49, 54, 58, 59, 61,
             63, 127, 128, 129, 130, 131, 132, 134, 135, 136, 137, 138,
             139, 140, 141, 142, 143, 145, 146, 148, 149, 150, 151, 152,
             153, 154, 155, 157, 158, 161, 162 ]
      -
         sv_count: 53
         rho: 7.5361941539955180e-01
         alpha: [ 1.0010102940671584e+00, 3.3380675507448493e-01,
             2.5000000000000000e+00, 2.5000000000000000e+00,
             2.5000000000000000e+00, 2.5000000000000000e+00,
             2.5000000000000000e+00, 3.7284445439228980e-01,
             2.5000000000000000e+00, 2.5000000000000000e+00,
             2.5000000000000000e+00, 1.0581980336560135e+00,
             2.5000000000000000e+00, 1.6700540658500404e-01,
             2.5000000000000000e+00, 3.6514715577096163e-01,
             2.5000000000000000e+00, 2.5000000000000000e+00,
             2.0047008917563964e+00, 2.5000000000000000e+00,
             2.5000000000000000e+00, 2.5000000000000000e+00,
             2.5000000000000000e+00, 2.5000000000000000e+00,
             2.5000000000000000e+00, 2.5000000000000000e+00,
             2.5000000000000000e+00, -2.5000000000000000e+00,
             -2.5000000000000000e+00, -2.5000000000000000e+00,
             -2.5000000000000000e+00, -7.4700124660073627e-02,
             -2.5000000000000000e+00, -2.5000000000000000e+00,
             -2.5000000000000000e+00, -2.3471727920845842e+00,
             -2.5000000000000000e+00, -2.5000000000000000e+00,
             -2.5000000000000000e+00, -2.5000000000000000e+00,
             -2.1017217563611141e+00, -3.6290691871178565e-01,
             -2.5000000000000000e+00, -2.5000000000000000e+00,
             -2.5000000000000000e+00, -2.0008596985093172e+00,
             -2.5000000000000000e+00, -2.5000000000000000e+00,
             -2.5000000000000000e+00, -2.5000000000000000e+00,
             -2.8012874045449337e-01, -6.3522296052093985e-01,
             -2.5000000000000000e+00 ]
         index: [ 66, 71, 75, 77, 78, 79, 81, 82, 86, 87, 91, 92, 93, 94,
             95, 96, 102, 103, 110, 111, 115, 117, 118, 119, 120, 121,
             125, 127, 128, 131, 132, 133, 134, 135, 136, 137, 140, 141,
             143, 144, 145, 146, 147, 148, 149, 152, 153, 154, 156, 157,
             159, 160, 162 ]
