%YAML:1.0
---
opencv_ml_svm:
   format: 3
   svmType: C_SVC
   kernel:
      type: RBF
      gamma: 1.5000000000000001e-04
   C: 2.5000000000000000e+00
   term_criteria: { epsilon:1.1920928955078125e-07, iterations:1000 }
   var_count: 32
   class_count: 3
   class_labels: !!opencv-matrix
      rows: 3
      cols: 1
      dt: i
      data: [ 0, 1, 2 ]
   sv_total: 197
   support_vectors:
      - [ 13., 1., 9., 16., 3., 14., 2., 2., 15., 27., 4., 11., 28., 14.,
          17., 4., 2., 13., 2., 7., 8., 8., 10., 3., 10., 8., 5., 2.,
          13., 15., 8., 15. ]
      - [ 5., 7., 10., 21., 8., 24., 22., 7., 10., 15., 10., 5., 12.,
          12., 11., 8., 9., 6., 5., 10., 11., 0., 15., 0., 4., 15., 13.,
          8., 8., 15., 16., 14. ]
      - [ 15., 9., 4., 17., 4., 3., 2., 16., 2., 18., 7., 11., 19., 12.,
          0., 9., 9., 15., 10., 11., 9., 10., 7., 26., 5., 6., 5., 21.,
          9., 13., 4., 7. ]
      - [ 22., 3., 4., 17., 3., 25., 25., 5., 8., 13., 6., 10., 12., 13.,
          7., 9., 13., 19., 6., 15., 4., 3., 4., 7., 7., 8., 4., 16., 2.,
          16., 0., 15. ]
      - [ 15., 9., 2., 27., 1., 21., 15., 5., 3., 6., 14., 24., 22., 19.,
          10., 8., 6., 31., 2., 5., 7., 9., 3., 7., 5., 1., 3., 12., 3.,
          6., 2., 4. ]
      - [ 11., 7., 8., 26., 2., 20., 16., 12., 5., 17., 3., 25., 13.,
          11., 8., 6., 13., 22., 16., 4., 4., 12., 12., 9., 8., 5., 5.,
          13., 13., 12., 3., 13. ]
      - [ 8., 24., 1., 3., 9., 5., 16., 6., 3., 9., 2., 14., 3., 7., 8.,
          21., 18., 7., 12., 8., 11., 10., 6., 19., 5., 1., 9., 9., 9.,
          2., 6., 15. ]
      - [ 10., 12., 8., 8., 12., 2., 6., 8., 11., 12., 7., 14., 4., 3.,
          15., 12., 8., 5., 13., 3., 8., 10., 24., 4., 3., 5., 19., 11.,
          10., 1., 13., 15. ]
      - [ 19., 5., 3., 10., 9., 15., 11., 7., 7., 21., 12., 12., 18.,
          11., 3., 13., 11., 16., 5., 6., 11., 10., 3., 14., 8., 3., 9.,
          16., 6., 5., 10., 8. ]
      - [ 20., 9., 4., 7., 10., 8., 10., 21., 8., 14., 6., 18., 26., 9.,
          6., 7., 6., 4., 11., 9., 3., 12., 6., 23., 8., 9., 11., 10.,
          3., 7., 11., 7. ]
      - [ 14., 7., 4., 20., 3., 7., 9., 8., 18., 16., 7., 12., 17., 13.,
          7., 6., 13., 9., 7., 6., 14., 10., 13., 21., 13., 8., 6., 6.,
          4., 15., 4., 18. ]
      - [ 16., 7., 6., 17., 9., 16., 12., 7., 4., 25., 6., 25., 13., 3.,
          13., 8., 9., 10., 9., 8., 8., 6., 11., 19., 6., 8., 4., 7.,
          11., 11., 7., 4. ]
      - [ 11., 17., 14., 11., 8., 3., 5., 21., 3., 10., 12., 15., 9., 6.,
          17., 12., 12., 11., 8., 2., 6., 8., 12., 12., 6., 23., 9., 13.,
          19., 10., 17., 8. ]
      - [ 11., 14., 6., 12., 4., 3., 17., 10., 10., 5., 8., 8., 3., 22.,
          9., 11., 12., 5., 5., 5., 18., 6., 7., 11., 3., 15., 11., 5.,
          9., 9., 5., 11. ]
      - [ 41., 11., 8., 17., 10., 11., 2., 11., 6., 17., 4., 21., 8.,
          19., 14., 12., 13., 26., 4., 9., 8., 17., 7., 15., 10., 5., 4.,
          18., 7., 14., 9., 4. ]
      - [ 7., 4., 2., 37., 4., 10., 2., 3., 11., 9., 10., 16., 9., 7.,
          10., 7., 3., 7., 3., 14., 1., 6., 18., 10., 13., 12., 7., 4.,
          6., 14., 5., 11. ]
      - [ 21., 1., 12., 14., 5., 9., 13., 8., 9., 8., 10., 22., 6., 6.,
          8., 9., 18., 15., 8., 13., 19., 11., 9., 9., 11., 11., 8., 13.,
          3., 7., 1., 8. ]
      - [ 13., 2., 1., 10., 14., 5., 7., 0., 8., 4., 8., 19., 19., 1.,
          3., 8., 5., 21., 2., 9., 15., 4., 4., 23., 27., 8., 3., 20.,
          6., 6., 8., 8. ]
      - [ 13., 8., 1., 16., 9., 11., 13., 2., 6., 21., 9., 34., 18., 17.,
          3., 2., 6., 14., 10., 9., 8., 7., 2., 20., 9., 5., 4., 10., 4.,
          8., 0., 5. ]
      - [ 14., 2., 3., 19., 2., 6., 14., 2., 5., 39., 8., 29., 29., 5.,
          1., 0., 9., 16., 3., 4., 9., 7., 3., 39., 22., 3., 0., 9., 3.,
          26., 4., 2. ]
      - [ 15., 13., 6., 19., 2., 13., 2., 7., 4., 23., 4., 24., 26., 8.,
          3., 17., 4., 45., 3., 5., 1., 26., 2., 33., 13., 0., 11., 10.,
          11., 10., 0., 7. ]
      - [ 6., 4., 4., 7., 11., 8., 11., 3., 17., 13., 14., 17., 15., 13.,
          5., 6., 16., 9., 3., 9., 8., 16., 4., 23., 14., 8., 8., 10.,
          11., 8., 15., 12. ]
      - [ 9., 7., 3., 13., 10., 16., 14., 12., 15., 8., 14., 13., 17.,
          7., 12., 10., 13., 5., 6., 9., 7., 9., 7., 5., 9., 7., 14.,
          12., 12., 10., 9., 14. ]
      - [ 14., 14., 7., 24., 7., 8., 11., 15., 12., 9., 7., 10., 7., 13.,
          14., 24., 9., 9., 11., 14., 6., 2., 9., 5., 12., 24., 20., 15.,
          8., 9., 5., 11. ]
      - [ 6., 8., 9., 17., 11., 8., 6., 6., 25., 13., 7., 7., 14., 27.,
          9., 3., 14., 3., 7., 7., 7., 7., 9., 7., 4., 14., 3., 1., 13.,
          12., 6., 5. ]
      - [ 6., 3., 4., 14., 12., 8., 9., 8., 10., 11., 10., 16., 27., 23.,
          7., 2., 12., 9., 8., 9., 5., 12., 9., 8., 16., 2., 10., 7., 6.,
          16., 5., 6. ]
      - [ 14., 12., 3., 4., 3., 8., 20., 5., 13., 5., 9., 4., 4., 6.,
          17., 24., 14., 5., 5., 8., 7., 8., 7., 3., 5., 15., 10., 7.,
          20., 4., 9., 18. ]
      - [ 6., 7., 1., 2., 8., 1., 18., 3., 6., 5., 8., 12., 5., 10., 7.,
          16., 11., 8., 13., 9., 10., 4., 4., 9., 11., 16., 7., 10., 9.,
          1., 7., 13. ]
      - [ 8., 5., 5., 8., 13., 6., 11., 15., 7., 8., 12., 9., 5., 7., 9.,
          2., 12., 6., 3., 13., 5., 5., 5., 6., 13., 15., 16., 5., 11.,
          5., 17., 9. ]
      - [ 10., 5., 3., 5., 4., 12., 7., 3., 6., 10., 21., 19., 12., 13.,
          2., 5., 14., 17., 5., 4., 6., 8., 5., 24., 9., 0., 3., 13., 3.,
          14., 13., 3. ]
      - [ 8., 23., 9., 8., 3., 9., 13., 12., 7., 4., 13., 16., 7., 8.,
          21., 18., 10., 15., 2., 6., 4., 4., 16., 4., 6., 15., 15., 11.,
          11., 15., 4., 9. ]
      - [ 7., 6., 8., 7., 11., 9., 10., 19., 7., 8., 10., 10., 5., 8.,
          5., 9., 13., 15., 21., 14., 4., 7., 9., 8., 9., 8., 7., 10.,
          10., 7., 4., 7. ]
      - [ 10., 11., 7., 11., 6., 7., 23., 3., 7., 14., 10., 12., 4., 10.,
          18., 8., 7., 6., 12., 15., 11., 11., 2., 6., 8., 11., 13., 9.,
          12., 15., 9., 6. ]
      - [ 9., 27., 17., 5., 3., 7., 10., 12., 4., 4., 13., 12., 4., 5.,
          11., 2., 7., 8., 8., 5., 3., 9., 8., 8., 12., 8., 21., 23., 7.,
          8., 7., 7. ]
      - [ 12., 11., 3., 10., 11., 6., 6., 5., 7., 7., 2., 10., 3., 9.,
          11., 6., 16., 8., 13., 11., 10., 7., 7., 5., 14., 14., 11., 7.,
          13., 10., 11., 17. ]
      - [ 9., 7., 3., 18., 8., 10., 9., 17., 9., 8., 10., 8., 9., 6.,
          12., 7., 3., 6., 13., 21., 7., 6., 10., 8., 9., 15., 30., 13.,
          10., 7., 10., 21. ]
      - [ 12., 12., 8., 8., 3., 3., 17., 7., 4., 3., 3., 7., 3., 4., 10.,
          13., 9., 16., 14., 3., 6., 6., 8., 10., 3., 5., 10., 18., 10.,
          10., 17., 13. ]
      - [ 2., 20., 7., 32., 2., 11., 7., 17., 7., 18., 1., 6., 14., 9.,
          12., 17., 0., 20., 3., 8., 2., 3., 8., 4., 12., 11., 17., 6.,
          15., 17., 24., 9. ]
      - [ 5., 10., 4., 17., 6., 10., 14., 20., 17., 8., 4., 9., 7., 10.,
          1., 11., 4., 11., 8., 8., 16., 3., 5., 3., 13., 12., 10., 8.,
          9., 6., 18., 2. ]
      - [ 2., 5., 2., 12., 7., 2., 3., 29., 8., 7., 2., 5., 6., 7., 2.,
          21., 3., 4., 6., 4., 8., 21., 2., 5., 4., 4., 4., 21., 2., 3.,
          23., 3. ]
      - [ 8., 19., 6., 1., 9., 6., 12., 23., 3., 1., 8., 3., 7., 3., 5.,
          10., 9., 5., 19., 5., 10., 3., 9., 12., 11., 6., 16., 10., 5.,
          5., 10., 18. ]
      - [ 12., 8., 6., 5., 2., 5., 19., 5., 11., 12., 13., 13., 6., 11.,
          6., 3., 5., 7., 17., 12., 6., 10., 5., 9., 13., 6., 8., 9., 6.,
          20., 4., 10. ]
      - [ 5., 6., 2., 8., 3., 9., 11., 9., 1., 6., 9., 9., 10., 7., 6.,
          6., 6., 15., 13., 19., 11., 6., 4., 8., 6., 8., 4., 4., 11.,
          17., 12., 5. ]
      - [ 8., 16., 9., 10., 13., 10., 7., 8., 11., 9., 4., 8., 5., 7.,
          6., 2., 2., 15., 9., 6., 10., 4., 11., 4., 16., 11., 10., 7.,
          15., 7., 13., 19. ]
      - [ 11., 13., 8., 5., 0., 3., 14., 4., 6., 17., 14., 19., 0., 4.,
          5., 4., 14., 14., 8., 5., 12., 6., 3., 1., 24., 17., 17., 3.,
          6., 5., 10., 9. ]
      - [ 7., 15., 3., 11., 0., 6., 8., 5., 8., 2., 7., 1., 9., 5., 13.,
          22., 3., 13., 10., 8., 6., 4., 11., 8., 14., 12., 11., 22., 3.,
          12., 2., 26. ]
      - [ 5., 27., 6., 3., 3., 5., 13., 17., 3., 5., 8., 3., 0., 1., 12.,
          19., 2., 6., 10., 6., 6., 9., 10., 5., 8., 25., 21., 5., 8.,
          8., 18., 8. ]
      - [ 10., 34., 6., 6., 5., 9., 7., 11., 4., 23., 7., 7., 6., 5., 4.,
          8., 5., 5., 4., 7., 11., 8., 9., 0., 14., 16., 20., 6., 0., 4.,
          6., 23. ]
      - [ 8., 11., 10., 7., 15., 6., 10., 13., 7., 14., 5., 14., 9., 9.,
          5., 14., 8., 10., 8., 2., 8., 10., 10., 6., 7., 5., 13., 14.,
          12., 8., 10., 7. ]
      - [ 8., 21., 5., 4., 0., 5., 11., 27., 9., 2., 7., 5., 4., 14.,
          10., 13., 6., 12., 15., 3., 4., 0., 9., 0., 18., 8., 21., 9.,
          2., 9., 2., 21. ]
      - [ 9., 17., 5., 1., 5., 4., 9., 24., 8., 5., 16., 9., 5., 2., 9.,
          16., 3., 9., 12., 4., 8., 1., 5., 9., 5., 11., 14., 7., 11.,
          4., 8., 9. ]
      - [ 5., 52., 6., 1., 1., 3., 3., 34., 5., 1., 7., 2., 2., 5., 14.,
          6., 6., 7., 6., 2., 4., 4., 4., 3., 3., 35., 31., 5., 4., 6.,
          1., 13. ]
      - [ 6., 32., 11., 2., 2., 3., 11., 26., 4., 15., 1., 9., 1., 7.,
          12., 5., 7., 24., 22., 5., 4., 9., 6., 2., 19., 17., 18., 16.,
          8., 8., 12., 6. ]
      - [ 5., 44., 5., 5., 2., 7., 11., 19., 11., 3., 6., 4., 6., 15.,
          11., 11., 3., 6., 18., 3., 3., 6., 3., 1., 7., 8., 32., 3., 1.,
          4., 9., 15. ]
      - [ 15., 18., 3., 4., 1., 8., 5., 22., 9., 14., 11., 5., 3., 3.,
          13., 8., 8., 12., 15., 8., 6., 10., 4., 4., 13., 10., 27., 11.,
          4., 2., 6., 9. ]
      - [ 13., 17., 7., 0., 2., 4., 5., 7., 5., 4., 13., 5., 3., 10.,
          21., 27., 6., 8., 2., 4., 10., 8., 5., 11., 15., 16., 17., 22.,
          11., 5., 6., 12. ]
      - [ 13., 3., 3., 22., 5., 12., 8., 7., 8., 17., 6., 27., 17., 8.,
          9., 1., 6., 14., 2., 11., 14., 14., 5., 2., 20., 6., 4., 13.,
          12., 8., 2., 12. ]
      - [ 12., 8., 4., 25., 5., 13., 11., 8., 16., 8., 6., 20., 14., 7.,
          9., 5., 5., 13., 3., 12., 15., 8., 8., 14., 13., 7., 4., 6.,
          9., 16., 7., 9. ]
      - [ 6., 6., 6., 18., 6., 9., 5., 7., 10., 19., 10., 27., 13., 11.,
          10., 7., 15., 9., 4., 8., 8., 12., 7., 3., 14., 8., 6., 3., 5.,
          10., 3., 5. ]
      - [ 12., 0., 6., 13., 9., 16., 7., 3., 16., 17., 17., 9., 13., 6.,
          3., 3., 8., 17., 4., 12., 15., 6., 5., 14., 12., 0., 4., 4.,
          12., 9., 6., 4. ]
      - [ 18., 2., 3., 17., 9., 13., 9., 1., 10., 12., 11., 24., 26., 9.,
          5., 6., 11., 17., 3., 12., 6., 14., 4., 9., 10., 2., 2., 1.,
          6., 22., 11., 7. ]
      - [ 13., 3., 6., 11., 11., 7., 5., 4., 3., 16., 7., 22., 20., 6.,
          7., 9., 13., 21., 5., 10., 12., 7., 4., 17., 7., 4., 5., 7.,
          13., 9., 8., 8. ]
      - [ 4., 4., 7., 13., 15., 1., 7., 9., 11., 24., 10., 14., 16., 10.,
          1., 2., 3., 11., 5., 5., 5., 17., 4., 6., 12., 3., 6., 7., 12.,
          12., 10., 3. ]
      - [ 7., 1., 2., 28., 8., 24., 2., 1., 9., 26., 14., 17., 21., 7.,
          4., 8., 6., 12., 6., 10., 5., 8., 4., 12., 6., 0., 4., 2., 7.,
          24., 6., 2. ]
      - [ 15., 2., 3., 19., 17., 11., 9., 5., 7., 12., 12., 24., 19.,
          15., 3., 2., 8., 8., 6., 9., 6., 9., 7., 3., 11., 1., 4., 3.,
          10., 16., 7., 3. ]
      - [ 25., 2., 1., 10., 8., 9., 5., 1., 13., 24., 7., 25., 14., 6.,
          9., 14., 7., 18., 1., 7., 10., 13., 8., 4., 12., 8., 4., 5.,
          13., 13., 5., 6. ]
      - [ 21., 2., 7., 15., 7., 15., 5., 6., 5., 11., 15., 36., 16., 11.,
          6., 7., 5., 9., 5., 7., 10., 13., 5., 6., 6., 4., 3., 5., 12.,
          14., 8., 6. ]
      - [ 20., 0., 2., 15., 8., 15., 3., 5., 10., 30., 12., 11., 19.,
          11., 1., 7., 7., 12., 3., 10., 10., 13., 10., 13., 9., 3., 2.,
          8., 7., 19., 7., 9. ]
      - [ 19., 0., 2., 11., 7., 16., 5., 5., 11., 12., 10., 18., 17.,
          25., 5., 3., 6., 14., 7., 10., 7., 10., 7., 8., 4., 8., 2., 7.,
          5., 26., 1., 5. ]
      - [ 22., 2., 7., 12., 6., 15., 8., 1., 14., 16., 10., 21., 23.,
          12., 5., 5., 6., 11., 2., 7., 8., 8., 1., 9., 15., 5., 1., 2.,
          12., 19., 6., 2. ]
      - [ 3., 21., 9., 4., 7., 11., 12., 15., 8., 4., 8., 12., 5., 7.,
          16., 12., 7., 8., 8., 3., 4., 6., 10., 3., 13., 11., 24., 9.,
          10., 15., 7., 14. ]
      - [ 7., 3., 8., 9., 13., 5., 7., 7., 11., 12., 21., 9., 9., 6., 8.,
          2., 9., 10., 13., 11., 11., 10., 3., 5., 8., 12., 5., 12., 18.,
          6., 9., 8. ]
      - [ 9., 22., 14., 4., 4., 4., 8., 11., 8., 10., 18., 4., 2., 4.,
          14., 12., 17., 6., 8., 17., 13., 10., 3., 1., 5., 13., 17.,
          10., 6., 4., 8., 26. ]
      - [ 10., 8., 6., 6., 15., 10., 12., 3., 9., 8., 8., 14., 13., 21.,
          9., 9., 9., 9., 8., 14., 7., 14., 13., 5., 8., 6., 10., 12.,
          12., 16., 3., 10. ]
      - [ 10., 10., 3., 15., 13., 10., 8., 6., 17., 8., 19., 20., 11.,
          19., 6., 12., 10., 10., 5., 13., 7., 11., 9., 7., 11., 5., 7.,
          4., 8., 11., 5., 4. ]
      - [ 6., 4., 10., 2., 8., 4., 4., 10., 10., 6., 18., 12., 6., 4.,
          9., 2., 12., 6., 8., 10., 11., 15., 11., 5., 5., 12., 8., 6.,
          19., 7., 17., 17. ]
      - [ 12., 18., 9., 5., 0., 7., 12., 17., 14., 8., 8., 9., 14., 11.,
          15., 8., 14., 13., 10., 7., 6., 7., 7., 1., 9., 12., 25., 5.,
          6., 11., 5., 15. ]
      - [ 10., 8., 13., 3., 13., 1., 12., 10., 8., 18., 6., 11., 7., 6.,
          3., 4., 12., 8., 9., 7., 6., 15., 11., 3., 3., 12., 5., 9.,
          14., 4., 9., 9. ]
      - [ 6., 9., 14., 11., 9., 3., 1., 6., 11., 14., 12., 12., 9., 5.,
          7., 9., 11., 9., 7., 10., 10., 12., 10., 5., 8., 12., 8., 9.,
          22., 3., 6., 11. ]
      - [ 14., 19., 8., 4., 7., 5., 8., 11., 9., 11., 3., 6., 6., 6.,
          24., 9., 9., 12., 8., 6., 5., 9., 12., 5., 5., 13., 23., 10.,
          21., 4., 8., 6. ]
      - [ 12., 6., 10., 9., 12., 3., 4., 7., 6., 9., 9., 14., 8., 8.,
          15., 4., 14., 2., 10., 7., 12., 27., 5., 2., 7., 10., 9., 4.,
          23., 5., 13., 6. ]
      - [ 6., 16., 2., 12., 10., 4., 9., 5., 9., 3., 3., 7., 14., 3., 9.,
          9., 10., 9., 4., 8., 11., 8., 12., 3., 20., 5., 9., 14., 8.,
          6., 10., 21. ]
      - [ 14., 2., 3., 4., 8., 15., 4., 2., 8., 10., 9., 9., 35., 6., 7.,
          5., 8., 7., 5., 5., 7., 11., 11., 11., 7., 5., 4., 14., 11.,
          16., 2., 12. ]
      - [ 7., 3., 1., 2., 5., 6., 1., 5., 9., 23., 8., 12., 23., 12., 3.,
          10., 6., 16., 4., 5., 12., 7., 6., 6., 13., 5., 5., 11., 11.,
          17., 1., 12. ]
      - [ 13., 3., 3., 8., 6., 13., 2., 1., 5., 25., 8., 14., 40., 10.,
          5., 6., 10., 11., 4., 7., 11., 14., 5., 14., 20., 7., 5., 6.,
          7., 11., 2., 6. ]
      - [ 16., 9., 8., 13., 7., 6., 5., 5., 27., 15., 8., 22., 14., 28.,
          6., 11., 9., 10., 7., 5., 7., 3., 12., 3., 16., 6., 8., 6., 8.,
          11., 8., 14. ]
      - [ 9., 6., 8., 9., 13., 5., 7., 9., 16., 14., 13., 12., 13., 7.,
          8., 10., 9., 7., 4., 10., 9., 7., 8., 13., 17., 5., 10., 12.,
          18., 22., 5., 7. ]
      - [ 11., 6., 1., 18., 5., 11., 6., 1., 7., 21., 7., 18., 23., 9.,
          5., 5., 4., 7., 7., 16., 7., 16., 13., 2., 19., 4., 5., 11.,
          13., 19., 9., 12. ]
      - [ 11., 8., 8., 13., 2., 9., 15., 13., 15., 6., 14., 19., 10.,
          16., 6., 7., 13., 6., 5., 9., 4., 14., 20., 0., 12., 4., 11.,
          10., 11., 25., 7., 6. ]
      - [ 9., 1., 14., 19., 5., 8., 8., 10., 9., 12., 6., 9., 25., 18.,
          10., 1., 5., 12., 3., 16., 7., 4., 2., 6., 22., 11., 2., 8.,
          9., 13., 10., 4. ]
      - [ 4., 4., 7., 11., 10., 12., 4., 7., 5., 22., 10., 30., 28., 10.,
          10., 5., 2., 15., 3., 15., 10., 12., 4., 17., 11., 6., 3., 17.,
          5., 20., 2., 11. ]
      - [ 6., 3., 4., 5., 3., 11., 2., 7., 18., 23., 14., 12., 26., 7.,
          12., 2., 9., 18., 6., 16., 7., 14., 5., 17., 17., 10., 5., 16.,
          3., 14., 2., 3. ]
      - [ 9., 15., 10., 5., 7., 2., 7., 17., 10., 2., 11., 3., 4., 6.,
          8., 9., 10., 5., 12., 5., 13., 6., 6., 0., 5., 12., 9., 10.,
          11., 4., 7., 18. ]
      - [ 11., 22., 4., 0., 9., 0., 15., 15., 14., 6., 4., 10., 2., 3.,
          9., 25., 12., 7., 20., 5., 11., 6., 13., 3., 2., 1., 19., 12.,
          23., 3., 14., 13. ]
      - [ 7., 35., 3., 0., 9., 1., 14., 27., 4., 8., 1., 1., 1., 0., 12.,
          48., 11., 7., 14., 4., 6., 7., 4., 2., 4., 6., 32., 10., 13.,
          2., 5., 12. ]
      - [ 2., 55., 3., 2., 11., 1., 11., 22., 10., 5., 5., 12., 2., 0.,
          11., 27., 16., 7., 12., 7., 4., 5., 6., 2., 0., 7., 32., 9.,
          7., 5., 4., 20. ]
      - [ 11., 27., 7., 6., 8., 5., 6., 14., 10., 8., 4., 13., 5., 3.,
          12., 18., 9., 4., 7., 10., 2., 6., 13., 5., 5., 13., 16., 6.,
          9., 10., 15., 15. ]
      - [ 7., 20., 7., 3., 8., 3., 9., 8., 11., 9., 8., 4., 5., 1., 10.,
          9., 19., 7., 8., 5., 11., 10., 15., 0., 5., 8., 13., 9., 8.,
          1., 13., 9. ]
      - [ 13., 15., 9., 4., 5., 5., 5., 4., 6., 7., 7., 16., 3., 1., 13.,
          9., 12., 11., 6., 4., 10., 8., 2., 3., 9., 20., 25., 9., 6.,
          9., 9., 20. ]
      - [ 6., 16., 8., 24., 7., 6., 18., 10., 5., 7., 8., 10., 7., 4.,
          16., 5., 26., 8., 6., 14., 7., 7., 10., 4., 2., 17., 12., 7.,
          14., 12., 10., 6. ]
      - [ 7., 9., 9., 7., 4., 3., 13., 4., 12., 6., 3., 5., 7., 2., 9.,
          8., 5., 3., 10., 14., 4., 10., 18., 7., 8., 15., 12., 6., 9.,
          10., 13., 13. ]
      - [ 8., 24., 12., 7., 3., 2., 4., 11., 5., 7., 5., 7., 2., 10., 8.,
          18., 7., 12., 6., 8., 5., 6., 9., 12., 6., 7., 8., 5., 6., 6.,
          14., 9. ]
      - [ 10., 11., 4., 6., 10., 8., 5., 7., 8., 15., 7., 5., 11., 13.,
          5., 8., 5., 13., 5., 10., 15., 7., 5., 10., 6., 7., 2., 19.,
          14., 9., 6., 12. ]
      - [ 14., 9., 10., 6., 4., 5., 2., 6., 13., 6., 7., 15., 12., 5.,
          13., 11., 8., 8., 10., 6., 7., 7., 4., 2., 10., 19., 13., 10.,
          13., 14., 9., 6. ]
      - [ 21., 21., 7., 9., 3., 3., 7., 8., 17., 8., 14., 14., 10., 17.,
          10., 1., 19., 22., 20., 8., 8., 5., 4., 6., 11., 8., 12., 11.,
          6., 10., 11., 7. ]
      - [ 12., 24., 8., 2., 5., 2., 4., 12., 5., 8., 13., 15., 8., 3.,
          12., 12., 5., 6., 9., 10., 8., 0., 17., 4., 11., 10., 26., 14.,
          3., 13., 5., 13. ]
      - [ 8., 11., 5., 9., 4., 4., 7., 4., 9., 9., 7., 6., 8., 6., 11.,
          2., 15., 12., 10., 13., 10., 9., 7., 1., 7., 9., 18., 8., 14.,
          9., 11., 21. ]
      - [ 26., 5., 2., 9., 7., 9., 1., 10., 3., 15., 7., 27., 6., 6., 7.,
          5., 11., 7., 11., 3., 9., 7., 3., 3., 14., 10., 9., 4., 10.,
          14., 6., 23. ]
      - [ 6., 5., 12., 5., 8., 13., 8., 2., 4., 10., 2., 17., 22., 14.,
          3., 4., 5., 7., 5., 11., 12., 9., 1., 11., 14., 6., 2., 11.,
          6., 11., 2., 17. ]
      - [ 16., 15., 10., 8., 8., 11., 4., 4., 12., 6., 12., 9., 10., 7.,
          11., 9., 6., 14., 12., 7., 6., 14., 5., 4., 10., 6., 8., 18.,
          8., 15., 10., 7. ]
      - [ 32., 0., 4., 11., 11., 19., 11., 2., 6., 32., 9., 19., 16.,
          11., 10., 3., 8., 19., 4., 10., 5., 5., 6., 7., 5., 3., 2., 3.,
          12., 20., 2., 1. ]
      - [ 15., 21., 11., 7., 14., 4., 10., 17., 5., 3., 10., 10., 14.,
          15., 10., 12., 14., 6., 6., 13., 13., 14., 7., 6., 9., 14.,
          13., 5., 9., 7., 6., 12. ]
      - [ 7., 1., 9., 16., 10., 8., 1., 2., 6., 24., 8., 24., 36., 17.,
          3., 2., 13., 10., 7., 15., 13., 15., 5., 8., 12., 2., 5., 8.,
          14., 23., 3., 3. ]
      - [ 6., 19., 3., 5., 18., 3., 9., 18., 3., 4., 15., 3., 3., 5.,
          30., 29., 8., 10., 12., 18., 6., 3., 6., 5., 5., 10., 24., 14.,
          8., 9., 12., 6. ]
      - [ 21., 2., 6., 20., 2., 7., 7., 4., 13., 8., 7., 22., 21., 16.,
          10., 2., 14., 15., 12., 15., 21., 3., 4., 3., 12., 4., 5., 11.,
          6., 8., 8., 8. ]
      - [ 6., 3., 10., 11., 2., 11., 10., 5., 6., 13., 7., 12., 3., 15.,
          9., 3., 12., 16., 13., 7., 5., 4., 11., 6., 6., 16., 14., 9.,
          9., 5., 17., 12. ]
      - [ 9., 12., 4., 12., 0., 9., 4., 9., 8., 10., 9., 14., 15., 8.,
          11., 9., 10., 7., 4., 9., 3., 8., 5., 3., 14., 8., 6., 8., 16.,
          12., 8., 9. ]
      - [ 16., 10., 9., 2., 3., 9., 8., 2., 15., 4., 7., 21., 7., 4., 6.,
          4., 12., 10., 8., 16., 17., 8., 11., 5., 12., 12., 6., 12.,
          12., 9., 13., 9. ]
      - [ 10., 12., 5., 10., 5., 11., 8., 6., 8., 9., 7., 12., 14., 8.,
          8., 8., 3., 8., 8., 11., 8., 6., 12., 1., 16., 27., 9., 3.,
          10., 19., 11., 16. ]
      - [ 12., 15., 11., 7., 13., 2., 7., 6., 5., 11., 11., 14., 6., 4.,
          3., 8., 12., 8., 5., 5., 19., 9., 10., 9., 8., 14., 7., 6.,
          17., 9., 11., 10. ]
      - [ 25., 6., 6., 10., 11., 14., 4., 0., 5., 5., 6., 12., 16., 14.,
          9., 15., 12., 18., 4., 12., 18., 11., 4., 9., 5., 5., 1., 14.,
          14., 18., 5., 10. ]
      - [ 10., 4., 5., 12., 5., 6., 5., 5., 7., 14., 9., 7., 19., 22.,
          15., 8., 14., 18., 4., 5., 15., 7., 9., 14., 5., 5., 3., 14.,
          6., 6., 3., 9. ]
      - [ 13., 14., 11., 8., 7., 12., 3., 7., 5., 24., 6., 7., 19., 8.,
          12., 15., 12., 2., 3., 7., 12., 11., 16., 5., 3., 4., 7., 11.,
          5., 8., 7., 14. ]
      - [ 14., 7., 6., 5., 11., 14., 15., 12., 3., 9., 12., 17., 8., 3.,
          7., 21., 14., 3., 10., 16., 13., 5., 16., 5., 14., 9., 11.,
          11., 10., 15., 3., 15. ]
      - [ 1., 43., 9., 2., 7., 1., 7., 26., 7., 2., 7., 5., 1., 1., 22.,
          16., 11., 2., 8., 7., 3., 2., 10., 1., 7., 23., 23., 5., 9.,
          2., 14., 19. ]
      - [ 12., 23., 12., 6., 7., 3., 8., 14., 11., 6., 6., 12., 3., 2.,
          15., 11., 6., 9., 13., 10., 7., 1., 15., 9., 5., 11., 15., 7.,
          17., 4., 5., 12. ]
      - [ 17., 17., 9., 6., 6., 4., 8., 10., 4., 8., 6., 3., 7., 6., 11.,
          7., 10., 7., 17., 10., 8., 7., 18., 2., 4., 15., 15., 7., 5.,
          5., 6., 16. ]
      - [ 9., 48., 11., 6., 5., 3., 10., 26., 8., 4., 5., 5., 1., 7.,
          12., 7., 11., 6., 17., 6., 11., 2., 11., 1., 6., 8., 14., 11.,
          4., 10., 7., 15. ]
      - [ 17., 14., 6., 11., 2., 12., 16., 13., 9., 15., 4., 15., 7.,
          15., 7., 14., 5., 11., 11., 6., 15., 0., 4., 6., 11., 4., 11.,
          6., 9., 10., 4., 11. ]
      - [ 8., 16., 4., 7., 12., 6., 9., 19., 16., 8., 8., 12., 15., 5.,
          9., 23., 12., 8., 11., 7., 7., 2., 9., 12., 7., 10., 16., 6.,
          14., 3., 4., 5. ]
      - [ 11., 13., 14., 2., 14., 1., 9., 16., 14., 4., 8., 9., 3., 1.,
          8., 15., 5., 3., 11., 2., 4., 8., 14., 2., 4., 9., 7., 10., 7.,
          5., 16., 18. ]
      - [ 18., 15., 10., 6., 6., 3., 10., 26., 5., 9., 6., 14., 4., 11.,
          9., 16., 7., 8., 6., 15., 14., 7., 6., 1., 4., 4., 18., 7.,
          11., 3., 4., 10. ]
      - [ 8., 23., 10., 3., 9., 11., 9., 8., 6., 6., 7., 9., 6., 4., 10.,
          13., 8., 8., 8., 11., 16., 9., 12., 4., 9., 11., 8., 8., 9.,
          1., 14., 8. ]
      - [ 12., 11., 6., 2., 14., 2., 5., 11., 8., 6., 9., 12., 5., 5.,
          6., 14., 14., 4., 6., 12., 5., 6., 6., 13., 2., 4., 11., 13.,
          15., 11., 15., 7. ]
      - [ 22., 9., 3., 6., 6., 7., 10., 9., 5., 10., 5., 7., 8., 9., 20.,
          22., 16., 12., 13., 7., 5., 4., 11., 4., 7., 15., 10., 7., 8.,
          9., 12., 15. ]
      - [ 16., 13., 5., 10., 7., 11., 12., 15., 5., 4., 4., 7., 5., 12.,
          22., 18., 13., 6., 7., 13., 8., 6., 15., 3., 6., 14., 10., 7.,
          11., 9., 10., 15. ]
      - [ 10., 23., 11., 1., 6., 5., 13., 17., 4., 1., 7., 3., 4., 5.,
          9., 22., 7., 7., 4., 6., 9., 3., 9., 2., 8., 17., 11., 9., 14.,
          4., 14., 23. ]
      - [ 4., 7., 6., 19., 5., 7., 5., 8., 11., 17., 11., 27., 14., 10.,
          10., 9., 16., 8., 5., 8., 8., 12., 7., 3., 11., 9., 7., 3., 4.,
          11., 3., 9. ]
      - [ 16., 0., 6., 19., 10., 19., 7., 3., 19., 20., 20., 12., 14.,
          9., 3., 3., 8., 19., 4., 12., 17., 8., 5., 14., 15., 0., 4.,
          5., 13., 14., 7., 4. ]
      - [ 20., 4., 4., 14., 12., 17., 10., 2., 9., 16., 10., 27., 30.,
          12., 8., 7., 13., 18., 5., 13., 7., 15., 8., 13., 10., 3., 4.,
          1., 12., 21., 13., 10. ]
      - [ 12., 3., 6., 15., 8., 3., 6., 5., 5., 17., 6., 23., 20., 6.,
          4., 8., 14., 21., 5., 9., 11., 7., 0., 14., 11., 4., 6., 7.,
          9., 12., 8., 7. ]
      - [ 3., 2., 6., 10., 15., 1., 5., 7., 9., 22., 10., 12., 13., 7.,
          1., 2., 0., 10., 3., 7., 5., 16., 7., 7., 8., 2., 3., 7., 12.,
          9., 7., 1. ]
      - [ 8., 3., 2., 25., 11., 25., 4., 4., 10., 28., 15., 20., 23., 9.,
          5., 8., 7., 13., 7., 9., 5., 10., 3., 11., 9., 0., 5., 2., 6.,
          26., 6., 2. ]
      - [ 21., 0., 3., 26., 17., 12., 9., 3., 12., 23., 13., 28., 21.,
          16., 3., 11., 10., 10., 5., 10., 9., 14., 13., 6., 13., 4., 6.,
          5., 14., 20., 8., 7. ]
      - [ 23., 3., 6., 10., 10., 14., 6., 4., 9., 13., 6., 33., 16., 7.,
          12., 8., 8., 18., 5., 9., 15., 11., 3., 2., 13., 7., 2., 8.,
          14., 14., 9., 6. ]
      - [ 27., 1., 2., 18., 6., 19., 3., 6., 6., 29., 19., 24., 23., 10.,
          2., 8., 5., 14., 4., 10., 6., 19., 11., 14., 7., 4., 4., 2.,
          12., 18., 8., 9. ]
      - [ 19., 0., 2., 13., 10., 18., 5., 4., 16., 17., 14., 19., 17.,
          25., 6., 3., 8., 13., 7., 10., 10., 9., 3., 8., 6., 9., 2.,
          11., 5., 25., 3., 5. ]
      - [ 9., 0., 2., 2., 1., 3., 2., 2., 2., 2., 3., 6., 6., 8., 0., 3.,
          1., 5., 1., 4., 3., 3., 5., 4., 1., 0., 0., 2., 2., 10., 0.,
          2. ]
      - [ 22., 3., 9., 14., 10., 14., 10., 3., 17., 15., 11., 24., 22.,
          12., 7., 7., 7., 14., 1., 6., 9., 8., 1., 9., 17., 8., 3., 4.,
          13., 21., 7., 4. ]
      - [ 3., 17., 5., 0., 2., 9., 7., 11., 4., 4., 5., 7., 2., 7., 14.,
          9., 5., 5., 8., 2., 3., 6., 8., 2., 9., 7., 21., 5., 7., 10.,
          6., 9. ]
      - [ 1., 5., 5., 5., 2., 3., 3., 3., 5., 2., 7., 3., 4., 0., 2., 1.,
          4., 5., 0., 3., 2., 1., 4., 1., 3., 5., 2., 3., 6., 4., 3., 5. ]
      - [ 10., 4., 12., 7., 15., 4., 8., 10., 11., 17., 22., 7., 10., 7.,
          10., 8., 15., 6., 16., 14., 15., 15., 1., 5., 10., 10., 6.,
          16., 15., 6., 8., 13. ]
      - [ 8., 26., 8., 4., 2., 7., 13., 10., 7., 5., 17., 7., 6., 10.,
          13., 9., 13., 8., 6., 15., 9., 10., 7., 3., 6., 15., 20., 9.,
          9., 8., 8., 25. ]
      - [ 10., 4., 7., 6., 16., 10., 8., 4., 9., 10., 9., 15., 12., 18.,
          6., 14., 7., 9., 9., 15., 8., 12., 10., 4., 7., 4., 7., 11.,
          10., 13., 1., 5. ]
      - [ 10., 8., 5., 16., 13., 9., 6., 6., 20., 8., 19., 20., 6., 17.,
          7., 6., 12., 7., 7., 13., 11., 14., 12., 9., 10., 10., 7., 3.,
          16., 11., 12., 8. ]
      - [ 11., 14., 13., 3., 6., 4., 13., 16., 14., 9., 18., 11., 15.,
          10., 16., 5., 14., 16., 12., 11., 9., 11., 9., 2., 6., 10.,
          21., 5., 12., 13., 14., 20. ]
      - [ 13., 15., 13., 5., 5., 6., 15., 15., 10., 17., 7., 15., 11.,
          9., 9., 6., 18., 10., 9., 6., 5., 17., 12., 3., 8., 16., 15.,
          11., 11., 5., 8., 16. ]
      - [ 7., 8., 14., 11., 16., 3., 0., 8., 13., 16., 12., 14., 10., 4.,
          8., 10., 10., 9., 9., 10., 9., 13., 14., 4., 8., 15., 7., 11.,
          25., 3., 8., 11. ]
      - [ 12., 15., 6., 4., 4., 5., 9., 11., 8., 10., 4., 5., 4., 7.,
          22., 7., 11., 9., 7., 9., 8., 6., 8., 5., 5., 12., 18., 10.,
          21., 5., 7., 5. ]
      - [ 14., 11., 14., 9., 16., 3., 4., 7., 7., 10., 9., 15., 10., 8.,
          17., 7., 14., 6., 11., 7., 12., 31., 9., 3., 7., 11., 15., 4.,
          25., 5., 14., 7. ]
      - [ 6., 17., 2., 12., 11., 5., 9., 5., 11., 3., 4., 9., 19., 4.,
          10., 8., 13., 9., 5., 10., 12., 10., 13., 4., 20., 6., 9., 14.,
          8., 6., 10., 24. ]
      - [ 17., 3., 3., 4., 9., 18., 5., 5., 12., 17., 13., 11., 45., 7.,
          9., 10., 7., 18., 4., 6., 11., 9., 12., 11., 8., 6., 7., 17.,
          13., 23., 2., 13. ]
      - [ 9., 4., 3., 8., 4., 8., 2., 3., 6., 26., 9., 14., 35., 17., 4.,
          9., 14., 12., 8., 7., 12., 16., 8., 14., 20., 7., 7., 11., 12.,
          15., 1., 10. ]
      - [ 13., 4., 4., 10., 9., 12., 3., 4., 16., 22., 4., 21., 18., 17.,
          3., 10., 6., 10., 5., 4., 11., 7., 7., 8., 17., 9., 5., 7., 7.,
          10., 6., 12. ]
      - [ 13., 10., 11., 10., 9., 1., 6., 6., 22., 18., 13., 13., 18.,
          18., 8., 9., 5., 7., 5., 6., 9., 5., 10., 12., 21., 4., 9.,
          10., 9., 15., 6., 10. ]
      - [ 11., 5., 2., 11., 9., 12., 8., 5., 10., 14., 11., 12., 12., 6.,
          8., 9., 8., 8., 7., 16., 7., 11., 15., 1., 17., 4., 6., 13.,
          18., 28., 6., 13. ]
      - [ 14., 7., 4., 16., 3., 8., 11., 8., 11., 12., 9., 20., 22., 16.,
          6., 4., 10., 7., 3., 11., 3., 13., 10., 2., 17., 4., 11., 9.,
          13., 16., 8., 7. ]
      - [ 8., 3., 12., 21., 3., 8., 10., 12., 15., 11., 11., 18., 19.,
          14., 4., 4., 8., 11., 6., 12., 6., 11., 13., 3., 17., 6., 4.,
          8., 11., 22., 11., 3. ]
      - [ 9., 4., 9., 15., 11., 9., 5., 10., 4., 18., 10., 21., 16., 12.,
          15., 4., 4., 12., 3., 18., 5., 7., 3., 11., 11., 11., 4., 12.,
          9., 19., 6., 7. ]
      - [ 6., 4., 7., 5., 6., 13., 3., 7., 11., 18., 14., 19., 31., 12.,
          13., 3., 9., 14., 6., 15., 10., 16., 6., 19., 14., 8., 4., 15.,
          3., 12., 0., 6. ]
      - [ 6., 12., 12., 5., 6., 8., 6., 13., 13., 16., 8., 7., 19., 7.,
          9., 8., 6., 13., 7., 10., 16., 10., 5., 7., 16., 10., 4., 15.,
          9., 10., 9., 17. ]
      - [ 14., 25., 4., 2., 10., 0., 13., 18., 20., 7., 9., 12., 3., 5.,
          5., 25., 15., 9., 20., 6., 14., 7., 14., 2., 2., 6., 22., 15.,
          24., 5., 14., 15. ]
      - [ 7., 35., 3., 0., 9., 1., 18., 28., 6., 8., 1., 1., 1., 0., 16.,
          51., 13., 7., 19., 5., 7., 7., 5., 3., 5., 6., 36., 11., 15.,
          2., 5., 14. ]
      - [ 1., 48., 3., 2., 9., 0., 9., 18., 5., 3., 3., 10., 2., 0., 6.,
          25., 15., 4., 10., 5., 3., 4., 4., 0., 0., 2., 29., 9., 6., 4.,
          3., 16. ]
      - [ 12., 34., 7., 6., 10., 3., 8., 18., 11., 10., 6., 15., 2., 3.,
          17., 17., 10., 7., 8., 10., 2., 6., 14., 6., 5., 17., 18., 3.,
          10., 11., 14., 17. ]
      - [ 6., 20., 7., 1., 7., 6., 8., 8., 11., 8., 8., 3., 8., 1., 10.,
          10., 18., 6., 9., 6., 10., 10., 16., 1., 5., 9., 13., 11., 8.,
          1., 15., 11. ]
      - [ 12., 4., 8., 17., 9., 8., 4., 6., 15., 15., 6., 13., 17., 6.,
          10., 6., 12., 14., 5., 6., 6., 12., 10., 11., 14., 7., 4., 9.,
          12., 13., 4., 8. ]
      - [ 16., 17., 10., 9., 6., 4., 11., 4., 6., 6., 10., 18., 5., 1.,
          14., 8., 19., 12., 8., 6., 12., 9., 1., 6., 10., 20., 27., 11.,
          11., 12., 12., 20. ]
      - [ 3., 15., 12., 24., 7., 7., 19., 9., 8., 9., 5., 11., 7., 4.,
          17., 9., 21., 8., 9., 18., 7., 6., 13., 8., 6., 20., 12., 7.,
          14., 14., 11., 13. ]
      - [ 11., 19., 12., 5., 6., 3., 8., 10., 10., 8., 4., 8., 6., 10.,
          8., 14., 5., 9., 5., 12., 7., 12., 22., 11., 5., 15., 13., 7.,
          9., 9., 16., 10. ]
      - [ 7., 40., 10., 5., 11., 1., 8., 9., 7., 8., 8., 5., 7., 2., 18.,
          17., 11., 11., 13., 6., 8., 11., 7., 4., 6., 11., 9., 9., 11.,
          4., 11., 10. ]
      - [ 9., 10., 2., 6., 10., 7., 5., 8., 12., 13., 10., 8., 12., 14.,
          5., 6., 7., 11., 7., 13., 16., 7., 9., 13., 8., 8., 1., 24.,
          15., 13., 6., 12. ]
      - [ 18., 12., 12., 8., 4., 6., 3., 6., 16., 8., 12., 16., 14., 9.,
          15., 14., 9., 12., 11., 6., 10., 9., 4., 4., 14., 22., 14.,
          12., 14., 14., 9., 7. ]
      - [ 20., 24., 9., 10., 4., 3., 6., 9., 15., 9., 11., 13., 11., 16.,
          9., 5., 18., 21., 21., 8., 8., 5., 5., 6., 8., 7., 14., 9., 5.,
          13., 11., 6. ]
      - [ 12., 24., 6., 1., 5., 5., 5., 11., 7., 9., 14., 16., 8., 2.,
          13., 8., 8., 12., 10., 12., 9., 1., 20., 5., 13., 11., 26.,
          15., 4., 13., 8., 15. ]
      - [ 8., 8., 6., 10., 3., 2., 6., 4., 7., 8., 4., 6., 6., 8., 11.,
          2., 13., 7., 8., 12., 10., 8., 4., 1., 6., 10., 18., 8., 15.,
          6., 9., 21. ]
      - [ 10., 4., 9., 4., 9., 8., 1., 9., 5., 4., 17., 16., 5., 4., 7.,
          2., 9., 7., 1., 3., 8., 1., 9., 4., 8., 2., 10., 5., 11., 8.,
          4., 8. ]
      - [ 26., 4., 1., 10., 8., 9., 2., 13., 2., 14., 5., 24., 6., 6.,
          8., 5., 11., 7., 11., 4., 9., 7., 3., 3., 14., 11., 9., 4., 9.,
          11., 6., 23. ]
      - [ 6., 6., 13., 5., 8., 13., 8., 2., 5., 10., 4., 20., 22., 15.,
          2., 4., 6., 6., 5., 11., 12., 9., 1., 11., 15., 6., 2., 11.,
          7., 14., 3., 17. ]
      - [ 21., 15., 11., 11., 10., 14., 8., 5., 12., 17., 13., 16., 12.,
          8., 13., 9., 8., 16., 14., 8., 6., 17., 9., 5., 12., 6., 8.,
          18., 10., 22., 10., 7. ]
      - [ 32., 9., 8., 10., 13., 19., 13., 9., 7., 22., 11., 14., 24.,
          14., 15., 7., 13., 21., 6., 15., 10., 6., 3., 8., 6., 7., 9.,
          4., 16., 15., 4., 4. ]
      - [ 14., 13., 10., 13., 14., 5., 4., 11., 7., 14., 9., 14., 24.,
          12., 7., 10., 11., 5., 5., 13., 12., 16., 9., 8., 13., 12.,
          11., 6., 12., 13., 7., 12. ]
      - [ 5., 11., 6., 10., 15., 6., 2., 7., 3., 13., 12., 20., 17., 19.,
          10., 16., 13., 12., 7., 11., 12., 9., 2., 6., 9., 2., 8., 9.,
          9., 18., 8., 2. ]
      - [ 10., 9., 4., 10., 10., 5., 13., 12., 9., 9., 10., 7., 13., 4.,
          23., 14., 8., 14., 13., 19., 12., 5., 7., 4., 3., 9., 17., 14.,
          8., 8., 6., 7. ]
      - [ 17., 1., 10., 17., 2., 5., 5., 6., 10., 8., 9., 20., 10., 19.,
          10., 1., 16., 12., 14., 15., 13., 3., 8., 4., 12., 10., 9.,
          10., 5., 7., 14., 9. ]
      - [ 9., 8., 5., 11., 1., 11., 8., 7., 5., 11., 7., 12., 8., 13.,
          10., 9., 10., 14., 9., 10., 4., 5., 8., 4., 12., 10., 12., 8.,
          16., 11., 13., 10. ]
      - [ 16., 13., 8., 9., 0., 10., 9., 6., 18., 10., 12., 16., 14., 9.,
          11., 5., 16., 8., 7., 15., 11., 10., 11., 8., 13., 14., 8.,
          18., 12., 8., 13., 10. ]
   decision_functions:
      -
         sv_count: 106
         rho: -7.2005397348543254e-01
         alpha: [ 2.5000000000000000e+00, 2.5000000000000000e+00,
             1.5464337862850672e+00, 2.2947747267802532e-01,
             1.2728853955130850e+00, 3.9878880131563116e-01,
             2.5000000000000000e+00, 2.5000000000000000e+00,
             2.5000000000000000e+00, 1.0590738167548674e+00,
             2.5000000000000000e+00, 2.5000000000000000e+00,
             2.5000000000000000e+00, 2.5000000000000000e+00,
             2.5000000000000000e+00, 2.5000000000000000e+00,
             2.5000000000000000e+00, 2.5000000000000000e+00,
             2.5000000000000000e+00, 2.5000000000000000e+00,
             2.5000000000000000e+00, 1.7141401442717352e+00,
             2.5000000000000000e+00, 2.5000000000000000e+00,
             2.5000000000000000e+00, 2.5000000000000000e+00,
             2.5000000000000000e+00, 1.5647334401672173e+00,
             2.5000000000000000e+00, 2.5000000000000000e+00,
             2.5000000000000000e+00, 2.5000000000000000e+00,
             2.5000000000000000e+00, 1.2897423054459056e+00,
             1.6869891435021027e+00, 2.5000000000000000e+00,
             1.0236286460856314e+00, 1.0300070089018212e+00,
             2.5000000000000000e+00, 2.5000000000000000e+00,
             2.5000000000000000e+00, 2.5000000000000000e+00,
             2.5000000000000000e+00, 2.5000000000000000e+00,
             2.5000000000000000e+00, 2.5000000000000000e+00,
             2.5000000000000000e+00, 2.5000000000000000e+00,
             2.5000000000000000e+00, 2.5000000000000000e+00,
             2.5000000000000000e+00, 2.5000000000000000e+00,
             2.5000000000000000e+00, -2.5000000000000000e+00,
             -2.5000000000000000e+00, -7.2560883800576992e-01,
             -2.5000000000000000e+00, -2.5000000000000000e+00,
             -2.5000000000000000e+00, -2.5000000000000000e+00,
             -2.4807264357343954e+00, -6.8121767133484529e-02,
             -2.5000000000000000e+00, -2.5000000000000000e+00,
             -2.5000000000000000e+00, -2.5000000000000000e+00,
             -9.6178112085672685e-01, -2.5000000000000000e+00,
             -2.5000000000000000e+00, -1.8264962682441563e+00,
             -2.5000000000000000e+00, -2.5000000000000000e+00,
             -2.0083987520999802e+00, -2.5000000000000000e+00,
             -2.5000000000000000e+00, -2.1229052908081095e-01,
             -2.5000000000000000e+00, -1.2080016282470167e+00,
             -2.5000000000000000e+00, -2.5000000000000000e+00,
             -2.5000000000000000e+00, -2.5000000000000000e+00,
             -2.5000000000000000e+00, -2.5000000000000000e+00,
             -2.5000000000000000e+00, -2.5000000000000000e+00,
             -2.5000000000000000e+00, -2.5000000000000000e+00,
             -2.5000000000000000e+00, -2.5000000000000000e+00,
             -2.5000000000000000e+00, -2.5000000000000000e+00,
             -2.5000000000000000e+00, -2.5000000000000000e+00,
             -1.3708822063654502e+00, -2.5000000000000000e+00,
             -2.5000000000000000e+00, -2.5000000000000000e+00,
             -2.5000000000000000e+00, -6.1406558270554124e-01,
             -1.3395268324477554e+00, -2.5000000000000000e+00,
             -2.5000000000000000e+00, -2.5000000000000000e+00,
             -2.5000000000000000e+00, -2.5000000000000000e+00 ]
         index: [ 0, 1, 2, 3, 4, 5, 6, 7, 8, 9, 10, 11, 12, 13, 14, 15,
             16, 17, 18, 21, 22, 23, 24, 25, 26, 27, 28, 29, 30, 31, 32,
             33, 34, 35, 36, 37, 38, 39, 40, 41, 42, 43, 44, 45, 46, 47,
             48, 49, 50, 51, 53, 54, 55, 56, 57, 58, 59, 61, 62, 63, 67,
             68, 70, 71, 74, 76, 77, 79, 81, 85, 88, 89, 90, 91, 92, 93,
             94, 95, 98, 99, 100, 101, 102, 104, 105, 107, 108, 109, 113,
             115, 118, 121, 123, 124, 125, 126, 127, 128, 129, 130, 131,
             132, 133, 134, 135, 136 ]
      -
         sv_count: 94
         rho: -3.4960070666169862e-01
         alpha: [ 2.5000000000000000e+00, 2.5000000000000000e+00,
             1.8476925420452823e+00, 2.3250213616520274e-01,
             2.8663055296054546e-01, 2.5000000000000000e+00,
             2.5000000000000000e+00, 2.5000000000000000e+00,
             3.7011699843306251e-01, 2.5000000000000000e+00,
             2.5000000000000000e+00, 2.5000000000000000e+00,
             2.5000000000000000e+00, 2.5000000000000000e+00,
             2.5000000000000000e+00, 2.5000000000000000e+00,
             2.5000000000000000e+00, 8.8206450810315096e-01,
             3.0594201027803369e-01, 2.5000000000000000e+00,
             2.5000000000000000e+00, 2.5000000000000000e+00,
             2.5000000000000000e+00, 2.5000000000000000e+00,
             2.5000000000000000e+00, 2.5000000000000000e+00,
             2.5000000000000000e+00, 2.5000000000000000e+00,
             2.5000000000000000e+00, 2.5000000000000000e+00,
             2.5000000000000000e+00, 1.2158460175481041e+00,
             1.2639696076585170e+00, 2.3290690845097617e-01,
             2.5000000000000000e+00, 2.5000000000000000e+00,
             2.5000000000000000e+00, 2.5000000000000000e+00,
             2.5000000000000000e+00, 2.5000000000000000e+00,
             2.5000000000000000e+00, 2.5000000000000000e+00,
             1.8042647381977577e+00, 4.7853877350470003e-01,
             2.5000000000000000e+00, 2.5000000000000000e+00,
             2.5000000000000000e+00, -7.0352780951974314e-01,
             -2.5000000000000000e+00, -2.5000000000000000e+00,
             -1.2375418891897778e+00, -2.5000000000000000e+00,
             -2.5000000000000000e+00, -9.5834616767063521e-02,
             -2.5000000000000000e+00, -2.5000000000000000e+00,
             -2.5000000000000000e+00, -6.3460845860510928e-01,
             -2.5000000000000000e+00, -7.0315880221818061e-01,
             -2.5000000000000000e+00, -2.5000000000000000e+00,
             -2.5000000000000000e+00, -2.5000000000000000e+00,
             -2.5000000000000000e+00, -2.5000000000000000e+00,
             -7.2993986742980155e-01, -2.5000000000000000e+00,
             -2.5000000000000000e+00, -2.5000000000000000e+00,
             -1.7210344287545547e+00, -2.5000000000000000e+00,
             -2.5000000000000000e+00, -2.5000000000000000e+00,
             -1.7758978285388918e+00, -2.5000000000000000e+00,
             -2.5000000000000000e+00, -2.5000000000000000e+00,
             -2.5000000000000000e+00, -2.5000000000000000e+00,
             -2.5000000000000000e+00, -4.4465941063204389e-01,
             -2.5000000000000000e+00, -2.5000000000000000e+00,
             -1.3067105032572606e+00, -1.4257239714160266e+00,
             -2.5000000000000000e+00, -2.2615308239209977e+00,
             -2.2697354800941043e+00, -1.1105709030017792e+00,
             -2.5000000000000000e+00, -2.5000000000000000e+00,
             -2.5000000000000000e+00, -2.5000000000000000e+00 ]
         index: [ 0, 1, 2, 4, 5, 6, 7, 8, 9, 10, 11, 12, 14, 15, 16, 17,
             18, 19, 20, 21, 22, 24, 25, 26, 28, 29, 30, 31, 32, 33, 34,
             35, 37, 39, 41, 42, 43, 44, 45, 47, 48, 50, 51, 52, 53, 54,
             55, 137, 138, 140, 141, 142, 145, 146, 147, 149, 150, 151,
             152, 153, 154, 156, 158, 160, 163, 164, 167, 168, 169, 170,
             171, 172, 173, 174, 175, 176, 177, 178, 179, 180, 181, 182,
             183, 184, 185, 186, 187, 188, 189, 190, 193, 194, 195, 196 ]
      -
         sv_count: 129
         rho: -5.8672599374814749e-01
         alpha: [ 2.2335681272370871e+00, 1.6136630904459133e+00,
             2.5000000000000000e+00, 1.7306932187724315e+00,
             2.5000000000000000e+00, 2.5000000000000000e+00,
             2.5000000000000000e+00, 1.9458141329777869e+00,
             1.1943051355235401e+00, 2.0860873851802020e+00,
             2.1169310044829341e+00, 2.5000000000000000e+00,
             2.2410524371798686e+00, 2.5000000000000000e+00,
             2.5000000000000000e+00, 2.5000000000000000e+00,
             2.5000000000000000e+00, 2.5000000000000000e+00,
             2.5000000000000000e+00, 2.5000000000000000e+00,
             2.5000000000000000e+00, 2.5000000000000000e+00,
             2.5000000000000000e+00, 2.5000000000000000e+00,
             2.5000000000000000e+00, 2.5000000000000000e+00,
             2.1242296455161260e+00, 1.5761389524503024e+00,
             2.5000000000000000e+00, 2.5000000000000000e+00,
             2.5000000000000000e+00, 2.5000000000000000e+00,
             2.5000000000000000e+00, 2.5000000000000000e+00,
             2.5000000000000000e+00, 2.5000000000000000e+00,
             2.5000000000000000e+00, 1.4037372866089013e+00,
             2.5000000000000000e+00, 2.5000000000000000e+00,
             1.2803603426922919e-01, 2.5000000000000000e+00,
             2.5000000000000000e+00, 1.1439517061557936e+00,
             2.5000000000000000e+00, 2.5000000000000000e+00,
             2.5000000000000000e+00, 2.5000000000000000e+00,
             1.6429998847608152e+00, 2.5000000000000000e+00,
             2.3425264863150406e+00, 2.5000000000000000e+00,
             2.5000000000000000e+00, 2.5000000000000000e+00,
             2.3069768654554936e+00, 2.5000000000000000e+00,
             1.2323053700612858e+00, 2.5000000000000000e+00,
             2.5000000000000000e+00, 1.9684316749325497e+00,
             1.7349895010046967e+00, 1.9345522009173237e+00,
             2.5000000000000000e+00, 1.4725739896987111e+00,
             6.2515661547387635e-01, 2.1093604890654083e+00,
             2.5000000000000000e+00, 9.6029750947855230e-01,
             1.3162125603613065e-01, -2.5000000000000000e+00,
             -2.5000000000000000e+00, -2.5000000000000000e+00,
             -2.5000000000000000e+00, -2.5000000000000000e+00,
             -2.5000000000000000e+00, -2.5000000000000000e+00,
             -2.5000000000000000e+00, -2.5000000000000000e+00,
             -2.5000000000000000e+00, -2.5000000000000000e+00,
             -2.5000000000000000e+00, -2.5000000000000000e+00,
             -2.5000000000000000e+00, -2.5000000000000000e+00,
             -2.5000000000000000e+00, -2.5000000000000000e+00,
             -2.5000000000000000e+00, -2.5000000000000000e+00,
             -2.5000000000000000e+00, -2.5000000000000000e+00,
             -2.5000000000000000e+00, -2.5000000000000000e+00,
             -2.5000000000000000e+00, -2.5000000000000000e+00,
             -2.5000000000000000e+00, -2.5000000000000000e+00,
             -2.5000000000000000e+00, -2.5000000000000000e+00,
             -2.5000000000000000e+00, -2.5000000000000000e+00,
             -2.5000000000000000e+00, -2.5000000000000000e+00,
             -2.5000000000000000e+00, -2.5000000000000000e+00,
             -2.5000000000000000e+00, -2.5000000000000000e+00,
             -2.5000000000000000e+00, -2.5000000000000000e+00,
             -2.5000000000000000e+00, -2.5000000000000000e+00,
             -2.5000000000000000e+00, -2.5000000000000000e+00,
             -2.5000000000000000e+00, -2.5000000000000000e+00,
             -2.5000000000000000e+00, -2.5000000000000000e+00,
             -2.5000000000000000e+00, -2.5000000000000000e+00,
             -2.5000000000000000e+00, -2.5000000000000000e+00,
             -2.5000000000000000e+00, -2.5000000000000000e+00,
             -2.5000000000000000e+00, -2.5000000000000000e+00,
             -2.5000000000000000e+00, -2.5000000000000000e+00,
             -2.5000000000000000e+00, -2.5000000000000000e+00,
             -2.5000000000000000e+00 ]
         index: [ 56, 57, 58, 59, 60, 61, 62, 63, 64, 65, 66, 67, 68, 69,
             70, 71, 72, 73, 74, 75, 76, 77, 78, 79, 80, 81, 82, 83, 84,
             85, 86, 87, 88, 89, 90, 91, 93, 94, 95, 96, 97, 98, 99, 102,
             103, 104, 105, 106, 107, 109, 110, 111, 112, 113, 114, 115,
             116, 117, 118, 119, 120, 121, 122, 123, 125, 127, 129, 133,
             134, 137, 138, 139, 140, 141, 142, 143, 144, 145, 146, 147,
             148, 149, 150, 151, 152, 153, 154, 155, 156, 157, 158, 159,
             160, 161, 162, 163, 164, 165, 166, 167, 168, 169, 170, 171,
             172, 173, 174, 175, 176, 177, 178, 179, 180, 181, 182, 183,
             184, 185, 186, 187, 188, 189, 190, 191, 192, 193, 194, 195,
             196 ]
